svm_type c_svc
kernel_type sigmoid
gamma 0.02
coef0 0.0
nr_class 2
total_sv 281
rho 3.786170867771954
label 1 3
nr_sv 141 140
SV
1.0 1:-0.969158 2:-0.903446 3:-0.964055 4:-0.733805 5:-0.655252 6:-0.287713 7:-0.684873 8:-0.947159 9:-0.911201 10:-0.989799 11:-0.988419 12:-0.996534 13:-0.994377 14:-0.997895 15:-0.916836 16:-0.927711 17:-0.939805 18:-0.965483 19:-0.989833 20:-0.993764 21:-0.997029 22:-0.999076 23:-0.995418 24:-0.997623 25:-0.998924 26:-0.9948 27:-0.99677 28:-0.993977 29:-0.991269 30:-0.981633 31:-0.97875 32:-0.989634 33:-0.994494 34:-0.984292 35:-0.98782 36:-0.984669 37:-0.987607 38:-0.988738 39:-0.992664 40:-0.994033 41:-0.990445 42:-0.990451 43:-0.992735 44:-0.982145 45:-0.977163 46:-0.991149 47:-0.981244 48:-0.972887 49:-0.990164 50:-0.977716 
1.0 1:-0.877631 2:-0.644769 3:-0.711764 4:-0.616329 5:-0.493092 6:-0.664337 7:-0.982543 8:-0.99435 9:-0.99429 10:-0.993786 11:-0.990395 12:-0.996763 13:-0.986827 14:-0.994193 15:-0.987899 16:-0.989187 17:-0.98748 18:-0.983705 19:-0.992587 20:-0.993023 21:-0.995979 22:-0.993345 23:-0.995598 24:-0.995965 25:-0.994264 26:-0.993241 27:-0.99002 28:-0.991295 29:-0.98222 30:-0.979152 31:-0.948006 32:-0.980089 33:-0.975628 34:-0.960564 35:-0.954881 36:-0.97295 37:-0.970425 38:-0.969754 39:-0.985784 40:-0.971452 41:-0.945789 42:-0.967014 43:-0.945631 44:-0.965757 45:-0.952763 46:-0.951942 47:-0.965944 48:-0.952432 49:-0.947937 50:-0.966298 
1.0 1:-0.976209 2:-0.203322 3:-0.781618 4:-0.59034 5:-0.952675 6:-0.977667 7:-0.996577 8:-0.973627 9:-0.995614 10:-0.98391 11:-0.995126 12:-0.993955 13:-0.988734 14:-0.989146 15:-0.964844 16:-0.994568 17:-0.994634 18:-0.996859 19:-0.951891 20:-0.993126 21:-0.976714 22:-0.977076 23:-0.814148 24:-0.958303 25:-0.941021 26:-0.936513 27:-0.932061 28:-0.958064 29:-0.428572 30:-0.689455 31:-0.93763 32:-0.961447 33:-0.992372 34:-0.963604 35:-0.988778 36:-0.925437 37:-0.984854 38:-0.945716 39:-0.980913 40:-0.952149 41:-0.989975 42:-0.991848 43:-0.958179 44:-0.986849 45:-0.990278 46:-0.991019 47:-0.987245 48:-0.989857 49:-0.988271 50:-0.978492 
1.0 1:0.194785 2:-0.859465 3:-0.950435 4:-0.772819 5:-0.957982 6:-0.902311 7:-0.886512 8:-0.958189 9:-0.969725 10:-0.957437 11:-0.970578 12:-0.96661 13:-0.892533 14:-0.936135 15:-0.906565 16:-0.909648 17:-0.853082 18:-0.796696 19:-0.942345 20:-0.947971 21:-0.946683 22:-0.94575 23:-0.9413 24:-0.929985 25:-0.937299 26:-0.948209 27:-0.915679 28:-0.930864 29:-0.731558 30:-0.553217 31:-0.720321 32:-0.787599 33:-0.65026 34:-0.699082 35:-0.667033 36:-0.748292 37:-0.717404 38:-0.729051 39:-0.828544 40:-0.789382 41:-0.684111 42:-0.540615 43:-0.689112 44:-0.67323 45:-0.509694 46:-0.622678 47:-0.465506 48:-0.505248 49:-0.14572 50:-0.502893 
1.0 1:-0.97854 2:-0.950638 3:-0.907851 4:-0.946723 5:-0.207645 6:-0.907315 7:-0.891251 8:-0.325652 9:-0.949743 10:-0.946512 11:-0.969952 12:-0.981273 13:-0.970073 14:-0.977298 15:-0.984332 16:-0.983703 17:-0.987232 18:-0.989048 19:-0.998425 20:-0.998466 21:-0.996788 22:-0.993201 23:-0.994167 24:-0.998258 25:-0.99895 26:-0.997948 27:-0.99225 28:-0.998146 29:-0.995313 30:-0.992218 31:-0.991204 32:-0.994991 33:-0.988352 34:-0.985885 35:-0.979761 36:-0.987129 37:-0.986985 38:-0.988387 39:-0.993088 40:-0.993503 41:-0.992181 42:-0.988364 43:-0.994983 44:-0.987511 45:-0.99287 46:-0.987463 47:-0.991267 48:-0.990398 49:-0.985802 50:-0.990668 
1.0 1:-0.650926 2:-0.325114 3:-0.424704 4:-0.718612 5:-0.993319 6:-0.971035 7:-0.984658 8:-0.976339 9:-0.989521 10:-0.991201 11:-0.990412 12:-0.988212 13:-0.977446 14:-0.983733 15:-0.969432 16:-0.968976 17:-0.935886 18:-0.945515 19:-0.973042 20:-0.983017 21:-0.96641 22:-0.978147 23:-0.972177 24:-0.982669 25:-0.984272 26:-0.985096 27:-0.954245 28:-0.969921 29:-0.939823 30:-0.847812 31:-0.89674 32:-0.931824 33:-0.902226 34:-0.88246 35:-0.724731 36:-0.905423 37:-0.797848 38:-0.928813 39:-0.951583 40:-0.911292 41:-0.913182 42:-0.900246 43:-0.877515 44:-0.876128 45:-0.864858 46:-0.910682 47:-0.919304 48:-0.890883 49:-0.904208 50:-0.913597 
1.0 1:-0.58173 2:-0.713158 3:-0.0501351 4:-0.933593 5:-0.795641 6:-0.985296 7:-0.981403 8:-0.974993 9:-0.989566 10:-0.985774 11:-0.986581 12:-0.977698 13:-0.964718 14:-0.963006 15:-0.961602 16:-0.944668 17:-0.924982 18:-0.94937 19:-0.972817 20:-0.97876 21:-0.987359 22:-0.980761 23:-0.983095 24:-0.981917 25:-0.980146 26:-0.958258 27:-0.966937 28:-0.97896 29:-0.931663 30:-0.922116 31:-0.84576 32:-0.92936 33:-0.889444 34:-0.882782 35:-0.864072 36:-0.875508 37:-0.889556 38:-0.878983 39:-0.949561 40:-0.898124 41:-0.912055 42:-0.8941 43:-0.891997 44:-0.825981 45:-0.837219 46:-0.883264 47:-0.880348 48:-0.812906 49:-0.852354 50:-0.892717 
1.0 1:-0.930013 2:-0.881039 3:0.488103 4:-0.877794 5:-0.974236 6:-0.982994 7:-0.962654 8:-0.974582 9:-0.988424 10:-0.988144 11:-0.993233 12:-0.976884 13:-0.940578 14:-0.984372 15:-0.976037 16:-0.975228 17:-0.957992 18:-0.965727 19:-0.991962 20:-0.991932 21:-0.974128 22:-0.994637 23:-0.987625 24:-0.993615 25:-0.997122 26:-0.997237 27:-0.994264 28:-0.994727 29:-0.987564 30:-0.972965 31:-0.939351 32:-0.976068 33:-0.987607 34:-0.971551 35:-0.976759 36:-0.977111 37:-0.976217 38:-0.985104 39:-0.988042 40:-0.973306 41:-0.982471 42:-0.970905 43:-0.983166 44:-0.97305 45:-0.964016 46:-0.981227 47:-0.958773 48:-0.872805 49:-0.973029 50:-0.966185 
1.0 1:-0.899892 2:-0.780891 3:-0.0764707 4:-0.692448 5:-0.93001 6:-0.884126 7:-0.967842 8:-0.979065 9:-0.985644 10:-0.988166 11:-0.988726 12:-0.836196 13:-0.98742 14:-0.980072 15:-0.973698 16:-0.986015 17:-0.903786 18:-0.935242 19:-0.981384 20:-0.989249 21:-0.990178 22:-0.991141 23:-0.985625 24:-0.991918 25:-0.986681 26:-0.985167 27:-0.992713 28:-0.993441 29:-0.985515 30:-0.951232 31:-0.941221 32:-0.94149 33:-0.980705 34:-0.931696 35:-0.959172 36:-0.933555 37:-0.945436 38:-0.97077 39:-0.988346 40:-0.975028 41:-0.966544 42:-0.939032 43:-0.974335 44:-0.94452 45:-0.96968 46:-0.952258 47:-0.975154 48:-0.958832 49:-0.971213 50:-0.966853 
1.0 1:-0.461383 2:-0.757622 3:-0.836308 4:-0.594445 5:-0.794853 6:-0.819467 7:-0.955896 8:-0.987628 9:-0.984948 10:-0.954279 11:-0.97973 12:-0.945073 13:-0.898818 14:-0.936129 15:-0.957227 16:-0.869095 17:-0.94149 18:-0.913385 19:-0.950106 20:-0.942092 21:-0.932249 22:-0.95445 23:-0.965529 24:-0.984963 25:-0.977552 26:-0.959779 27:-0.962096 28:-0.968235 29:-0.919563 30:-0.892359 31:-0.717098 32:-0.893154 33:-0.880012 34:-0.8742 35:-0.819507 36:-0.71208 37:-0.829626 38:-0.889697 39:-0.894164 40:-0.880679 41:-0.891231 42:-0.729279 43:-0.829186 44:-0.820928 45:-0.770394 46:-0.799266 47:-0.86534 48:-0.656133 49:-0.81268 50:-0.871059 
1.0 1:-0.918772 2:-0.514917 3:0.0374395 4:-0.833203 5:-0.916102 6:-0.998011 7:-0.97076 8:-0.965353 9:-0.98691 10:-0.99182 11:-0.989899 12:-0.893281 13:-0.990389 14:-0.995729 15:-0.990759 16:-0.994104 17:-0.984302 18:-0.990718 19:-0.995944 20:-0.994826 21:-0.996262 22:-0.996899 23:-0.997052 24:-0.995364 25:-0.995885 26:-0.99637 27:-0.988497 28:-0.993646 29:-0.985979 30:-0.985431 31:-0.968922 32:-0.976369 33:-0.974054 34:-0.969576 35:-0.943223 36:-0.980196 37:-0.961574 38:-0.982282 39:-0.988669 40:-0.968166 41:-0.983177 42:-0.978122 43:-0.980189 44:-0.973397 45:-0.974169 46:-0.973862 47:-0.980758 48:-0.956765 49:-0.97785 50:-0.974439 
1.0 1:-0.346382 2:-0.752744 3:-0.50393 4:-0.889788 5:-0.769755 6:-0.950107 7:-0.970293 8:-0.984882 9:-0.974022 10:-0.976245 11:-0.97144 12:-0.983677 13:-0.898474 14:-0.946152 15:-0.862904 16:-0.907983 17:-0.886331 18:-0.901433 19:-0.959691 20:-0.95085 21:-0.970682 22:-0.95879 23:-0.949944 24:-0.937944 25:-0.963537 26:-0.974417 27:-0.947785 28:-0.966738 29:-0.857707 30:-0.85435 31:-0.761201 32:-0.828339 33:-0.825641 34:-0.742992 35:-0.710112 36:-0.747471 37:-0.777842 38:-0.823423 39:-0.924919 40:-0.866136 41:-0.814852 42:-0.724752 43:-0.831192 44:-0.753122 45:-0.814449 46:-0.816696 47:-0.794179 48:-0.580949 49:-0.83167 50:-0.809174 
1.0 1:-0.923362 2:-0.594872 3:-0.936531 4:-0.75472 5:-0.995094 6:-0.295925 7:-0.79219 8:-0.94568 9:-0.953035 10:-0.959198 11:-0.974818 12:-0.98192 13:-0.967514 14:-0.978775 15:-0.975013 16:-0.984994 17:-0.974221 18:-0.971896 19:-0.978913 20:-0.992977 21:-0.940759 22:-0.978957 23:-0.981212 24:-0.994077 25:-0.99234 26:-0.932269 27:-0.980445 28:-0.995933 29:-0.97402 30:-0.969794 31:-0.982256 32:-0.966705 33:-0.937066 34:-0.977311 35:-0.950803 36:-0.952427 37:-0.975094 38:-0.979864 39:-0.981086 40:-0.981386 41:-0.977938 42:-0.951897 43:-0.970834 44:-0.940473 45:-0.95285 46:-0.966253 47:-0.978668 48:-0.97105 49:-0.935599 50:-0.921746 
1.0 1:-0.660525 2:-0.957247 3:-0.687864 4:-0.813926 5:-0.0203938 6:-0.913523 7:-0.982468 8:-0.986214 9:-0.978237 10:-0.981863 11:-0.984169 12:-0.991146 13:-0.959875 14:-0.97653 15:-0.954983 16:-0.974243 17:-0.957683 18:-0.961209 19:-0.941163 20:-0.98417 21:-0.988005 22:-0.990271 23:-0.986906 24:-0.980347 25:-0.99155 26:-0.962739 27:-0.972003 28:-0.982069 29:-0.95658 30:-0.91632 31:-0.916484 32:-0.937408 33:-0.936236 34:-0.914375 35:-0.860748 36:-0.921596 37:-0.917874 38:-0.91906 39:-0.959956 40:-0.929874 41:-0.924598 42:-0.870163 43:-0.909556 44:-0.871338 45:-0.872154 46:-0.911774 47:-0.914657 48:-0.890956 49:-0.887687 50:-0.81297 
1.0 1:-0.865046 2:-0.646885 3:0.323148 4:-0.972542 5:-0.966318 6:-0.962035 7:-0.979661 8:-0.987646 9:-0.99716 10:-0.986651 11:-0.995751 12:-0.995803 13:-0.988778 14:-0.993092 15:-0.989784 16:-0.98487 17:-0.983962 18:-0.921085 19:-0.988142 20:-0.987582 21:-0.996413 22:-0.99616 23:-0.995243 24:-0.995109 25:-0.990971 26:-0.99149 27:-0.979412 28:-0.985151 29:-0.935027 30:-0.837035 31:-0.888631 32:-0.945128 33:-0.946026 34:-0.943066 35:-0.853071 36:-0.927978 37:-0.946209 38:-0.96933 39:-0.984281 40:-0.970737 41:-0.969691 42:-0.950189 43:-0.962751 44:-0.960383 45:-0.939829 46:-0.958406 47:-0.950671 48:-0.954751 49:-0.845469 50:-0.936221 
1.0 1:-0.818364 2:-0.0498496 3:-0.368614 4:-0.851647 5:-0.981636 6:-0.9784 7:-0.989926 8:-0.990328 9:-0.994142 10:-0.992373 11:-0.994296 12:-0.994746 13:-0.975143 14:-0.985463 15:-0.985296 16:-0.963238 17:-0.957138 18:-0.978436 19:-0.990768 20:-0.979796 21:-0.992443 22:-0.98898 23:-0.992001 24:-0.994229 25:-0.995966 26:-0.970633 27:-0.981788 28:-0.982093 29:-0.931682 30:-0.938733 31:-0.952059 32:-0.962601 33:-0.957474 34:-0.960325 35:-0.880816 36:-0.954108 37:-0.889643 38:-0.960515 39:-0.977735 40:-0.96811 41:-0.953073 42:-0.951238 43:-0.905359 44:-0.898773 45:-0.947683 46:-0.919106 47:-0.957996 48:-0.890864 49:-0.949953 50:-0.944468 
1.0 1:-0.998587 2:-0.998294 3:-0.574005 4:-0.922215 5:-0.444005 6:-0.936072 7:-0.776578 8:-0.953082 9:-0.803932 10:-0.71285 11:-0.781747 12:-0.961549 13:-0.95613 14:-0.997882 15:-0.987271 16:-0.996361 17:-0.988322 18:-0.996921 19:-0.99911 20:-0.997032 21:-0.999752 22:-0.999739 23:-0.999748 24:-0.9997 25:-0.99982 26:-0.999664 27:-0.999221 28:-0.999675 29:-0.999052 30:-0.997978 31:-0.999484 32:-0.999462 33:-0.99911 34:-0.999351 35:-0.998806 36:-0.999542 37:-0.999235 38:-0.999627 39:-0.999528 40:-0.999254 41:-0.999051 42:-0.998332 43:-0.999428 44:-0.999451 45:-0.999279 46:-0.999649 47:-0.999228 48:-0.99939 49:-0.999112 50:-0.999267 
1.0 1:-0.897006 2:-0.651892 3:-0.92513 4:0.388573 5:-0.949057 6:-0.994142 7:-0.997789 8:-0.96251 9:-0.993916 10:-0.989364 11:-0.99741 12:-0.995495 13:-0.993751 14:-0.994771 15:-0.987898 16:-0.990987 17:-0.987515 18:-0.987868 19:-0.985577 20:-0.992922 21:-0.996314 22:-0.994371 23:-0.995695 24:-0.996532 25:-0.996843 26:-0.995467 27:-0.993638 28:-0.994582 29:-0.970567 30:-0.979428 31:-0.967746 32:-0.973849 33:-0.980831 34:-0.973066 35:-0.926026 36:-0.937392 37:-0.969366 38:-0.939478 39:-0.973015 40:-0.976921 41:-0.971968 42:-0.967891 43:-0.973018 44:-0.955182 45:-0.963886 46:-0.970595 47:-0.946095 48:-0.966329 49:-0.961929 50:-0.956407 
1.0 1:-0.981252 2:-0.556201 3:-0.165779 4:-0.45428 5:-0.935629 6:-0.952799 7:-0.990621 8:-0.985331 9:-0.995135 10:-0.997229 11:-0.997748 12:-0.997339 13:-0.976534 14:-0.994445 15:-0.992147 16:-0.995002 17:-0.992961 18:-0.996156 19:-0.988431 20:-0.998631 21:-0.9975 22:-0.98634 23:-0.998471 24:-0.996937 25:-0.997125 26:-0.996189 27:-0.980308 28:-0.996118 29:-0.985425 30:-0.989612 31:-0.994252 32:-0.989438 33:-0.992978 34:-0.993918 35:-0.976033 36:-0.986227 37:-0.988104 38:-0.995204 39:-0.996606 40:-0.995821 41:-0.9957 42:-0.992018 43:-0.993909 44:-0.992025 45:-0.993181 46:-0.983861 47:-0.991093 48:-0.980516 49:-0.991491 50:-0.993796 
1.0 1:-0.972058 2:-0.649022 3:0.324734 4:-0.944259 5:-0.817562 6:-0.962238 7:-0.980293 8:-0.99127 9:-0.99514 10:-0.991361 11:-0.996502 12:-0.998692 13:-0.993964 14:-0.998195 15:-0.997364 16:-0.994332 17:-0.991348 18:-0.992897 19:-0.998286 20:-0.997168 21:-0.998033 22:-0.997252 23:-0.998271 24:-0.998678 25:-0.998498 26:-0.997368 27:-0.997379 28:-0.998098 29:-0.996457 30:-0.995012 31:-0.993236 32:-0.993146 33:-0.993114 34:-0.981203 35:-0.990544 36:-0.988996 37:-0.991807 38:-0.993953 39:-0.995202 40:-0.99334 41:-0.993479 42:-0.987239 43:-0.992623 44:-0.990383 45:-0.990673 46:-0.989515 47:-0.988553 48:-0.989292 49:-0.991325 50:-0.991085 
1.0 1:-0.592875 2:-0.970541 3:0.319677 4:-0.940768 5:-0.956821 6:-0.981979 7:-0.887241 8:-0.986875 9:-0.988149 10:-0.982823 11:-0.989032 12:-0.984873 13:-0.973247 14:-0.976721 15:-0.962146 16:-0.973389 17:-0.955925 18:-0.935904 19:-0.974963 20:-0.981988 21:-0.989154 22:-0.986591 23:-0.984274 24:-0.985736 25:-0.985065 26:-0.974453 27:-0.933705 28:-0.978622 29:-0.910817 30:-0.921551 31:-0.883624 32:-0.934278 33:-0.875713 34:-0.822437 35:-0.877036 36:-0.91196 37:-0.835108 38:-0.867286 39:-0.952962 40:-0.888201 41:-0.897314 42:-0.831136 43:-0.875368 44:-0.875298 45:-0.828694 46:-0.882978 47:-0.897447 48:-0.867599 49:-0.86611 50:-0.896206 
1.0 1:-0.983851 2:-0.651824 3:-0.964398 4:-0.915844 5:-0.996129 6:-0.979493 7:0.513244 8:-0.993857 9:-0.999401 10:-0.997338 11:-0.997223 12:-0.999375 13:-0.993166 14:-0.996699 15:-0.996629 16:-0.99828 17:-0.996182 18:-0.997373 19:-0.996133 20:-0.996434 21:-0.999245 22:-0.999375 23:-0.999012 24:-0.99951 25:-0.999125 26:-0.998186 27:-0.997364 28:-0.999159 29:-0.997552 30:-0.996246 31:-0.996378 32:-0.995649 33:-0.995541 34:-0.996319 35:-0.99537 36:-0.996518 37:-0.993736 38:-0.995413 39:-0.996671 40:-0.996328 41:-0.99391 42:-0.995538 43:-0.995261 44:-0.994626 45:-0.995433 46:-0.991378 47:-0.995968 48:-0.993833 49:-0.995271 50:-0.994365 
1.0 1:-0.959299 2:-0.565051 3:-0.90454 4:0.0558 5:-0.977557 6:-0.986734 7:-0.812382 8:-0.958787 9:-0.991258 10:-0.970744 11:-0.993144 12:-0.984066 13:-0.983742 14:-0.997686 15:-0.982005 16:-0.994257 17:-0.983462 18:-0.968302 19:-0.972863 20:-0.980849 21:-0.997554 22:-0.995773 23:-0.953992 24:-0.990908 25:-0.996128 26:-0.989873 27:-0.987371 28:-0.990583 29:-0.959728 30:-0.951032 31:-0.97529 32:-0.982719 33:-0.989788 34:-0.987747 35:-0.97416 36:-0.977714 37:-0.945527 38:-0.986561 39:-0.952737 40:-0.982343 41:-0.983882 42:-0.989748 43:-0.969492 44:-0.983866 45:-0.983977 46:-0.983327 47:-0.984981 48:-0.971532 49:-0.985107 50:-0.986384 
1.0 1:-0.984617 2:-0.948131 3:0.326002 4:-0.859647 5:-0.97929 6:-0.979009 7:-0.985933 8:-0.986574 9:-0.987093 10:-0.985845 11:-0.997911 12:-0.999523 13:-0.986485 14:-0.986128 15:-0.998564 16:-0.984853 17:-0.978358 18:-0.928725 19:-0.947351 20:-0.97192 21:-0.982113 22:-0.934021 23:-0.960526 24:-0.939153 25:-0.998002 26:-0.930958 27:-0.973767 28:-0.845547 29:-0.592717 30:-0.581271 31:-0.982153 32:-0.983445 33:-0.976139 34:-0.99149 35:-0.988615 36:-0.991129 37:-0.977127 38:-0.99473 39:-0.987006 40:-0.994716 41:-0.983264 42:-0.933269 43:-0.995262 44:-0.989079 45:-0.989804 46:-0.994256 47:-0.980609 48:-0.995151 49:-0.995584 50:-0.989512 
1.0 1:-0.991755 2:-0.826216 3:-0.480659 4:-0.670492 5:-0.828682 6:-0.766224 7:-0.952876 8:-0.950966 9:-0.996372 10:-0.950513 11:-0.881982 12:-0.577746 13:-0.9516 14:-0.97497 15:-0.986043 16:-0.993497 17:-0.96025 18:-0.996122 19:-0.997828 20:-0.999187 21:-0.99635 22:-0.998209 23:-0.996379 24:-0.997996 25:-0.999372 26:-0.997478 27:-0.996473 28:-0.997881 29:-0.989186 30:-0.996921 31:-0.996365 32:-0.996642 33:-0.991924 34:-0.993506 35:-0.995927 36:-0.993003 37:-0.994966 38:-0.998067 39:-0.998905 40:-0.9925 41:-0.995732 42:-0.994626 43:-0.997254 44:-0.996141 45:-0.997176 46:-0.997265 47:-0.998109 48:-0.996982 49:-0.997099 50:-0.996441 
1.0 1:-0.963548 2:-0.548639 3:-0.0742406 4:-0.457643 5:-0.96824 6:-0.985512 7:-0.998684 8:-0.996371 9:-0.989577 10:-0.997809 11:-0.998784 12:-0.998307 13:-0.996845 14:-0.996453 15:-0.996691 16:-0.997392 17:-0.993555 18:-0.995492 19:-0.995828 20:-0.997034 21:-0.997819 22:-0.99704 23:-0.99714 24:-0.990741 25:-0.998008 26:-0.997198 27:-0.993047 28:-0.997541 29:-0.989302 30:-0.984708 31:-0.98687 32:-0.993502 33:-0.993015 34:-0.9907 35:-0.987843 36:-0.989567 37:-0.986727 38:-0.987586 39:-0.991865 40:-0.991458 41:-0.98278 42:-0.987035 43:-0.988935 44:-0.985356 45:-0.97899 46:-0.991131 47:-0.991108 48:-0.984487 49:-0.989293 50:-0.990907 
0.4631082670298506 1:-0.99346 2:-0.97827 3:-0.976212 4:-0.928891 5:-0.354007 6:-0.508857 7:-0.568397 8:-0.73071 9:-0.996421 10:-0.988234 11:-0.993748 12:-0.996592 13:-0.933018 14:-0.989582 15:-0.963936 16:-0.992195 17:-0.948423 18:-0.978254 19:-0.999155 20:-0.992994 21:-0.997851 22:-0.999236 23:-0.99978 24:-0.995956 25:-0.999787 26:-0.999695 27:-0.99772 28:-0.999062 29:-0.996364 30:-0.993553 31:-0.99549 32:-0.992987 33:-0.996514 34:-0.993617 35:-0.993826 36:-0.991479 37:-0.996773 38:-0.996506 39:-0.997448 40:-0.997157 41:-0.995978 42:-0.997199 43:-0.997287 44:-0.994562 45:-0.994419 46:-0.996607 47:-0.996787 48:-0.995576 49:-0.996428 50:-0.996816 
1.0 1:-0.946611 2:-0.462195 3:-0.116686 4:-0.782352 5:-0.928129 6:-0.979314 7:-0.997752 8:-0.993886 9:-0.986805 10:-0.996227 11:-0.990759 12:-0.996773 13:-0.99449 14:-0.991631 15:-0.995575 16:-0.993193 17:-0.973866 18:-0.99428 19:-0.984959 20:-0.985352 21:-0.94722 22:-0.852231 23:-0.975267 24:-0.993947 25:-0.988019 26:-0.996638 27:-0.983407 28:-0.991331 29:-0.960503 30:-0.983277 31:-0.986416 32:-0.958423 33:-0.968612 34:-0.955707 35:-0.867056 36:-0.972788 37:-0.950705 38:-0.928916 39:-0.975215 40:-0.942198 41:-0.98758 42:-0.983259 43:-0.986465 44:-0.975229 45:-0.983265 46:-0.983569 47:-0.986788 48:-0.973428 49:-0.973497 50:-0.977811 
1.0 1:-0.998373 2:-0.997648 3:-0.990969 4:-0.940898 5:-0.980181 6:0.824305 7:-0.931057 8:-0.977178 9:-0.998129 10:-0.993273 11:-0.99286 12:-0.997173 13:-0.998646 14:-0.998824 15:-0.998575 16:-0.998962 17:-0.998673 18:-0.999012 19:-0.999584 20:-0.999449 21:-0.999834 22:-0.999784 23:-0.999849 24:-0.999821 25:-0.999876 26:-0.999815 27:-0.999625 28:-0.999658 29:-0.999186 30:-0.999168 31:-0.999018 32:-0.999152 33:-0.999439 34:-0.998611 35:-0.998688 36:-0.999256 37:-0.999084 38:-0.998964 39:-0.999587 40:-0.999412 41:-0.999094 42:-0.999353 43:-0.999203 44:-0.999289 45:-0.999307 46:-0.999103 47:-0.999296 48:-0.999242 49:-0.999168 50:-0.999211 
1.0 1:-0.95725 2:-0.505957 3:-0.510725 4:-0.511959 5:-0.916873 6:-0.971575 7:-0.903191 8:-0.963405 9:-0.851962 10:-0.949802 11:-0.974866 12:-0.988907 13:-0.937855 14:-0.973602 15:-0.976339 16:-0.978462 17:-0.98791 18:-0.980341 19:-0.990731 20:-0.993519 21:-0.99554 22:-0.996035 23:-0.997716 24:-0.995643 25:-0.997282 26:-0.996931 27:-0.982594 28:-0.997313 29:-0.989626 30:-0.979114 31:-0.977321 32:-0.993721 33:-0.96129 34:-0.988489 35:-0.952325 36:-0.976338 37:-0.982011 38:-0.987365 39:-0.994168 40:-0.980383 41:-0.987855 42:-0.968258 43:-0.983504 44:-0.979341 45:-0.97899 46:-0.977882 47:-0.987179 48:-0.973346 49:-0.984253 50:-0.988428 
1.0 1:-0.993359 2:-0.732677 3:-0.00180115 4:-0.874946 5:-0.710148 6:-0.923154 7:-0.937962 8:-0.988953 9:-0.999059 10:-0.991619 11:-0.999528 12:-0.990703 13:-0.85899 14:-0.83517 15:-0.988438 16:-0.993564 17:-0.994351 18:-0.998941 19:-0.985693 20:-0.997303 21:-0.997095 22:-0.990944 23:-0.999705 24:-0.997273 25:-0.967937 26:-0.997048 27:-0.989432 28:-0.9964 29:-0.998621 30:-0.974533 31:-0.98575 32:-0.987898 33:-0.991457 34:-0.99454 35:-0.996386 36:-0.998452 37:-0.971088 38:-0.994856 39:-0.998802 40:-0.993221 41:-0.997728 42:-0.995542 43:-0.995412 44:-0.995111 45:-0.997244 46:-0.997931 47:-0.996287 48:-0.987781 49:-0.978098 50:-0.988907 
1.0 1:-0.94323 2:-0.816729 3:-0.197877 4:-0.165108 5:-0.984032 6:-0.976068 7:-0.995493 8:-0.976749 9:-0.991496 10:-0.976634 11:-0.983696 12:-0.992939 13:-0.98039 14:-0.991068 15:-0.957449 16:-0.975703 17:-0.963325 18:-0.991302 19:-0.996902 20:-0.990468 21:-0.996102 22:-0.996662 23:-0.997064 24:-0.994494 25:-0.993796 26:-0.994901 27:-0.996426 28:-0.996933 29:-0.989669 30:-0.98882 31:-0.982731 32:-0.964235 33:-0.978792 34:-0.96369 35:-0.976858 36:-0.971122 37:-0.959147 38:-0.983896 39:-0.991244 40:-0.985464 41:-0.979756 42:-0.985153 43:-0.979681 44:-0.982149 45:-0.972215 46:-0.97921 47:-0.981433 48:-0.960682 49:-0.976215 50:-0.980175 
1.0 1:-0.96591 2:-0.949958 3:-0.938957 4:-0.578065 5:-0.808883 6:-0.946556 7:-0.892137 8:-0.161139 9:-0.759883 10:-0.97724 11:-0.987252 12:-0.985606 13:-0.979993 14:-0.987488 15:-0.962244 16:-0.971229 17:-0.994155 18:-0.989405 19:-0.995401 20:-0.995598 21:-0.997274 22:-0.996194 23:-0.994388 24:-0.998536 25:-0.998683 26:-0.998552 27:-0.990353 28:-0.996004 29:-0.980774 30:-0.989513 31:-0.982451 32:-0.995008 33:-0.976217 34:-0.983049 35:-0.978567 36:-0.966474 37:-0.989975 38:-0.986855 39:-0.989228 40:-0.989883 41:-0.98993 42:-0.987558 43:-0.99009 44:-0.982899 45:-0.987238 46:-0.990636 47:-0.986171 48:-0.987099 49:-0.990566 50:-0.988612 
1.0 1:-0.838305 2:-0.893195 3:-0.888953 4:-0.096063 5:-0.45617 6:-0.908259 7:-0.982379 8:-0.968435 9:-0.988048 10:-0.984494 11:-0.993435 12:-0.97909 13:-0.97979 14:-0.977859 15:-0.976972 16:-0.971044 17:-0.966219 18:-0.954673 19:-0.989941 20:-0.992004 21:-0.992563 22:-0.990638 23:-0.992408 24:-0.99186 25:-0.995314 26:-0.990824 27:-0.989823 28:-0.991724 29:-0.971018 30:-0.969111 31:-0.955794 32:-0.957229 33:-0.969759 34:-0.960902 35:-0.95217 36:-0.942763 37:-0.961144 38:-0.961045 39:-0.93891 40:-0.954295 41:-0.931173 42:-0.955465 43:-0.958998 44:-0.923871 45:-0.921758 46:-0.948303 47:-0.9531 48:-0.910169 49:-0.93817 50:-0.947204 
1.0 1:-0.992946 2:-0.123804 3:-0.740431 4:-0.903246 5:-0.960109 6:-0.353397 7:-0.993077 8:-0.998059 9:-0.999432 10:-0.997441 11:-0.992923 12:-0.998568 13:-0.999231 14:-0.999676 15:-0.99874 16:-0.997563 17:-0.99498 18:-0.997221 19:-0.998838 20:-0.996657 21:-0.964604 22:-0.985139 23:-0.974676 24:-0.99666 25:-0.99195 26:-0.972091 27:-0.987875 28:-0.996331 29:-0.98033 30:-0.993784 31:-0.997541 32:-0.998375 33:-0.992901 34:-0.986457 35:-0.998028 36:-0.996954 37:-0.995671 38:-0.996916 39:-0.995286 40:-0.998153 41:-0.998103 42:-0.994203 43:-0.997126 44:-0.991156 45:-0.997847 46:-0.997924 47:-0.996809 48:-0.996586 49:-0.99767 50:-0.99803 
1.0 1:-0.982539 2:-0.774141 3:-0.935941 4:-0.962711 5:-0.732887 6:-0.181352 7:-0.627156 8:-0.80267 9:-0.993788 10:-0.996379 11:-0.998765 12:-0.991675 13:-0.984139 14:-0.998503 15:-0.993287 16:-0.997042 17:-0.976359 18:-0.986514 19:-0.997634 20:-0.9968 21:-0.997022 22:-0.999311 23:-0.998917 24:-0.997445 25:-0.997765 26:-0.998523 27:-0.995723 28:-0.996503 29:-0.997631 30:-0.996161 31:-0.988122 32:-0.997544 33:-0.994112 34:-0.988439 35:-0.993181 36:-0.99448 37:-0.994732 38:-0.995021 39:-0.996648 40:-0.996932 41:-0.9962 42:-0.994459 43:-0.991498 44:-0.993033 45:-0.990081 46:-0.991073 47:-0.994185 48:-0.990278 49:-0.994601 50:-0.993789 
1.0 1:-0.506024 2:-0.638672 3:-0.871669 4:-0.823123 5:-0.330899 6:-0.972349 7:-0.965434 8:-0.982933 9:-0.990331 10:-0.941256 11:-0.985417 12:-0.983321 13:-0.899924 14:-0.966183 15:-0.964293 16:-0.902908 17:-0.89292 18:-0.825552 19:-0.976671 20:-0.92109 21:-0.985998 22:-0.976754 23:-0.979414 24:-0.974034 25:-0.987085 26:-0.980443 27:-0.968367 28:-0.971185 29:-0.917228 30:-0.89502 31:-0.735632 32:-0.917247 33:-0.91413 34:-0.891947 35:-0.856483 36:-0.871869 37:-0.842845 38:-0.891262 39:-0.940614 40:-0.913573 41:-0.898102 42:-0.783304 43:-0.806203 44:-0.860738 45:-0.799927 46:-0.829506 47:-0.851092 48:-0.812697 49:-0.814533 50:-0.880235 
1.0 1:-0.969329 2:-0.706409 3:-0.982929 4:-0.768813 5:0.26798 6:-0.993412 7:-0.976445 8:-0.885881 9:-0.996226 10:-0.989011 11:-0.990516 12:-0.996485 13:-0.984764 14:-0.989455 15:-0.993539 16:-0.990885 17:-0.989436 18:-0.97643 19:-0.994742 20:-0.989617 21:-0.995365 22:-0.998477 23:-0.998709 24:-0.995542 25:-0.998738 26:-0.998479 27:-0.993118 28:-0.993873 29:-0.992537 30:-0.989297 31:-0.988082 32:-0.995037 33:-0.984551 34:-0.987377 35:-0.981348 36:-0.991113 37:-0.992348 38:-0.99165 39:-0.995557 40:-0.993166 41:-0.991296 42:-0.978901 43:-0.992074 44:-0.990148 45:-0.990425 46:-0.987789 47:-0.981111 48:-0.988626 49:-0.991342 50:-0.990157 
1.0 1:-0.851398 2:0.106181 3:-0.881495 4:-0.573986 5:-0.881028 6:-0.966643 7:-0.980689 8:-0.979826 9:-0.993015 10:-0.992602 11:-0.996183 12:-0.992773 13:-0.984596 14:-0.993429 15:-0.987499 16:-0.989823 17:-0.973097 18:-0.982663 19:-0.98014 20:-0.985808 21:-0.988549 22:-0.991349 23:-0.994661 24:-0.995758 25:-0.996376 26:-0.97459 27:-0.987167 28:-0.983418 29:-0.976752 30:-0.971423 31:-0.958121 32:-0.969654 33:-0.968906 34:-0.943922 35:-0.956541 36:-0.968793 37:-0.963079 38:-0.949085 39:-0.975423 40:-0.957963 41:-0.961841 42:-0.910286 43:-0.950577 44:-0.925211 45:-0.958206 46:-0.95644 47:-0.963539 48:-0.9199 49:-0.950146 50:-0.925572 
1.0 1:-0.915317 2:-0.853886 3:-0.901382 4:-0.281831 5:-0.0748126 6:-0.96193 7:-0.990881 8:-0.996147 9:-0.996915 10:-0.99584 11:-0.995403 12:-0.994601 13:-0.99403 14:-0.994845 15:-0.990221 16:-0.993627 17:-0.985976 18:-0.983975 19:-0.995962 20:-0.995102 21:-0.996826 22:-0.99758 23:-0.994408 24:-0.99562 25:-0.99802 26:-0.995778 27:-0.992635 28:-0.993036 29:-0.972083 30:-0.984174 31:-0.966311 32:-0.987851 33:-0.979055 34:-0.980449 35:-0.974679 36:-0.978467 37:-0.973961 38:-0.978291 39:-0.990415 40:-0.97364 41:-0.971848 42:-0.970683 43:-0.979777 44:-0.968907 45:-0.974411 46:-0.973281 47:-0.974043 48:-0.973085 49:-0.965981 50:-0.977657 
1.0 1:-0.988768 2:-0.0414812 3:-0.681253 4:-0.793584 5:-0.902542 6:-0.976845 7:-0.961518 8:-0.994798 9:-0.993267 10:-0.996799 11:-0.991409 12:-0.998649 13:-0.985514 14:-0.991619 15:-0.998638 16:-0.997146 17:-0.98774 18:-0.98823 19:-0.980887 20:-0.988242 21:-0.989792 22:-0.958056 23:-0.941989 24:-0.984073 25:-0.964065 26:-0.899283 27:-0.937972 28:-0.793391 29:-0.825291 30:-0.81223 31:-0.979213 32:-0.973101 33:-0.961916 34:-0.941432 35:-0.992947 36:-0.988736 37:-0.959671 38:-0.995613 39:-0.992319 40:-0.972742 41:-0.987215 42:-0.956253 43:-0.992408 44:-0.994653 45:-0.950758 46:-0.972083 47:-0.987866 48:-0.991527 49:-0.993971 50:-0.993993 
1.0 1:-0.975036 2:0.428251 3:-0.927936 4:-0.82318 5:-0.781018 6:-0.944479 7:-0.988688 8:-0.996031 9:-0.997038 10:-0.997871 11:-0.990573 12:-0.997982 13:-0.997664 14:-0.997295 15:-0.9883 16:-0.99574 17:-0.983284 18:-0.984658 19:-0.998466 20:-0.998575 21:-0.998901 22:-0.994427 23:-0.998745 24:-0.998917 25:-0.999228 26:-0.998349 27:-0.997446 28:-0.994995 29:-0.979053 30:-0.993646 31:-0.986707 32:-0.991568 33:-0.992404 34:-0.988713 35:-0.986132 36:-0.978846 37:-0.991474 38:-0.981516 39:-0.996764 40:-0.944047 41:-0.992976 42:-0.980109 43:-0.993938 44:-0.989749 45:-0.992017 46:-0.992653 47:-0.994167 48:-0.987234 49:-0.991654 50:-0.991697 
1.0 1:-0.935928 2:-0.670304 3:-0.476221 4:-0.549229 5:-0.448596 6:-0.979751 7:-0.979755 8:-0.985415 9:-0.983066 10:-0.994865 11:-0.995429 12:-0.990876 13:-0.987469 14:-0.988686 15:-0.989518 16:-0.97776 17:-0.98559 18:-0.985668 19:-0.991807 20:-0.995257 21:-0.998283 22:-0.992713 23:-0.996421 24:-0.996137 25:-0.998324 26:-0.98974 27:-0.995997 28:-0.995151 29:-0.988236 30:-0.989027 31:-0.978227 32:-0.97933 33:-0.989658 34:-0.984845 35:-0.941656 36:-0.984099 37:-0.971353 38:-0.972572 39:-0.9918 40:-0.974317 41:-0.976796 42:-0.974484 43:-0.970254 44:-0.969059 45:-0.942686 46:-0.977726 47:-0.984176 48:-0.978221 49:-0.975853 50:-0.976918 
1.0 1:-0.878515 2:-0.803923 3:-0.699326 4:-0.226551 5:-0.478414 6:-0.936469 7:-0.979712 8:-0.995451 9:-0.995054 10:-0.991818 11:-0.992961 12:-0.987701 13:-0.974921 14:-0.990043 15:-0.979401 16:-0.990239 17:-0.982955 18:-0.975181 19:-0.992764 20:-0.992677 21:-0.996686 22:-0.996165 23:-0.995353 24:-0.990367 25:-0.997301 26:-0.994403 27:-0.992191 28:-0.993218 29:-0.979706 30:-0.978799 31:-0.94275 32:-0.967473 33:-0.973127 34:-0.968098 35:-0.9481 36:-0.965672 37:-0.9618 38:-0.975566 39:-0.978195 40:-0.971301 41:-0.957789 42:-0.967304 43:-0.96893 44:-0.948637 45:-0.948955 46:-0.961287 47:-0.96499 48:-0.942399 49:-0.924883 50:-0.969204 
1.0 1:-0.886356 2:-0.926147 3:-0.872367 4:0.263773 5:-0.724211 6:-0.939014 7:-0.987697 8:-0.942328 9:-0.991895 10:-0.97957 11:-0.992597 12:-0.977433 13:-0.961567 14:-0.993961 15:-0.988578 16:-0.992166 17:-0.98046 18:-0.962081 19:-0.993529 20:-0.990842 21:-0.996717 22:-0.996007 23:-0.995207 24:-0.9956 25:-0.997009 26:-0.994456 27:-0.989312 28:-0.991635 29:-0.979342 30:-0.975004 31:-0.961891 32:-0.978556 33:-0.977604 34:-0.961221 35:-0.959485 36:-0.955478 37:-0.966766 38:-0.958256 39:-0.984095 40:-0.979231 41:-0.970176 42:-0.962859 43:-0.970749 44:-0.968795 45:-0.96787 46:-0.962556 47:-0.940349 48:-0.95922 49:-0.967565 50:-0.957506 
1.0 1:-0.831413 2:-0.874079 3:-0.362194 4:-0.237678 5:-0.984512 6:-0.956095 7:-0.905778 8:-0.924444 9:-0.961102 10:-0.986957 11:-0.976841 12:-0.953379 13:-0.989675 14:-0.992418 15:-0.985983 16:-0.979312 17:-0.978283 18:-0.975769 19:-0.991003 20:-0.990526 21:-0.994485 22:-0.985837 23:-0.972003 24:-0.988857 25:-0.992766 26:-0.991674 27:-0.987434 28:-0.989275 29:-0.955508 30:-0.969797 31:-0.953191 32:-0.960247 33:-0.963796 34:-0.923627 35:-0.95258 36:-0.92092 37:-0.929829 38:-0.941705 39:-0.973867 40:-0.969082 41:-0.961716 42:-0.94513 43:-0.9462 44:-0.947927 45:-0.941988 46:-0.95772 47:-0.960737 48:-0.945264 49:-0.92643 50:-0.954438 
1.0 1:-0.99104 2:-0.881542 3:-0.135097 4:-0.765172 5:-0.888459 6:-0.966585 7:-0.95284 8:-0.408894 9:-0.982152 10:-0.999198 11:-0.994551 12:-0.992622 13:-0.993407 14:-0.98938 15:-0.995859 16:-0.994377 17:-0.997651 18:-0.98942 19:-0.999525 20:-0.999272 21:-0.998953 22:-0.998173 23:-0.999148 24:-0.999652 25:-0.999413 26:-0.997768 27:-0.999284 28:-0.998035 29:-0.995327 30:-0.976648 31:-0.993028 32:-0.997304 33:-0.996086 34:-0.994722 35:-0.993956 36:-0.997687 37:-0.996445 38:-0.996315 39:-0.998576 40:-0.995689 41:-0.995634 42:-0.997025 43:-0.996567 44:-0.994323 45:-0.994728 46:-0.995572 47:-0.997591 48:-0.996565 49:-0.996112 50:-0.997385 
1.0 1:-0.96681 2:-0.570972 3:-0.524337 4:-0.994133 5:-0.964268 6:-0.902238 7:-0.186258 8:-0.988926 9:-0.984411 10:-0.993056 11:-0.994354 12:-0.990433 13:-0.704851 14:-0.993651 15:-0.995254 16:-0.993595 17:-0.989176 18:-0.994738 19:-0.996946 20:-0.997425 21:-0.99904 22:-0.996489 23:-0.998347 24:-0.998907 25:-0.999029 26:-0.996632 27:-0.997735 28:-0.997361 29:-0.990297 30:-0.993793 31:-0.991136 32:-0.980495 33:-0.994324 34:-0.988149 35:-0.988215 36:-0.987021 37:-0.985918 38:-0.991674 39:-0.99519 40:-0.993673 41:-0.991872 42:-0.983138 43:-0.987795 44:-0.987826 45:-0.989068 46:-0.990567 47:-0.990789 48:-0.988567 49:-0.990262 50:-0.989911 
1.0 1:-0.852736 2:-0.0742811 3:-0.396129 4:-0.776764 5:-0.974079 6:-0.961378 7:-0.99676 8:-0.985757 9:-0.99399 10:-0.990931 11:-0.98818 12:-0.988946 13:-0.988548 14:-0.984424 15:-0.984553 16:-0.984117 17:-0.973156 18:-0.969923 19:-0.976968 20:-0.985626 21:-0.995231 22:-0.995715 23:-0.989174 24:-0.985533 25:-0.996136 26:-0.983416 27:-0.986018 28:-0.992302 29:-0.981041 30:-0.9654 31:-0.946725 32:-0.972256 33:-0.953044 34:-0.964485 35:-0.945816 36:-0.968656 37:-0.934373 38:-0.953324 39:-0.980386 40:-0.963443 41:-0.96775 42:-0.962598 43:-0.949409 44:-0.952524 45:-0.954064 46:-0.946768 47:-0.955422 48:-0.947532 49:-0.95417 50:-0.960332 
1.0 1:-0.988388 2:-0.461218 3:-0.206272 4:-0.494483 5:-0.899943 6:-0.969647 7:-0.999319 8:-0.985171 9:-0.991915 10:-0.995465 11:-0.999152 12:-0.998744 13:-0.990112 14:-0.995079 15:-0.998126 16:-0.994571 17:-0.995495 18:-0.993451 19:-0.996176 20:-0.988472 21:-0.997382 22:-0.997768 23:-0.999224 24:-0.99956 25:-0.999513 26:-0.999537 27:-0.997717 28:-0.997817 29:-0.995639 30:-0.986096 31:-0.99184 32:-0.993025 33:-0.99814 34:-0.983961 35:-0.988271 36:-0.987053 37:-0.970747 38:-0.996673 39:-0.989051 40:-0.995893 41:-0.996721 42:-0.992379 43:-0.99625 44:-0.995228 45:-0.993483 46:-0.996698 47:-0.997102 48:-0.995926 49:-0.996882 50:-0.995844 
1.0 1:-0.974237 2:0.24229 3:-0.677277 4:-0.873195 5:-0.925204 6:-0.949668 7:-0.968214 8:-0.972564 9:-0.98037 10:-0.980106 11:-0.982366 12:-0.986114 13:-0.976906 14:-0.982227 15:-0.976018 16:-0.979732 17:-0.970047 18:-0.973911 19:-0.989635 20:-0.990407 21:-0.99541 22:-0.995399 23:-0.994933 24:-0.996199 25:-0.996738 26:-0.995135 27:-0.993042 28:-0.995335 29:-0.985356 30:-0.983696 31:-0.974665 32:-0.983975 33:-0.987401 34:-0.983213 35:-0.976777 36:-0.983328 37:-0.981821 38:-0.986494 39:-0.99132 40:-0.989904 41:-0.985292 42:-0.981587 43:-0.985952 44:-0.981747 45:-0.985874 46:-0.987103 47:-0.98599 48:-0.983083 49:-0.985614 50:-0.986291 
1.0 1:-0.642849 2:-0.789208 3:-0.847481 4:-0.828206 5:-0.118712 6:-0.931736 7:-0.951553 8:-0.962731 9:-0.990801 10:-0.962984 11:-0.986477 12:-0.99031 13:-0.966132 14:-0.979554 15:-0.9377 16:-0.968471 17:-0.958715 18:-0.936588 19:-0.972325 20:-0.967104 21:-0.984809 22:-0.987968 23:-0.972604 24:-0.979575 25:-0.988363 26:-0.960133 27:-0.961014 28:-0.96588 29:-0.925898 30:-0.876221 31:-0.825731 32:-0.903158 33:-0.900969 34:-0.903315 35:-0.890517 36:-0.868379 37:-0.86579 38:-0.885997 39:-0.959113 40:-0.936563 41:-0.902495 42:-0.852403 43:-0.903626 44:-0.892503 45:-0.803673 46:-0.867428 47:-0.903833 48:-0.869854 49:-0.894036 50:-0.913024 
1.0 1:-0.830083 2:-0.92867 3:0.1668 4:-0.919791 5:-0.76911 6:-0.915135 7:-0.799998 8:-0.991316 9:-0.993667 10:-0.992574 11:-0.995191 12:-0.98918 13:-0.977589 14:-0.990359 15:-0.985758 16:-0.976951 17:-0.980324 18:-0.98007 19:-0.988857 20:-0.991987 21:-0.99502 22:-0.995259 23:-0.98828 24:-0.99135 25:-0.993805 26:-0.98748 27:-0.98375 28:-0.990161 29:-0.974923 30:-0.957044 31:-0.926704 32:-0.974429 33:-0.96254 34:-0.963024 35:-0.945515 36:-0.939716 37:-0.95745 38:-0.96255 39:-0.978346 40:-0.957719 41:-0.96566 42:-0.949165 43:-0.94399 44:-0.953736 45:-0.936661 46:-0.952173 47:-0.938604 48:-0.92495 49:-0.952973 50:-0.953176 
1.0 1:-0.955446 2:-0.814129 3:-0.0254834 4:-0.773027 5:-0.651544 6:-0.935142 7:-0.848428 8:-0.9917 9:-0.99226 10:-0.996173 11:-0.996579 12:-0.99741 13:-0.987545 14:-0.993239 15:-0.986939 16:-0.995718 17:-0.990649 18:-0.98239 19:-0.992249 20:-0.996865 21:-0.998806 22:-0.991721 23:-0.998354 24:-0.998609 25:-0.998425 26:-0.997393 27:-0.996899 28:-0.997318 29:-0.994068 30:-0.990864 31:-0.973698 32:-0.991978 33:-0.992395 34:-0.985362 35:-0.984709 36:-0.989118 37:-0.98483 38:-0.989163 39:-0.992418 40:-0.990467 41:-0.98969 42:-0.988871 43:-0.9871 44:-0.986134 45:-0.983223 46:-0.988695 47:-0.98338 48:-0.9861 49:-0.982812 50:-0.988349 
1.0 1:-0.75315 2:-0.995483 3:-0.884829 4:-0.110968 5:-0.682851 6:-0.875288 7:-0.971413 8:-0.813111 9:-0.985876 10:-0.969262 11:-0.985683 12:-0.989573 13:-0.957084 14:-0.912279 15:-0.94587 16:-0.968051 17:-0.904564 18:-0.934246 19:-0.985695 20:-0.979094 21:-0.988575 22:-0.984814 23:-0.982772 24:-0.99329 25:-0.993628 26:-0.988006 27:-0.974329 28:-0.976539 29:-0.956302 30:-0.948679 31:-0.916461 32:-0.955325 33:-0.929942 34:-0.893208 35:-0.92339 36:-0.922223 37:-0.916603 38:-0.88851 39:-0.970224 40:-0.930619 41:-0.92789 42:-0.913766 43:-0.942616 44:-0.90763 45:-0.911091 46:-0.937676 47:-0.929263 48:-0.906742 49:-0.911042 50:-0.926649 
1.0 1:-0.873294 2:-0.82894 3:-0.187014 4:-0.919324 5:-0.54376 6:-0.814186 7:-0.953744 8:-0.992527 9:-0.996076 10:-0.994912 11:-0.981915 12:-0.930927 13:-0.789414 14:-0.988065 15:-0.987906 16:-0.977262 17:-0.983731 18:-0.981615 19:-0.992185 20:-0.991909 21:-0.994327 22:-0.996305 23:-0.995364 24:-0.995814 25:-0.99693 26:-0.991326 27:-0.983437 28:-0.990787 29:-0.970542 30:-0.961144 31:-0.956705 32:-0.965439 33:-0.972758 34:-0.934762 35:-0.962663 36:-0.967735 37:-0.967356 38:-0.967629 39:-0.985615 40:-0.96641 41:-0.974407 42:-0.929518 43:-0.953153 44:-0.949902 45:-0.964591 46:-0.96176 47:-0.964814 48:-0.953525 49:-0.956052 50:-0.964514 
1.0 1:-0.892585 2:-0.484128 3:-0.212171 4:-0.934621 5:-0.516167 6:-0.966425 7:-0.991854 8:-0.997858 9:-0.99576 10:-0.992988 11:-0.996676 12:-0.995536 13:-0.986856 14:-0.977622 15:-0.974687 16:-0.985998 17:-0.987645 18:-0.984136 19:-0.991178 20:-0.99206 21:-0.996918 22:-0.996891 23:-0.993294 24:-0.995427 25:-0.997531 26:-0.994677 27:-0.988444 28:-0.994752 29:-0.984925 30:-0.979894 31:-0.975434 32:-0.982774 33:-0.981662 34:-0.974971 35:-0.929937 36:-0.965881 37:-0.972633 38:-0.970596 39:-0.987087 40:-0.980299 41:-0.967202 42:-0.963719 43:-0.972435 44:-0.969492 45:-0.965696 46:-0.969297 47:-0.958897 48:-0.874404 49:-0.972625 50:-0.969315 
1.0 1:-0.923503 2:-0.306972 3:0.11195 4:-0.944519 5:-0.974271 6:-0.985137 7:-0.968782 8:-0.998394 9:-0.998431 10:-0.998088 11:-0.996347 12:-0.997968 13:-0.989734 14:-0.990806 15:-0.990649 16:-0.984743 17:-0.986082 18:-0.952481 19:-0.991734 20:-0.994944 21:-0.996498 22:-0.997447 23:-0.997382 24:-0.997287 25:-0.99504 26:-0.995874 27:-0.994068 28:-0.996096 29:-0.990399 30:-0.983547 31:-0.976933 32:-0.988801 33:-0.983365 34:-0.982651 35:-0.963605 36:-0.979002 37:-0.978998 38:-0.984397 39:-0.982386 40:-0.977529 41:-0.984235 42:-0.980643 43:-0.970772 44:-0.97563 45:-0.977797 46:-0.964802 47:-0.97946 48:-0.970558 49:-0.974224 50:-0.978972 
1.0 1:-0.891393 2:-0.745625 3:-0.785069 4:-0.429047 5:-0.267755 6:-0.949967 7:-0.963782 8:-0.950464 9:-0.987269 10:-0.996102 11:-0.994844 12:-0.99564 13:-0.986244 14:-0.990223 15:-0.989938 16:-0.990729 17:-0.97067 18:-0.987855 19:-0.993964 20:-0.994909 21:-0.996663 22:-0.996258 23:-0.995058 24:-0.993391 25:-0.996142 26:-0.994667 27:-0.985979 28:-0.994959 29:-0.983499 30:-0.979088 31:-0.971613 32:-0.983559 33:-0.964749 34:-0.974666 35:-0.967107 36:-0.969806 37:-0.972136 38:-0.976751 39:-0.984793 40:-0.976609 41:-0.970975 42:-0.973049 43:-0.966919 44:-0.964707 45:-0.968406 46:-0.96228 47:-0.964845 48:-0.95998 49:-0.967364 50:-0.959453 
1.0 1:-0.844365 2:0.180569 3:-0.434735 4:-0.97306 5:-0.95495 6:-0.996796 7:-0.989904 8:-0.993458 9:-0.99651 10:-0.990442 11:-0.991327 12:-0.995924 13:-0.987735 14:-0.985095 15:-0.984681 16:-0.979077 17:-0.974849 18:-0.971136 19:-0.986775 20:-0.983018 21:-0.994043 22:-0.987692 23:-0.993526 24:-0.994228 25:-0.992921 26:-0.987113 27:-0.990478 28:-0.983896 29:-0.966846 30:-0.956905 31:-0.954274 32:-0.97014 33:-0.969055 34:-0.961223 35:-0.956376 36:-0.967047 37:-0.951121 38:-0.965393 39:-0.977402 40:-0.950147 41:-0.962379 42:-0.920872 43:-0.953038 44:-0.938895 45:-0.943593 46:-0.957766 47:-0.942057 48:-0.93702 49:-0.955633 50:-0.957656 
1.0 1:-0.704047 2:-0.96424 3:-0.917188 4:0.463994 5:-0.932307 6:-0.981513 7:-0.964451 8:-0.994294 9:-0.991494 10:-0.989287 11:-0.990468 12:-0.985684 13:-0.969574 14:-0.983568 15:-0.977267 16:-0.975004 17:-0.959506 18:-0.948999 19:-0.982428 20:-0.976668 21:-0.991388 22:-0.991722 23:-0.982378 24:-0.991025 25:-0.991548 26:-0.981566 27:-0.969581 28:-0.972611 29:-0.950267 30:-0.922566 31:-0.932053 32:-0.956252 33:-0.936236 34:-0.931419 35:-0.845537 36:-0.898223 37:-0.890618 38:-0.925846 39:-0.941078 40:-0.891504 41:-0.922491 42:-0.923296 43:-0.91 44:-0.838851 45:-0.905793 46:-0.892418 47:-0.916573 48:-0.903501 49:-0.913473 50:-0.919837 
1.0 1:-0.959071 2:0.308053 3:-0.733524 4:-0.849134 5:-0.943027 6:-0.960608 7:-0.970489 8:-0.974292 9:-0.983196 10:-0.984454 11:-0.982669 12:-0.985115 13:-0.975353 14:-0.985368 15:-0.970696 16:-0.97767 17:-0.962632 18:-0.970069 19:-0.987504 20:-0.992074 21:-0.993914 22:-0.994045 23:-0.995185 24:-0.995741 25:-0.996655 26:-0.995328 27:-0.990588 28:-0.996658 29:-0.987997 30:-0.984268 31:-0.976821 32:-0.989469 33:-0.990176 34:-0.988679 35:-0.980391 36:-0.981882 37:-0.980623 38:-0.984952 39:-0.990865 40:-0.987847 41:-0.982377 42:-0.981089 43:-0.988414 44:-0.983081 45:-0.978915 46:-0.986414 47:-0.987786 48:-0.982437 49:-0.984615 50:-0.983928 
1.0 1:-0.91032 2:-0.530249 3:-0.565065 4:-0.299573 5:-0.930935 6:-0.960486 7:-0.973901 8:-0.973136 9:-0.974385 10:-0.987914 11:-0.988355 12:-0.988804 13:-0.97844 14:-0.989397 15:-0.983209 16:-0.979663 17:-0.941847 18:-0.985062 19:-0.95647 20:-0.991952 21:-0.990298 22:-0.996395 23:-0.961228 24:-0.98879 25:-0.997897 26:-0.994296 27:-0.939213 28:-0.969123 29:-0.986305 30:-0.935153 31:-0.900618 32:-0.915506 33:-0.97618 34:-0.98047 35:-0.943895 36:-0.978176 37:-0.953522 38:-0.840524 39:-0.977821 40:-0.981838 41:-0.950376 42:-0.954548 43:-0.968877 44:-0.971016 45:-0.95152 46:-0.963608 47:-0.975694 48:-0.965606 49:-0.976355 50:-0.977554 
1.0 1:-0.945712 2:0.234811 3:-0.418809 4:-0.955478 5:-0.978642 6:-0.984496 7:-0.995186 8:-0.994442 9:-0.989822 10:-0.995064 11:-0.993704 12:-0.995745 13:-0.987381 14:-0.989734 15:-0.995663 16:-0.995181 17:-0.992768 18:-0.992515 19:-0.985395 20:-0.989353 21:-0.998385 22:-0.990355 23:-0.996877 24:-0.997443 25:-0.989694 26:-0.984422 27:-0.994096 28:-0.987486 29:-0.992657 30:-0.979833 31:-0.978091 32:-0.989036 33:-0.985948 34:-0.983107 35:-0.975889 36:-0.971907 37:-0.9742 38:-0.967574 39:-0.989636 40:-0.962558 41:-0.981541 42:-0.968855 43:-0.985723 44:-0.982316 45:-0.971048 46:-0.986182 47:-0.963701 48:-0.959551 49:-0.981916 50:-0.986261 
1.0 1:-0.711911 2:-0.596683 3:-0.144743 4:-0.855201 5:-0.871033 6:-0.980259 7:-0.887875 8:-0.98192 9:-0.981832 10:-0.992853 11:-0.971399 12:-0.992666 13:-0.977815 14:-0.952144 15:-0.958133 16:-0.954093 17:-0.952073 18:-0.956022 19:-0.967818 20:-0.986778 21:-0.992289 22:-0.99083 23:-0.98623 24:-0.990186 25:-0.990504 26:-0.983655 27:-0.969318 28:-0.984462 29:-0.958868 30:-0.948031 31:-0.903236 32:-0.957299 33:-0.934762 34:-0.91423 35:-0.916404 36:-0.911978 37:-0.91929 38:-0.941127 39:-0.955766 40:-0.93999 41:-0.933336 42:-0.854211 43:-0.872984 44:-0.919906 45:-0.904081 46:-0.910639 47:-0.932614 48:-0.897852 49:-0.914951 50:-0.878158 
1.0 1:-0.281831 2:-0.540617 3:-0.939593 4:-0.721844 5:-0.773867 6:-0.828207 7:-0.973899 8:-0.972011 9:-0.97955 10:-0.950041 11:-0.965322 12:-0.978912 13:-0.905582 14:-0.966525 15:-0.91378 16:-0.951482 17:-0.823671 18:-0.915217 19:-0.966011 20:-0.968038 21:-0.970948 22:-0.976615 23:-0.972093 24:-0.97954 25:-0.982191 26:-0.963285 27:-0.939118 28:-0.964598 29:-0.893418 30:-0.839889 31:-0.803197 32:-0.776103 33:-0.859017 34:-0.832293 35:-0.757022 36:-0.829826 37:-0.768698 38:-0.841507 39:-0.862478 40:-0.867505 41:-0.823358 42:-0.710934 43:-0.806859 44:-0.800179 45:-0.762898 46:-0.802079 47:-0.832255 48:-0.453368 49:-0.76168 50:-0.80721 
1.0 1:-0.967766 2:-0.933491 3:-0.3091 4:-0.818946 5:-0.876565 6:-0.993975 7:-0.99436 8:-0.926059 9:-0.99555 10:-0.999038 11:-0.999045 12:-0.995547 13:-0.997601 14:-0.997862 15:-0.947106 16:-0.994507 17:-0.989348 18:-0.973949 19:-0.994424 20:-0.963281 21:-0.955853 22:-0.884821 23:-0.666581 24:-0.656297 25:-0.979192 26:-0.827281 27:-0.859372 28:-0.945001 29:-0.577251 30:-0.979672 31:-0.714232 32:-0.946985 33:-0.944868 34:-0.959939 35:-0.978929 36:-0.940052 37:-0.933972 38:-0.953722 39:-0.992059 40:-0.932198 41:-0.929364 42:-0.977136 43:-0.975104 44:-0.965828 45:-0.96651 46:-0.974299 47:-0.98216 48:-0.952585 49:-0.991107 50:-0.949344 
1.0 1:0.758678 2:-0.915761 3:-0.922854 4:-0.964335 5:-0.942531 6:-0.95921 7:-0.966789 8:-0.963738 9:-0.959985 10:-0.948587 11:-0.958888 12:-0.952103 13:-0.86859 14:-0.909273 15:-0.873657 16:-0.863151 17:-0.817426 18:-0.731947 19:-0.915432 20:-0.918294 21:-0.948175 22:-0.950884 23:-0.920029 24:-0.934152 25:-0.960144 26:-0.915521 27:-0.876907 28:-0.913928 29:-0.55725 30:-0.684108 31:-0.58484 32:-0.637852 33:-0.690929 34:-0.395865 35:-0.33392 36:-0.620155 37:-0.479721 38:-0.566967 39:-0.80084 40:-0.555372 41:-0.603957 42:-0.55965 43:-0.590675 44:-0.494564 45:-0.418146 46:-0.570439 47:-0.587001 48:-0.283309 49:-0.303956 50:-0.355898 
1.0 1:-0.905249 2:-0.993136 3:0.750044 4:-0.863015 5:-0.97598 6:-0.991041 7:-0.994449 8:-0.997872 9:-0.997957 10:-0.996781 11:-0.996452 12:-0.997174 13:-0.994445 14:-0.995126 15:-0.992109 16:-0.990482 17:-0.990323 18:-0.97372 19:-0.994096 20:-0.995342 21:-0.997358 22:-0.997265 23:-0.996009 24:-0.99673 25:-0.99716 26:-0.995756 27:-0.993962 28:-0.995183 29:-0.984969 30:-0.970926 31:-0.964072 32:-0.985738 33:-0.984356 34:-0.966002 35:-0.966687 36:-0.976542 37:-0.975805 38:-0.980504 39:-0.988487 40:-0.981717 41:-0.975468 42:-0.96346 43:-0.976636 44:-0.959203 45:-0.946791 46:-0.974282 47:-0.972003 48:-0.958895 49:-0.975637 50:-0.972231 
1.0 1:-0.976525 2:-0.986148 3:-0.90752 4:-0.285133 5:-0.697903 6:-0.811445 7:-0.948543 8:-0.955602 9:-0.50914 10:-0.960263 11:-0.944612 12:-0.990171 13:-0.969232 14:-0.989309 15:-0.97779 16:-0.989214 17:-0.97502 18:-0.982798 19:-0.992893 20:-0.990941 21:-0.996653 22:-0.994106 23:-0.990938 24:-0.991345 25:-0.998669 26:-0.994233 27:-0.992332 28:-0.996241 29:-0.988472 30:-0.982302 31:-0.979198 32:-0.995231 33:-0.988579 34:-0.985789 35:-0.981334 36:-0.988674 37:-0.992666 38:-0.974992 39:-0.985005 40:-0.983263 41:-0.993704 42:-0.987521 43:-0.990525 44:-0.985727 45:-0.991919 46:-0.989572 47:-0.988396 48:-0.990044 49:-0.992541 50:-0.990162 
1.0 1:-0.923685 2:0.381573 3:-0.893707 4:-0.827784 5:-0.953891 6:-0.981599 7:-0.989299 8:-0.986756 9:-0.996492 10:-0.992678 11:-0.992704 12:-0.994359 13:-0.968502 14:-0.974135 15:-0.982078 16:-0.987713 17:-0.990867 18:-0.924284 19:-0.927942 20:-0.805435 21:-0.997976 22:-0.969538 23:-0.98469 24:-0.992641 25:-0.99028 26:-0.993425 27:-0.983374 28:-0.995423 29:-0.97421 30:-0.985861 31:-0.970018 32:-0.988808 33:-0.985688 34:-0.976259 35:-0.965125 36:-0.975893 37:-0.966101 38:-0.954675 39:-0.964006 40:-0.972187 41:-0.979802 42:-0.980719 43:-0.967381 44:-0.971096 45:-0.977263 46:-0.978997 47:-0.95685 48:-0.973404 49:-0.976138 50:-0.961442 
1.0 1:-0.974348 2:-0.750306 3:0.150641 4:-0.858268 5:-0.822183 6:-0.849497 7:-0.947671 8:-0.98119 9:-0.983303 10:-0.993282 11:-0.993041 12:-0.992216 13:-0.980144 14:-0.997069 15:-0.981764 16:-0.988279 17:-0.98733 18:-0.98827 19:-0.991219 20:-0.997473 21:-0.997737 22:-0.994765 23:-0.998773 24:-0.99853 25:-0.998434 26:-0.99783 27:-0.993292 28:-0.995073 29:-0.996599 30:-0.995222 31:-0.980702 32:-0.991176 33:-0.992028 34:-0.99143 35:-0.983778 36:-0.989069 37:-0.99064 38:-0.991183 39:-0.995975 40:-0.990376 41:-0.98867 42:-0.986425 43:-0.990535 44:-0.987638 45:-0.986098 46:-0.986104 47:-0.990516 48:-0.976408 49:-0.986647 50:-0.992601 
1.0 1:-0.824183 2:-0.841012 3:-0.169718 4:-0.722639 5:-0.650592 6:-0.909438 7:-0.963781 8:-0.983756 9:-0.980591 10:-0.982621 11:-0.994292 12:-0.986117 13:-0.981784 14:-0.991034 15:-0.959558 16:-0.965146 17:-0.955606 18:-0.966067 19:-0.98993 20:-0.991939 21:-0.981652 22:-0.981718 23:-0.989151 24:-0.991779 25:-0.988253 26:-0.967962 27:-0.987992 28:-0.991267 29:-0.957035 30:-0.944096 31:-0.919486 32:-0.96456 33:-0.968194 34:-0.936906 35:-0.940822 36:-0.958544 37:-0.954664 38:-0.939254 39:-0.975564 40:-0.968461 41:-0.95341 42:-0.932747 43:-0.958956 44:-0.925477 45:-0.940135 46:-0.936876 47:-0.913314 48:-0.872414 49:-0.954393 50:-0.955678 
1.0 1:-0.973332 2:-0.456696 3:-0.796297 4:-0.70581 5:-0.458217 6:-0.915993 7:-0.770225 8:-0.973172 9:-0.979441 10:-0.971487 11:-0.990285 12:-0.988197 13:-0.997548 14:-0.996637 15:-0.982188 16:-0.994258 17:-0.975342 18:-0.990222 19:-0.998196 20:-0.991678 21:-0.993982 22:-0.998588 23:-0.9984 24:-0.996803 25:-0.998198 26:-0.997462 27:-0.997422 28:-0.995988 29:-0.989185 30:-0.995567 31:-0.985728 32:-0.993381 33:-0.994308 34:-0.989255 35:-0.974879 36:-0.990496 37:-0.989068 38:-0.989482 39:-0.995213 40:-0.987313 41:-0.991136 42:-0.988674 43:-0.989685 44:-0.985634 45:-0.982472 46:-0.992957 47:-0.991094 48:-0.989876 49:-0.992528 50:-0.985524 
1.0 1:-0.984585 2:-0.904151 3:-0.739974 4:-0.994605 5:-0.66053 6:-0.768035 7:-0.176393 8:-0.849862 9:-0.954549 10:-0.966795 11:-0.995117 12:-0.976704 13:-0.918048 14:-0.99785 15:-0.998412 16:-0.998009 17:-0.9978 18:-0.994611 19:-0.998584 20:-0.997707 21:-0.999042 22:-0.999183 23:-0.999204 24:-0.999366 25:-0.999643 26:-0.999368 27:-0.997383 28:-0.998634 29:-0.993212 30:-0.997201 31:-0.995675 32:-0.996857 33:-0.997309 34:-0.995483 35:-0.994634 36:-0.994679 37:-0.995619 38:-0.994008 39:-0.998284 40:-0.997003 41:-0.995175 42:-0.988983 43:-0.996124 44:-0.994588 45:-0.995114 46:-0.996092 47:-0.995847 48:-0.988412 49:-0.995489 50:-0.995036 
1.0 1:-0.826173 2:-0.941885 3:-0.688591 4:0.27992 5:-0.835155 6:-0.983657 7:-0.980308 8:-0.990516 9:-0.996407 10:-0.995489 11:-0.993591 12:-0.994166 13:-0.975352 14:-0.990702 15:-0.979622 16:-0.9871 17:-0.975707 18:-0.974437 19:-0.988235 20:-0.991463 21:-0.994098 22:-0.99422 23:-0.994007 24:-0.993977 25:-0.995341 26:-0.992305 27:-0.982771 28:-0.980918 29:-0.974539 30:-0.970607 31:-0.955743 32:-0.964269 33:-0.937888 34:-0.960364 35:-0.925835 36:-0.956883 37:-0.952329 38:-0.95695 39:-0.976806 40:-0.963229 41:-0.961048 42:-0.934371 43:-0.951357 44:-0.936183 45:-0.95118 46:-0.956286 47:-0.951884 48:-0.937439 49:-0.947817 50:-0.95654 
1.0 1:-0.880677 2:-0.756111 3:-0.808285 4:0.392288 5:-0.993028 6:-0.975085 7:-0.995425 8:-0.994487 9:-0.982039 10:-0.986887 11:-0.996374 12:-0.99611 13:-0.9691 14:-0.993989 15:-0.990227 16:-0.988353 17:-0.987574 18:-0.970985 19:-0.992573 20:-0.989776 21:-0.996656 22:-0.994909 23:-0.995803 24:-0.995167 25:-0.979286 26:-0.994249 27:-0.98275 28:-0.994472 29:-0.983769 30:-0.977059 31:-0.965116 32:-0.982456 33:-0.977545 34:-0.971702 35:-0.930504 36:-0.962635 37:-0.962694 38:-0.969765 39:-0.979093 40:-0.972299 41:-0.937274 42:-0.95964 43:-0.973125 44:-0.963759 45:-0.960239 46:-0.970341 47:-0.961206 48:-0.951972 49:-0.958125 50:-0.971367 
1.0 1:-0.800248 2:-0.993895 3:-0.935091 4:-0.93997 5:0.635551 6:-0.966121 7:-0.995508 8:-0.992913 9:-0.980657 10:-0.99496 11:-0.99518 12:-0.995027 13:-0.984421 14:-0.990049 15:-0.983389 16:-0.982884 17:-0.975863 18:-0.968502 19:-0.987619 20:-0.976988 21:-0.992645 22:-0.992025 23:-0.989482 24:-0.994183 25:-0.994131 26:-0.988396 27:-0.985427 28:-0.98805 29:-0.960703 30:-0.965297 31:-0.954747 32:-0.967147 33:-0.967234 34:-0.920702 35:-0.939646 36:-0.942515 37:-0.921534 38:-0.951074 39:-0.96795 40:-0.963358 41:-0.947065 42:-0.943141 43:-0.926743 44:-0.939919 45:-0.904929 46:-0.929117 47:-0.950511 48:-0.93382 49:-0.936126 50:-0.937306 
1.0 1:-0.152287 2:-0.261949 3:-0.951244 4:-0.924539 5:-0.962892 6:-0.965482 7:-0.967197 8:-0.946564 9:-0.982828 10:-0.971377 11:-0.964037 12:-0.971723 13:-0.93218 14:-0.962055 15:-0.921139 16:-0.930994 17:-0.894786 18:-0.898762 19:-0.910309 20:-0.940022 21:-0.94531 22:-0.968044 23:-0.935523 24:-0.963232 25:-0.966691 26:-0.920978 27:-0.936387 28:-0.948952 29:-0.790593 30:-0.841488 31:-0.365997 32:-0.79271 33:-0.820011 34:-0.654861 35:-0.738234 36:-0.80457 37:-0.783254 38:-0.712346 39:-0.823522 40:-0.802866 41:-0.824688 42:-0.724697 43:-0.779661 44:-0.758009 45:-0.328573 46:-0.792948 47:-0.76241 48:-0.729043 49:-0.779633 50:-0.709035 
1.0 1:-0.984083 2:-0.987126 3:-0.496194 4:-0.978453 5:-0.956421 6:-0.974155 7:0.137327 8:-0.916233 9:-0.989849 10:-0.983885 11:-0.986426 12:-0.989554 13:-0.925466 14:-0.98014 15:-0.965883 16:-0.974346 17:-0.975063 18:-0.867043 19:-0.993175 20:-0.985144 21:-0.995716 22:-0.988369 23:-0.989166 24:-0.987383 25:-0.969763 26:-0.994625 27:-0.99038 28:-0.999125 29:-0.997928 30:-0.995464 31:-0.980569 32:-0.975863 33:-0.997374 34:-0.979277 35:-0.94111 36:-0.987729 37:-0.983961 38:-0.971929 39:-0.976815 40:-0.992535 41:-0.978158 42:-0.966142 43:-0.988511 44:-0.994334 45:-0.993231 46:-0.994411 47:-0.994223 48:-0.994231 49:-0.992161 50:-0.981151 
1.0 1:-0.991123 2:-0.670314 3:-0.817996 4:-0.543572 5:-0.9528 6:-0.280288 7:-0.802324 8:-0.962275 9:-0.982929 10:-0.993815 11:-0.998418 12:-0.982648 13:-0.993887 14:-0.998544 15:-0.993721 16:-0.995324 17:-0.996313 18:-0.991565 19:-0.992702 20:-0.990664 21:-0.999638 22:-0.996645 23:-0.999006 24:-0.999013 25:-0.999743 26:-0.998363 27:-0.999121 28:-0.998588 29:-0.998293 30:-0.998435 31:-0.989575 32:-0.997392 33:-0.995337 34:-0.997435 35:-0.993903 36:-0.997342 37:-0.996822 38:-0.997948 39:-0.99191 40:-0.998324 41:-0.996434 42:-0.996025 43:-0.994284 44:-0.997518 45:-0.996157 46:-0.992206 47:-0.99727 48:-0.995302 49:-0.997437 50:-0.994438 
1.0 1:-0.667783 2:-0.866646 3:0.188041 4:-0.9027 5:-0.87254 6:-0.988784 7:-0.919512 8:-0.943872 9:-0.988737 10:-0.984894 11:-0.985889 12:-0.982807 13:-0.979683 14:-0.983306 15:-0.973157 16:-0.973319 17:-0.956579 18:-0.930244 19:-0.976372 20:-0.984118 21:-0.989206 22:-0.989637 23:-0.98601 24:-0.990867 25:-0.990964 26:-0.986378 27:-0.975232 28:-0.976674 29:-0.930109 30:-0.90292 31:-0.907401 32:-0.946732 33:-0.944764 34:-0.913369 35:-0.890327 36:-0.891506 37:-0.885409 38:-0.935119 39:-0.953777 40:-0.93083 41:-0.919596 42:-0.893301 43:-0.917955 44:-0.906512 45:-0.902089 46:-0.90458 47:-0.906908 48:-0.889879 49:-0.914668 50:-0.9201 
1.0 1:-0.988997 2:-0.425841 3:0.115125 4:-0.739219 5:-0.982672 6:-0.982229 7:-0.993562 8:-0.997322 9:-0.997354 10:-0.999369 11:-0.996902 12:-0.99817 13:-0.989751 14:-0.998711 15:-0.994688 16:-0.993324 17:-0.993851 18:-0.993516 19:-0.997923 20:-0.997565 21:-0.998221 22:-0.999043 23:-0.999273 24:-0.998764 25:-0.999253 26:-0.996948 27:-0.997052 28:-0.998674 29:-0.993104 30:-0.997698 31:-0.997499 32:-0.996219 33:-0.998142 34:-0.991736 35:-0.994359 36:-0.992993 37:-0.986767 38:-0.980757 39:-0.996102 40:-0.995804 41:-0.990077 42:-0.990329 43:-0.993107 44:-0.992521 45:-0.989845 46:-0.996305 47:-0.996356 48:-0.99502 49:-0.99593 50:-0.9973 
1.0 1:-0.958798 2:-0.673547 3:-0.358549 4:-0.259694 5:-0.843701 6:-0.9603 7:-0.949308 8:-0.995636 9:-0.998835 10:-0.994568 11:-0.995574 12:-0.996197 13:-0.983899 14:-0.991453 15:-0.987821 16:-0.996119 17:-0.981149 18:-0.993852 19:-0.993757 20:-0.99758 21:-0.996113 22:-0.998436 23:-0.995504 24:-0.995746 25:-0.993649 26:-0.997849 27:-0.995883 28:-0.997296 29:-0.984573 30:-0.99158 31:-0.983013 32:-0.988496 33:-0.990052 34:-0.988636 35:-0.98591 36:-0.983347 37:-0.977639 38:-0.989457 39:-0.993565 40:-0.988936 41:-0.991414 42:-0.980127 43:-0.989967 44:-0.987554 45:-0.987574 46:-0.988099 47:-0.983348 48:-0.978179 49:-0.984873 50:-0.990152 
1.0 1:-0.88045 2:-0.937166 3:-0.825541 4:-0.124055 5:-0.532297 6:-0.764824 7:-0.942008 8:-0.985178 9:-0.995032 10:-0.996821 11:-0.990485 12:-0.995432 13:-0.978427 14:-0.988423 15:-0.977622 16:-0.989985 17:-0.970714 18:-0.986499 19:-0.991715 20:-0.994616 21:-0.99663 22:-0.996282 23:-0.994528 24:-0.992029 25:-0.996987 26:-0.989132 27:-0.987545 28:-0.993101 29:-0.979525 30:-0.969331 31:-0.962087 32:-0.981788 33:-0.97635 34:-0.958392 35:-0.955174 36:-0.973167 37:-0.954751 38:-0.966755 39:-0.985303 40:-0.95674 41:-0.972591 42:-0.967272 43:-0.971368 44:-0.962123 45:-0.963128 46:-0.965747 47:-0.942134 48:-0.933799 49:-0.952948 50:-0.953893 
1.0 1:-0.38246 2:-0.951476 3:-0.908118 4:-0.140986 5:-0.70128 6:-0.959241 7:-0.973043 8:-0.977085 9:-0.977713 10:-0.969189 11:-0.970958 12:-0.971415 13:-0.945156 14:-0.946967 15:-0.939076 16:-0.941369 17:-0.928015 18:-0.910289 19:-0.96937 20:-0.972951 21:-0.980469 22:-0.977223 23:-0.974941 24:-0.974546 25:-0.974346 26:-0.974403 27:-0.935878 28:-0.961555 29:-0.905558 30:-0.897638 31:-0.850764 32:-0.893138 33:-0.893724 34:-0.802527 35:-0.813448 36:-0.857124 37:-0.810994 38:-0.877225 39:-0.925802 40:-0.833646 41:-0.853771 42:-0.817997 43:-0.840742 44:-0.813646 45:-0.823248 46:-0.817176 47:-0.820911 48:-0.777941 49:-0.803655 50:-0.79639 
1.0 1:-0.95893 2:-0.960551 3:-0.893409 4:-0.562912 5:-0.444969 6:-0.898966 7:-0.875898 8:-0.661518 9:-0.908895 10:-0.950279 11:-0.965678 12:-0.982475 13:-0.92515 14:-0.962923 15:-0.9473 16:-0.964213 17:-0.950545 18:-0.949864 19:-0.979712 20:-0.982401 21:-0.991266 22:-0.991613 23:-0.99046 24:-0.992425 25:-0.995026 26:-0.992114 27:-0.98779 28:-0.991493 29:-0.978124 30:-0.973626 31:-0.965112 32:-0.979029 33:-0.978228 34:-0.973827 35:-0.954643 36:-0.974945 37:-0.969733 38:-0.979154 39:-0.984982 40:-0.980571 41:-0.975782 42:-0.974501 43:-0.978828 44:-0.978354 45:-0.979934 46:-0.972867 47:-0.977318 48:-0.974775 49:-0.978541 50:-0.979564 
1.0 1:-0.997071 2:-0.520819 3:-0.788869 4:-0.939779 5:-0.895314 6:0.102218 7:-0.97033 8:-0.98004 9:-0.996474 10:-0.997297 11:-0.999563 12:-0.999375 13:-0.996696 14:-0.999408 15:-0.997495 16:-0.993292 17:-0.997337 18:-0.99776 19:-0.998186 20:-0.999262 21:-0.999296 22:-0.999408 23:-0.999209 24:-0.999818 25:-0.99992 26:-0.994953 27:-0.999052 28:-0.999674 29:-0.999382 30:-0.997939 31:-0.996438 32:-0.996915 33:-0.996209 34:-0.998889 35:-0.997607 36:-0.998647 37:-0.999305 38:-0.998681 39:-0.99746 40:-0.997557 41:-0.998893 42:-0.994299 43:-0.998543 44:-0.999199 45:-0.997182 46:-0.998702 47:-0.999204 48:-0.998788 49:-0.998895 50:-0.996197 
1.0 1:-0.987941 2:-0.77501 3:0.098025 4:-0.92521 5:-0.913944 6:-0.872299 7:-0.94341 8:-0.987812 9:-0.986754 10:-0.821015 11:-0.944019 12:-0.900611 13:-0.901851 14:-0.969162 15:-0.980694 16:-0.991195 17:-0.984412 18:-0.988725 19:-0.997542 20:-0.996621 21:-0.998593 22:-0.998363 23:-0.998408 24:-0.999557 25:-0.999717 26:-0.996138 27:-0.994837 28:-0.997238 29:-0.996376 30:-0.9945 31:-0.989632 32:-0.997084 33:-0.995877 34:-0.990527 35:-0.996145 36:-0.994252 37:-0.992239 38:-0.996981 39:-0.996859 40:-0.993591 41:-0.992532 42:-0.991082 43:-0.994214 44:-0.994705 45:-0.99231 46:-0.993165 47:-0.990613 48:-0.991207 49:-0.996457 50:-0.996491 
1.0 1:-0.917436 2:0.331931 3:-0.855072 4:-0.931062 5:-0.932964 6:-0.822887 7:-0.941945 8:-0.97245 9:-0.988635 10:-0.984432 11:-0.991396 12:-0.992999 13:-0.991782 14:-0.987501 15:-0.982928 16:-0.992037 17:-0.978659 18:-0.960218 19:-0.98192 20:-0.984068 21:-0.996583 22:-0.995417 23:-0.996786 24:-0.99603 25:-0.996639 26:-0.989911 27:-0.994969 28:-0.992879 29:-0.978891 30:-0.968938 31:-0.968957 32:-0.975021 33:-0.981703 34:-0.981008 35:-0.972405 36:-0.975742 37:-0.960123 38:-0.968577 39:-0.986048 40:-0.982881 41:-0.946267 42:-0.971886 43:-0.979478 44:-0.975376 45:-0.969799 46:-0.939878 47:-0.969836 48:-0.947473 49:-0.972316 50:-0.968209 
1.0 1:-0.991798 2:-0.826809 3:0.0369732 4:-0.968943 5:-0.997631 6:-0.998663 7:-0.999649 8:-0.998656 9:-0.992294 10:-0.959122 11:-0.99205 12:-0.998599 13:-0.997535 14:-0.99306 15:-0.994375 16:-0.990558 17:-0.962863 18:-0.99644 19:-0.618126 20:-0.974999 21:-0.948262 22:-0.910731 23:-0.901769 24:-0.996264 25:-0.978085 26:-0.992442 27:-0.513538 28:-0.767913 29:-0.729487 30:-0.591153 31:-0.92771 32:-0.789304 33:-0.975037 34:-0.994448 35:-0.951851 36:-0.99005 37:-0.960188 38:-0.996139 39:-0.997078 40:-0.987951 41:-0.985241 42:-0.984798 43:-0.961298 44:-0.993913 45:-0.983719 46:-0.98891 47:-0.994913 48:-0.95992 49:-0.995142 50:-0.995282 
1.0 1:-0.97882 2:-0.847358 3:-0.447144 4:-0.614175 5:-0.647556 6:-0.895579 7:-0.960599 8:-0.670881 9:-0.997451 10:-0.968228 11:-0.999389 12:-0.996458 13:-0.995832 14:-0.939028 15:-0.994999 16:-0.986931 17:-0.997141 18:-0.992717 19:-0.99722 20:-0.993204 21:-0.993549 22:-0.956213 23:-0.994268 24:-0.998403 25:-0.998362 26:-0.998213 27:-0.997249 28:-0.994878 29:-0.997229 30:-0.995138 31:-0.984005 32:-0.991642 33:-0.984812 34:-0.984284 35:-0.979796 36:-0.994914 37:-0.994377 38:-0.99584 39:-0.997623 40:-0.99341 41:-0.991876 42:-0.98968 43:-0.979412 44:-0.984639 45:-0.985629 46:-0.993239 47:-0.99351 48:-0.988129 49:-0.994084 50:-0.992448 
1.0 1:-0.990937 2:-0.60603 3:-0.56539 4:-0.427359 5:-0.693346 6:-0.943373 7:-0.977176 8:-0.974553 9:-0.817363 10:-0.985578 11:-0.990242 12:-0.996775 13:-0.989094 14:-0.991115 15:-0.994278 16:-0.9937 17:-0.997027 18:-0.988854 19:-0.997619 20:-0.999404 21:-0.999394 22:-0.99892 23:-0.997009 24:-0.998841 25:-0.998514 26:-0.99901 27:-0.998257 28:-0.999 29:-0.996288 30:-0.992428 31:-0.994093 32:-0.995906 33:-0.995867 34:-0.997634 35:-0.997117 36:-0.994796 37:-0.993042 38:-0.998016 39:-0.99536 40:-0.995972 41:-0.990692 42:-0.994483 43:-0.993901 44:-0.995406 45:-0.992586 46:-0.994086 47:-0.994685 48:-0.997048 49:-0.99711 50:-0.997829 
0.16064568166341434 1:-0.990542 2:-0.971287 3:-0.494877 4:-0.960404 5:-0.747732 6:-0.625187 7:-0.299579 8:-0.992913 9:-0.949484 10:-0.9745 11:-0.996072 12:-0.987247 13:-0.983188 14:-0.990161 15:-0.99731 16:-0.997152 17:-0.996725 18:-0.972902 19:-0.992075 20:-0.998765 21:-0.996702 22:-0.998016 23:-0.998228 24:-0.996718 25:-0.990999 26:-0.996419 27:-0.997508 28:-0.999207 29:-0.995107 30:-0.98475 31:-0.991943 32:-0.997177 33:-0.997391 34:-0.994219 35:-0.994335 36:-0.997369 37:-0.996299 38:-0.998122 39:-0.996672 40:-0.996943 41:-0.996864 42:-0.994366 43:-0.994968 44:-0.996194 45:-0.995606 46:-0.99766 47:-0.996838 48:-0.995756 49:-0.996769 50:-0.997733 
1.0 1:-0.610301 2:-0.961104 3:0.0113087 4:-0.755515 5:-0.719832 6:-0.978791 7:-0.98464 8:-0.981805 9:-0.989093 10:-0.988578 11:-0.986743 12:-0.989556 13:-0.941884 14:-0.968622 15:-0.971992 16:-0.970142 17:-0.955288 18:-0.953191 19:-0.97093 20:-0.981552 21:-0.989065 22:-0.986496 23:-0.98625 24:-0.988907 25:-0.986839 26:-0.977028 27:-0.962095 28:-0.981805 29:-0.95023 30:-0.932287 31:-0.841581 32:-0.903854 33:-0.921221 34:-0.865759 35:-0.8727 36:-0.913973 37:-0.899601 38:-0.915161 39:-0.953671 40:-0.925146 41:-0.901438 42:-0.77874 43:-0.910686 44:-0.888988 45:-0.814833 46:-0.889643 47:-0.907035 48:-0.877051 49:-0.878831 50:-0.850685 
1.0 1:-0.554728 2:-0.353808 3:-0.821258 4:-0.629822 5:-0.978446 6:-0.946104 7:-0.984332 8:-0.934199 9:-0.987032 10:-0.962201 11:-0.976341 12:-0.975638 13:-0.958806 14:-0.976678 15:-0.96699 16:-0.955602 17:-0.891768 18:-0.908633 19:-0.975931 20:-0.930187 21:-0.953424 22:-0.985866 23:-0.932639 24:-0.982948 25:-0.984441 26:-0.967562 27:-0.828441 28:-0.95946 29:-0.93012 30:-0.87413 31:-0.732338 32:-0.848961 33:-0.760491 34:-0.874246 35:-0.847967 36:-0.901989 37:-0.873382 38:-0.806276 39:-0.918271 40:-0.87197 41:-0.890347 42:-0.806677 43:-0.888602 44:-0.851031 45:-0.787251 46:-0.833858 47:-0.89238 48:-0.790617 49:-0.812619 50:-0.887427 
1.0 1:-0.916283 2:-0.89581 3:-0.863556 4:-0.768783 5:0.206822 6:-0.914811 7:-0.981466 8:-0.979698 9:-0.993981 10:-0.9956 11:-0.992634 12:-0.997916 13:-0.801239 14:-0.984276 15:-0.963319 16:-0.966198 17:-0.977059 18:-0.939731 19:-0.955444 20:-0.994906 21:-0.990293 22:-0.989757 23:-0.996932 24:-0.986297 25:-0.997019 26:-0.99389 27:-0.986061 28:-0.996019 29:-0.984295 30:-0.985587 31:-0.979566 32:-0.969355 33:-0.982763 34:-0.976429 35:-0.956169 36:-0.976676 37:-0.975467 38:-0.975172 39:-0.966845 40:-0.97858 41:-0.980997 42:-0.968091 43:-0.976479 44:-0.971134 45:-0.959124 46:-0.97449 47:-0.975934 48:-0.947432 49:-0.96958 50:-0.950831 
1.0 1:-0.992861 2:-0.979389 3:-0.866325 4:-0.924988 5:-0.303316 6:-0.90399 7:-0.578316 8:-0.606152 9:-0.915638 10:-0.97411 11:-0.958284 12:-0.992079 13:-0.989541 14:-0.948176 15:-0.972273 16:-0.976887 17:-0.985514 18:-0.988313 19:-0.994671 20:-0.99857 21:-0.989543 22:-0.993927 23:-0.999617 24:-0.998437 25:-0.998618 26:-0.997134 27:-0.998768 28:-0.998477 29:-0.995946 30:-0.995432 31:-0.990998 32:-0.994181 33:-0.996441 34:-0.991792 35:-0.990941 36:-0.993777 37:-0.99695 38:-0.994092 39:-0.997985 40:-0.995137 41:-0.993733 42:-0.988616 43:-0.992559 44:-0.995734 45:-0.995801 46:-0.995951 47:-0.994489 48:-0.988706 49:-0.996061 50:-0.996537 
1.0 1:-0.983221 2:-0.978329 3:-0.991107 4:-0.924996 5:-0.967431 6:-0.929747 7:-0.943607 8:-0.949285 9:-0.974617 10:-0.913962 11:-0.858239 12:0.627381 13:-0.767957 14:-0.67502 15:-0.933191 16:-0.917933 17:-0.939646 18:-0.976572 19:-0.99818 20:-0.995922 21:-0.999183 22:-0.991282 23:-0.991075 24:-0.992451 25:-0.998935 26:-0.997485 27:-0.995929 28:-0.998728 29:-0.995713 30:-0.996921 31:-0.992671 32:-0.993591 33:-0.993876 34:-0.979724 35:-0.990058 36:-0.996278 37:-0.992063 38:-0.99499 39:-0.995733 40:-0.995392 41:-0.986542 42:-0.990972 43:-0.98871 44:-0.991003 45:-0.993978 46:-0.994246 47:-0.995956 48:-0.987952 49:-0.992944 50:-0.995825 
1.0 1:-0.923451 2:-0.763044 3:0.334131 4:-0.888146 5:-0.82057 6:-0.987082 7:-0.977845 8:-0.995721 9:-0.982295 10:-0.993036 11:-0.998065 12:-0.987641 13:-0.990108 14:-0.984489 15:-0.979414 16:-0.966037 17:-0.975883 18:-0.990534 19:-0.995336 20:-0.991223 21:-0.996028 22:-0.997287 23:-0.99718 24:-0.997748 25:-0.994404 26:-0.996645 27:-0.994253 28:-0.996041 29:-0.987453 30:-0.982418 31:-0.973195 32:-0.965245 33:-0.986663 34:-0.978811 35:-0.977093 36:-0.981168 37:-0.981744 38:-0.98154 39:-0.990499 40:-0.97952 41:-0.983651 42:-0.97563 43:-0.98167 44:-0.970925 45:-0.970506 46:-0.96308 47:-0.979654 48:-0.975866 49:-0.978154 50:-0.976374 
1.0 1:-0.87303 2:-0.552706 3:-0.712364 4:-0.325063 5:-0.746098 6:-0.927723 7:-0.969817 8:-0.983684 9:-0.983182 10:-0.991986 11:-0.991246 12:-0.989402 13:-0.965688 14:-0.984832 15:-0.977943 16:-0.982985 17:-0.954955 18:-0.967839 19:-0.991715 20:-0.989249 21:-0.996462 22:-0.996242 23:-0.980317 24:-0.99332 25:-0.983149 26:-0.99296 27:-0.991814 28:-0.994055 29:-0.976311 30:-0.940116 31:-0.936977 32:-0.972279 33:-0.881986 34:-0.920765 35:-0.953207 36:-0.855666 37:-0.9595 38:-0.974407 39:-0.985481 40:-0.976663 41:-0.968359 42:-0.937806 43:-0.960913 44:-0.861527 45:-0.943378 46:-0.871932 47:-0.959683 48:-0.823664 49:-0.961303 50:-0.905865 
1.0 1:-0.868501 2:-0.878553 3:0.0341436 4:-0.956575 5:-0.833271 6:-0.771722 7:-0.76774 8:-0.982192 9:-0.994465 10:-0.994567 11:-0.982274 12:-0.996767 13:-0.958934 14:-0.993235 15:-0.988198 16:-0.987994 17:-0.983171 18:-0.979842 19:-0.991653 20:-0.983404 21:-0.991332 22:-0.995721 23:-0.993564 24:-0.98756 25:-0.996999 26:-0.987855 27:-0.990993 28:-0.992217 29:-0.973367 30:-0.957158 31:-0.968127 32:-0.980749 33:-0.969302 34:-0.945968 35:-0.942247 36:-0.950512 37:-0.966445 38:-0.973292 39:-0.967487 40:-0.96416 41:-0.961762 42:-0.944915 43:-0.915346 44:-0.919659 45:-0.914212 46:-0.965474 47:-0.949966 48:-0.950187 49:-0.962188 50:-0.957435 
1.0 1:-0.925876 2:-0.921531 3:0.144019 4:-0.726749 5:-0.913325 6:-0.963876 7:-0.920106 8:-0.995623 9:-0.997154 10:-0.9957 11:-0.998174 12:-0.993722 13:-0.989769 14:-0.990344 15:-0.98135 16:-0.992401 17:-0.968373 18:-0.955267 19:-0.970049 20:-0.955757 21:-0.9356 22:-0.961211 23:-0.852938 24:-0.946481 25:-0.976285 26:-0.994955 27:-0.979742 28:-0.991107 29:-0.98278 30:-0.98412 31:-0.97654 32:-0.986016 33:-0.984035 34:-0.980922 35:-0.979181 36:-0.979174 37:-0.97176 38:-0.98561 39:-0.990512 40:-0.976551 41:-0.984699 42:-0.967416 43:-0.977107 44:-0.979448 45:-0.970618 46:-0.978407 47:-0.97043 48:-0.97101 49:-0.97033 50:-0.97845 
1.0 1:-0.683979 2:-0.722244 3:-0.224468 4:-0.954363 5:-0.973477 6:-0.992561 7:-0.982795 8:-0.991555 9:-0.992839 10:-0.985987 11:-0.989073 12:-0.989217 13:-0.953508 14:-0.956761 15:-0.976026 16:-0.915269 17:-0.943128 18:-0.78207 19:-0.957352 20:-0.935734 21:-0.67093 22:-0.982643 23:-0.825528 24:-0.824053 25:-0.986726 26:-0.985871 27:-0.978036 28:-0.964713 29:-0.94028 30:-0.85222 31:-0.921803 32:-0.954554 33:-0.901379 34:-0.917251 35:-0.866992 36:-0.893462 37:-0.917486 38:-0.911716 39:-0.961796 40:-0.940002 41:-0.881266 42:-0.891421 43:-0.870266 44:-0.864325 45:-0.894722 46:-0.896873 47:-0.904536 48:-0.861203 49:-0.901701 50:-0.917541 
0.34375804048857495 1:-0.987798 2:-0.991092 3:-0.889178 4:-0.585872 5:-0.92493 6:0.196279 7:-0.895264 8:-0.938695 9:-0.993317 10:-0.98989 11:-0.988335 12:-0.986426 13:-0.990519 14:-0.997512 15:-0.998526 16:-0.998117 17:-0.989191 18:-0.996447 19:-0.996033 20:-0.999009 21:-0.999494 22:-0.999344 23:-0.995683 24:-0.99898 25:-0.999034 26:-0.997811 27:-0.999055 28:-0.999258 29:-0.992354 30:-0.991765 31:-0.996476 32:-0.9974 33:-0.994858 34:-0.994834 35:-0.994728 36:-0.989117 37:-0.986979 38:-0.995879 39:-0.997675 40:-0.992541 41:-0.995653 42:-0.994711 43:-0.995117 44:-0.988387 45:-0.988438 46:-0.996563 47:-0.994414 48:-0.99449 49:-0.996248 50:-0.996355 
1.0 1:0.443633 2:-0.849442 3:-0.784404 4:-0.923636 5:-0.952501 6:-0.963428 7:-0.951462 8:-0.965296 9:-0.969102 10:-0.942727 11:-0.941373 12:-0.951357 13:-0.906461 14:-0.887422 15:-0.805663 16:-0.900349 17:-0.793117 18:-0.838603 19:-0.925442 20:-0.903998 21:-0.95375 22:-0.937378 23:-0.938146 24:-0.952815 25:-0.967042 26:-0.93281 27:-0.912323 28:-0.933669 29:-0.810429 30:-0.714757 31:-0.657255 32:-0.655959 33:-0.648155 34:-0.6862 35:-0.578419 36:-0.685778 37:-0.643969 38:-0.654142 39:-0.759041 40:-0.709432 41:-0.69316 42:-0.61967 43:-0.673763 44:-0.519092 45:-0.228231 46:-0.601839 47:-0.656959 48:-0.546566 49:-0.606624 50:-0.576901 
1.0 1:-0.763616 2:-0.859584 3:-0.926575 4:-0.386679 5:-0.731041 6:-0.805763 7:-0.938082 8:-0.993432 9:-0.941648 10:-0.991438 11:-0.979675 12:-0.990664 13:-0.593192 14:-0.985458 15:-0.967969 16:-0.955719 17:-0.932795 18:-0.898865 19:-0.895271 20:-0.969278 21:-0.974715 22:-0.921122 23:-0.964376 24:-0.97077 25:-0.963538 26:-0.975747 27:-0.823311 28:-0.988186 29:-0.962724 30:-0.96086 31:-0.900693 32:-0.954055 33:-0.92037 34:-0.927156 35:-0.90374 36:-0.935723 37:-0.917924 38:-0.915928 39:-0.97194 40:-0.924731 41:-0.932321 42:-0.915038 43:-0.922678 44:-0.929914 45:-0.919394 46:-0.9228 47:-0.89129 48:-0.922004 49:-0.932812 50:-0.914734 
1.0 1:-0.970136 2:-0.927907 3:-0.596618 4:-0.866196 5:-0.82526 6:-0.870634 7:-0.175076 8:-0.911178 9:-0.949924 10:-0.964566 11:-0.986275 12:-0.986085 13:-0.953697 14:-0.972037 15:-0.950928 16:-0.978857 17:-0.976282 18:-0.971782 19:-0.988948 20:-0.989124 21:-0.995492 22:-0.99507 23:-0.996486 24:-0.99771 25:-0.997027 26:-0.996451 27:-0.988342 28:-0.991163 29:-0.978624 30:-0.984055 31:-0.979247 32:-0.985289 33:-0.98594 34:-0.98088 35:-0.968806 36:-0.985581 37:-0.984806 38:-0.985377 39:-0.993014 40:-0.982933 41:-0.986786 42:-0.98491 43:-0.984027 44:-0.985959 45:-0.982392 46:-0.98876 47:-0.98337 48:-0.982777 49:-0.987679 50:-0.987331 
1.0 1:-0.993747 2:0.43035 3:-0.947989 4:-0.824643 5:-0.987883 6:-0.879464 7:-0.842767 8:-0.995565 9:-0.999269 10:-0.999734 11:-0.998998 12:-0.999787 13:-0.998668 14:-0.999682 15:-0.997914 16:-0.99939 17:-0.99689 18:-0.995073 19:-0.996741 20:-0.997489 21:-0.985177 22:-0.972614 23:-0.994008 24:-0.986943 25:-0.995957 26:-0.995198 27:-0.990254 28:-0.998324 29:-0.998451 30:-0.99248 31:-0.979044 32:-0.985452 33:-0.998516 34:-0.996105 35:-0.987362 36:-0.994682 37:-0.988664 38:-0.978297 39:-0.981777 40:-0.992218 41:-0.955198 42:-0.994845 43:-0.990242 44:-0.985529 45:-0.993019 46:-0.995308 47:-0.995714 48:-0.991705 49:-0.997288 50:-0.995451 
1.0 1:-0.596704 2:-0.933029 3:0.100481 4:-0.677358 5:-0.980953 6:-0.975413 7:-0.920206 8:-0.97785 9:-0.990981 10:-0.989862 11:-0.983097 12:-0.985695 13:-0.975842 14:-0.977868 15:-0.970757 16:-0.967736 17:-0.900383 18:-0.946417 19:-0.980468 20:-0.982039 21:-0.989238 22:-0.985263 23:-0.981704 24:-0.988934 25:-0.989169 26:-0.982739 27:-0.973476 28:-0.979589 29:-0.945244 30:-0.91521 31:-0.905389 32:-0.916642 33:-0.93154 34:-0.888202 35:-0.816303 36:-0.912171 37:-0.875731 38:-0.903164 39:-0.951513 40:-0.905716 41:-0.907906 42:-0.836694 43:-0.884537 44:-0.888469 45:-0.786039 46:-0.875879 47:-0.903764 48:-0.848396 49:-0.865201 50:-0.886413 
1.0 1:-0.369659 2:-0.940849 3:-0.0532363 4:-0.974031 5:-0.913156 6:-0.849248 7:-0.986568 8:-0.975495 9:-0.971498 10:-0.983962 11:-0.970558 12:-0.97905 13:-0.95902 14:-0.970649 15:-0.906329 16:-0.934071 17:-0.922833 18:-0.911029 19:-0.966432 20:-0.960367 21:-0.976755 22:-0.976873 23:-0.970375 24:-0.981597 25:-0.976023 26:-0.970995 27:-0.9587 28:-0.874061 29:-0.908912 30:-0.874354 31:-0.793499 32:-0.898523 33:-0.735145 34:-0.730918 35:-0.791905 36:-0.809119 37:-0.850103 38:-0.852673 39:-0.922534 40:-0.72239 41:-0.853521 42:-0.842511 43:-0.843025 44:-0.805817 45:-0.784795 46:-0.84026 47:-0.851911 48:-0.763602 49:-0.646646 50:-0.842107 
1.0 1:-0.578113 2:-0.679592 3:-0.824331 4:-0.489504 5:-0.794285 6:-0.968914 7:-0.968444 8:-0.957621 9:-0.991219 10:-0.988429 11:-0.990149 12:-0.988811 13:-0.969668 14:-0.973112 15:-0.961173 16:-0.953034 17:-0.863824 18:-0.90992 19:-0.910955 20:-0.789424 21:-0.980862 22:-0.840909 23:-0.980871 24:-0.979596 25:-0.978363 26:-0.980767 27:-0.952471 28:-0.979877 29:-0.939669 30:-0.856003 31:-0.882947 32:-0.910801 33:-0.91368 34:-0.848385 35:-0.872 36:-0.904062 37:-0.863928 38:-0.91811 39:-0.851766 40:-0.863955 41:-0.758665 42:-0.890093 43:-0.896117 44:-0.707172 45:-0.869586 46:-0.803469 47:-0.66386 48:-0.862777 49:-0.883606 50:-0.898884 
1.0 1:-0.443306 2:-0.764548 3:-0.705253 4:-0.642948 5:-0.612651 6:-0.974805 7:-0.978925 8:-0.98728 9:-0.983367 10:-0.966298 11:-0.962283 12:-0.983771 13:-0.949806 14:-0.967347 15:-0.922662 16:-0.960377 17:-0.926155 18:-0.895962 19:-0.905238 20:-0.931534 21:-0.974531 22:-0.981786 23:-0.969409 24:-0.978569 25:-0.983288 26:-0.936589 27:-0.94792 28:-0.968358 29:-0.904815 30:-0.866021 31:-0.874768 32:-0.917485 33:-0.877703 34:-0.798825 35:-0.707874 36:-0.685326 37:-0.837735 38:-0.833224 39:-0.913419 40:-0.896898 41:-0.882373 42:-0.763604 43:-0.843291 44:-0.808205 45:-0.79561 46:-0.842574 47:-0.853798 48:-0.748415 49:-0.846142 50:-0.807749 
0.9162206364598351 1:-0.991161 2:-0.640322 3:-0.168093 4:-0.352073 5:-0.919757 6:-0.974424 7:-0.979717 8:-0.992041 9:-0.992643 10:-0.994755 11:-0.991975 12:-0.996471 13:-0.991794 14:-0.993677 15:-0.995852 16:-0.999024 17:-0.994376 18:-0.990946 19:-0.998799 20:-0.998344 21:-0.99964 22:-0.990355 23:-0.990865 24:-0.992839 25:-0.999553 26:-0.996047 27:-0.998224 28:-0.99562 29:-0.9961 30:-0.990546 31:-0.995517 32:-0.996748 33:-0.995308 34:-0.994812 35:-0.99623 36:-0.990656 37:-0.995318 38:-0.995398 39:-0.996026 40:-0.998045 41:-0.995254 42:-0.996293 43:-0.994586 44:-0.990269 45:-0.99324 46:-0.994833 47:-0.994143 48:-0.995666 49:-0.995148 50:-0.996751 
1.0 1:-0.964202 2:-0.728882 3:0.125611 4:-0.567496 5:-0.989694 6:-0.998813 7:-0.989566 8:-0.974536 9:-0.997943 10:-0.997725 11:-0.998459 12:-0.994969 13:-0.984406 14:-0.968396 15:-0.966246 16:-0.96513 17:-0.875343 18:-0.940025 19:-0.996129 20:-0.994554 21:-0.988141 22:-0.996201 23:-0.991425 24:-0.998058 25:-0.998489 26:-0.982018 27:-0.991476 28:-0.99548 29:-0.99519 30:-0.985191 31:-0.98649 32:-0.958172 33:-0.981291 34:-0.990607 35:-0.976633 36:-0.96495 37:-0.989618 38:-0.9875 39:-0.983683 40:-0.992391 41:-0.945683 42:-0.97942 43:-0.954149 44:-0.986471 45:-0.955722 46:-0.966087 47:-0.986775 48:-0.96097 49:-0.989055 50:-0.9847 
1.0 1:-0.971782 2:-0.972364 3:-0.965467 4:-0.171656 5:-0.975947 6:-0.945997 7:-0.9697 8:-0.303333 9:-0.89159 10:-0.932901 11:-0.955458 12:-0.973385 13:-0.915232 14:-0.957028 15:-0.959612 16:-0.930372 17:-0.967711 18:-0.96122 19:-0.987309 20:-0.984025 21:-0.988399 22:-0.995354 23:-0.994909 24:-0.995597 25:-0.997767 26:-0.995702 27:-0.991129 28:-0.994712 29:-0.986947 30:-0.979636 31:-0.971896 32:-0.987475 33:-0.984557 34:-0.97742 35:-0.974658 36:-0.980777 37:-0.97971 38:-0.983182 39:-0.99247 40:-0.984727 41:-0.985333 42:-0.983943 43:-0.985333 44:-0.979472 45:-0.981338 46:-0.98359 47:-0.986615 48:-0.973712 49:-0.983762 50:-0.988337 
1.0 1:-0.515105 2:-0.785743 3:-0.336723 4:-0.833742 5:-0.853579 6:-0.829034 7:-0.941722 8:-0.978439 9:-0.975388 10:-0.978948 11:-0.98615 12:-0.95039 13:-0.955652 14:-0.894358 15:-0.964077 16:-0.964522 17:-0.942681 18:-0.945474 19:-0.968706 20:-0.977646 21:-0.978875 22:-0.986585 23:-0.979915 24:-0.986042 25:-0.979848 26:-0.979322 27:-0.961123 28:-0.943286 29:-0.935557 30:-0.872664 31:-0.784246 32:-0.916634 33:-0.905036 34:-0.888559 35:-0.836481 36:-0.867166 37:-0.831601 38:-0.872378 39:-0.940505 40:-0.799657 41:-0.894702 42:-0.846831 43:-0.881307 44:-0.735958 45:-0.81919 46:-0.77225 47:-0.848008 48:-0.812599 49:-0.875858 50:-0.884113 
1.0 1:-0.767714 2:-0.372189 3:-0.147952 4:-0.85289 5:-0.980152 6:-0.978686 7:-0.969883 8:-0.975944 9:-0.982408 10:-0.981676 11:-0.989301 12:-0.992222 13:-0.976213 14:-0.971374 15:-0.975119 16:-0.984356 17:-0.953883 18:-0.96101 19:-0.989181 20:-0.967801 21:-0.992246 22:-0.991499 23:-0.988385 24:-0.989949 25:-0.991027 26:-0.976658 27:-0.972763 28:-0.980988 29:-0.943469 30:-0.96122 31:-0.939955 32:-0.944569 33:-0.956836 34:-0.946561 35:-0.932443 36:-0.907339 37:-0.908048 38:-0.906333 39:-0.957771 40:-0.951999 41:-0.947249 42:-0.8236 43:-0.914817 44:-0.932424 45:-0.928277 46:-0.91987 47:-0.940326 48:-0.91782 49:-0.927381 50:-0.895855 
1.0 1:-0.991343 2:-0.997356 3:-0.877139 4:-0.961133 5:-0.837174 6:-0.883984 7:-0.822628 8:0.24854 9:-0.882594 10:-0.948829 11:-0.988587 12:-0.98712 13:-0.9749 14:-0.985906 15:-0.993089 16:-0.993827 17:-0.987827 18:-0.986699 19:-0.996542 20:-0.996356 21:-0.998082 22:-0.997909 23:-0.998167 24:-0.998651 25:-0.999085 26:-0.997919 27:-0.99809 28:-0.999091 29:-0.994406 30:-0.992209 31:-0.990247 32:-0.99419 33:-0.994989 34:-0.992172 35:-0.990279 36:-0.993827 37:-0.995261 38:-0.994959 39:-0.996207 40:-0.996395 41:-0.996588 42:-0.994899 43:-0.996034 44:-0.995155 45:-0.995401 46:-0.994899 47:-0.995602 48:-0.994995 49:-0.995944 50:-0.994768 
1.0 1:-0.669798 2:-0.838573 3:0.165868 4:-0.769351 5:-0.948504 6:-0.990472 7:-0.977501 8:-0.984119 9:-0.990805 10:-0.981407 11:-0.991456 12:-0.984031 13:-0.977708 14:-0.980613 15:-0.970215 16:-0.9723 17:-0.956174 18:-0.961058 19:-0.97614 20:-0.973711 21:-0.987689 22:-0.987003 23:-0.986743 24:-0.985819 25:-0.978978 26:-0.982971 27:-0.973257 28:-0.983964 29:-0.921349 30:-0.873926 31:-0.906497 32:-0.945334 33:-0.921732 34:-0.89669 35:-0.907175 36:-0.928039 37:-0.842055 38:-0.879657 39:-0.958574 40:-0.932011 41:-0.857683 42:-0.894151 43:-0.910527 44:-0.874843 45:-0.901849 46:-0.916945 47:-0.905916 48:-0.893762 49:-0.912571 50:-0.876322 
1.0 1:-0.960797 2:-0.904532 3:0.454185 4:-0.991759 5:-0.722686 6:-0.953133 7:-0.995807 8:-0.966636 9:-0.95761 10:-0.989054 11:-0.993911 12:-0.997197 13:-0.992699 14:-0.996924 15:-0.991429 16:-0.992919 17:-0.990586 18:-0.985755 19:-0.998088 20:-0.998143 21:-0.997031 22:-0.997482 23:-0.998458 24:-0.997303 25:-0.997512 26:-0.985129 27:-0.993781 28:-0.996235 29:-0.974184 30:-0.989237 31:-0.989182 32:-0.99269 33:-0.989716 34:-0.990839 35:-0.976218 36:-0.990374 37:-0.989315 38:-0.992344 39:-0.994225 40:-0.992097 41:-0.989374 42:-0.985672 43:-0.990873 44:-0.985501 45:-0.987018 46:-0.988985 47:-0.989953 48:-0.984165 49:-0.986378 50:-0.989343 
1.0 1:-0.992341 2:-0.996695 3:-0.999525 4:-0.983633 5:-0.884524 6:-0.849513 7:0.456291 8:-0.804004 9:-0.986319 10:-0.979586 11:-0.987221 12:-0.989323 13:-0.924489 14:-0.984449 15:-0.98139 16:-0.997685 17:-0.980302 18:-0.988215 19:-0.994521 20:-0.997997 21:-0.997738 22:-0.99822 23:-0.998439 24:-0.997462 25:-0.99909 26:-0.998732 27:-0.997544 28:-0.998319 29:-0.995818 30:-0.995741 31:-0.99374 32:-0.996774 33:-0.995838 34:-0.99465 35:-0.993835 36:-0.994831 37:-0.995259 38:-0.995906 39:-0.997564 40:-0.995877 41:-0.996323 42:-0.996296 43:-0.995664 44:-0.994759 45:-0.994782 46:-0.996333 47:-0.996154 48:-0.994156 49:-0.995623 50:-0.996177 
1.0 1:-0.582508 2:-0.87148 3:-0.383734 4:-0.577138 5:-0.840799 6:-0.969665 7:-0.988379 8:-0.898333 9:-0.985764 10:-0.990143 11:-0.98285 12:-0.98632 13:-0.712672 14:-0.941174 15:-0.949544 16:-0.972361 17:-0.945217 18:-0.92069 19:-0.961973 20:-0.980486 21:-0.97892 22:-0.983856 23:-0.983901 24:-0.987022 25:-0.990357 26:-0.963696 27:-0.946892 28:-0.978851 29:-0.93649 30:-0.91595 31:-0.87154 32:-0.940462 33:-0.930622 34:-0.860808 35:-0.874057 36:-0.816725 37:-0.890144 38:-0.882413 39:-0.952874 40:-0.905476 41:-0.88615 42:-0.729465 43:-0.838914 44:-0.772913 45:-0.842389 46:-0.842642 47:-0.900413 48:-0.839437 49:-0.86679 50:-0.85561 
1.0 1:-0.988486 2:-0.452356 3:-0.527906 4:-0.513491 5:-0.907179 6:-0.97872 7:-0.893485 8:-0.919357 9:-0.964472 10:-0.981947 11:-0.989572 12:-0.997169 13:-0.584997 14:-0.999352 15:-0.999062 16:-0.997012 17:-0.992947 18:-0.995388 19:-0.99184 20:-0.993392 21:-0.989328 22:-0.998246 23:-0.997393 24:-0.998645 25:-0.994885 26:-0.998421 27:-0.990142 28:-0.998184 29:-0.996883 30:-0.997009 31:-0.990941 32:-0.991245 33:-0.987934 34:-0.990222 35:-0.99302 36:-0.993585 37:-0.991462 38:-0.997454 39:-0.997448 40:-0.997091 41:-0.995587 42:-0.995943 43:-0.995629 44:-0.996548 45:-0.99241 46:-0.996002 47:-0.996125 48:-0.996437 49:-0.996966 50:-0.996116 
1.0 1:-0.989348 2:-0.987868 3:-0.95441 4:-0.933095 5:-0.875162 6:-0.69818 7:0.151584 8:-0.816093 9:-0.965001 10:-0.979507 11:-0.954384 12:-0.991637 13:-0.907599 14:-0.996081 15:-0.996821 16:-0.988538 17:-0.984864 18:-0.987806 19:-0.993909 20:-0.995262 21:-0.997722 22:-0.998535 23:-0.998983 24:-0.997411 25:-0.999305 26:-0.996919 27:-0.994716 28:-0.998989 29:-0.991603 30:-0.99394 31:-0.990292 32:-0.99363 33:-0.994035 34:-0.993613 35:-0.989316 36:-0.994693 37:-0.992068 38:-0.987401 39:-0.997584 40:-0.994466 41:-0.993591 42:-0.995154 43:-0.997383 44:-0.994537 45:-0.991928 46:-0.993106 47:-0.995939 48:-0.994365 49:-0.994356 50:-0.99524 
1.0 1:-0.512157 2:-0.840584 3:-0.863848 4:-0.759302 5:-0.656817 6:-0.935601 7:-0.922924 8:-0.85609 9:-0.967009 10:-0.969395 11:-0.983121 12:-0.972655 13:-0.956256 14:-0.974905 15:-0.953685 16:-0.954257 17:-0.917067 18:-0.881722 19:-0.96908 20:-0.973632 21:-0.888671 22:-0.960331 23:-0.906649 24:-0.853378 25:-0.98702 26:-0.980564 27:-0.946456 28:-0.97515 29:-0.910219 30:-0.878632 31:-0.633724 32:-0.883452 33:-0.88842 34:-0.888305 35:-0.790548 36:-0.825592 37:-0.484756 38:-0.605457 39:-0.892721 40:-0.792711 41:-0.862969 42:-0.870212 43:-0.804487 44:-0.784785 45:-0.800066 46:-0.782069 47:-0.853006 48:-0.848636 49:-0.784496 50:-0.877707 
1.0 1:-0.966461 2:-0.249254 3:-0.303828 4:-0.610116 5:-0.955774 6:-0.968953 7:-0.966142 8:-0.967289 9:-0.995309 10:-0.99833 11:-0.999097 12:-0.997484 13:-0.997066 14:-0.997981 15:-0.990126 16:-0.99717 17:-0.996429 18:-0.989258 19:-0.995368 20:-0.998303 21:-0.998363 22:-0.998703 23:-0.997195 24:-0.998351 25:-0.99915 26:-0.9978 27:-0.996083 28:-0.99539 29:-0.970838 30:-0.98697 31:-0.978897 32:-0.987147 33:-0.992344 34:-0.990112 35:-0.987164 36:-0.992489 37:-0.991026 38:-0.992082 39:-0.992456 40:-0.988851 41:-0.98327 42:-0.989049 43:-0.992157 44:-0.985705 45:-0.980731 46:-0.991762 47:-0.984296 48:-0.986997 49:-0.984389 50:-0.982364 
1.0 1:-0.976531 2:0.0324377 3:-0.31166 4:-0.805712 5:-0.986969 6:-0.990795 7:-0.993663 8:-0.963759 9:-0.996814 10:-0.992613 11:-0.997269 12:-0.998609 13:-0.996234 14:-0.995579 15:-0.989338 16:-0.995764 17:-0.988458 18:-0.988639 19:-0.998274 20:-0.996772 21:-0.998891 22:-0.998157 23:-0.998402 24:-0.996688 25:-0.997205 26:-0.997425 27:-0.995082 28:-0.997523 29:-0.996587 30:-0.993196 31:-0.992216 32:-0.995289 33:-0.995958 34:-0.993302 35:-0.993331 36:-0.990266 37:-0.991511 38:-0.993613 39:-0.995878 40:-0.987751 41:-0.994112 42:-0.978342 43:-0.992347 44:-0.990273 45:-0.992146 46:-0.990116 47:-0.989266 48:-0.990854 49:-0.992466 50:-0.991924 
1.0 1:-0.991154 2:-0.991449 3:-0.70757 4:-0.356965 5:-0.960737 6:-0.988203 7:-0.97635 8:-0.878076 9:-0.847822 10:-0.9943 11:-0.997572 12:-0.999668 13:-0.997089 14:-0.997586 15:-0.987682 16:-0.985091 17:-0.989394 18:-0.993018 19:-0.928599 20:-0.979836 21:-0.998766 22:-0.973773 23:-0.786567 24:-0.518829 25:-0.822509 26:-0.935855 27:-0.998262 28:-0.986952 29:-0.990033 30:-0.918452 31:-0.937422 32:-0.903849 33:-0.991204 34:-0.985559 35:-0.926251 36:-0.996749 37:-0.923902 38:-0.99356 39:-0.972441 40:-0.978677 41:-0.984821 42:-0.965985 43:-0.986461 44:-0.990978 45:-0.989482 46:-0.974359 47:-0.996468 48:-0.993787 49:-0.99392 50:-0.990179 
1.0 1:-0.59246 2:-0.648797 3:-0.890387 4:-0.809074 5:-0.775932 6:-0.963539 7:-0.563765 8:-0.817679 9:-0.959536 10:-0.983698 11:-0.98648 12:-0.96343 13:-0.943779 14:-0.980527 15:-0.94912 16:-0.909974 17:-0.923354 18:-0.916831 19:-0.97376 20:-0.972089 21:-0.986725 22:-0.979619 23:-0.967956 24:-0.988806 25:-0.990068 26:-0.976991 27:-0.967034 28:-0.973847 29:-0.910258 30:-0.916806 31:-0.888101 32:-0.921607 33:-0.930388 34:-0.907129 35:-0.847983 36:-0.79537 37:-0.863428 38:-0.880824 39:-0.940588 40:-0.914171 41:-0.915058 42:-0.897029 43:-0.876146 44:-0.865932 45:-0.878334 46:-0.875704 47:-0.905799 48:-0.834235 49:-0.895497 50:-0.886354 
1.0 1:-0.987472 2:-0.359681 3:-0.164382 4:-0.706359 5:-0.979422 6:-0.943161 7:-0.983379 8:-0.919295 9:-0.990368 10:-0.995148 11:-0.993148 12:-0.995686 13:-0.98971 14:-0.995904 15:-0.9901 16:-0.99598 17:-0.99748 18:-0.988883 19:-0.98524 20:-0.996916 21:-0.996986 22:-0.998023 23:-0.965241 24:-0.99742 25:-0.997169 26:-0.98985 27:-0.997227 28:-0.992549 29:-0.996228 30:-0.986965 31:-0.989282 32:-0.994972 33:-0.98854 34:-0.995455 35:-0.98838 36:-0.997071 37:-0.996794 38:-0.992394 39:-0.997646 40:-0.996099 41:-0.984706 42:-0.996065 43:-0.990452 44:-0.990573 45:-0.975321 46:-0.995192 47:-0.990407 48:-0.993831 49:-0.988515 50:-0.991953 
0.9742566077647441 1:-0.917648 2:-0.747657 3:-0.945683 4:0.328174 5:-0.728052 6:-0.991459 7:-0.986652 8:-0.990963 9:-0.992973 10:-0.997702 11:-0.987607 12:-0.992893 13:-0.994406 14:-0.994362 15:-0.990992 16:-0.992482 17:-0.990942 18:-0.98797 19:-0.994662 20:-0.994395 21:-0.996796 22:-0.997629 23:-0.996595 24:-0.993621 25:-0.997829 26:-0.996328 27:-0.994309 28:-0.995529 29:-0.989297 30:-0.985996 31:-0.979688 32:-0.977097 33:-0.978805 34:-0.98127 35:-0.976469 36:-0.976629 37:-0.979787 38:-0.979391 39:-0.982755 40:-0.979768 41:-0.969495 42:-0.971925 43:-0.977011 44:-0.975165 45:-0.97176 46:-0.974595 47:-0.980258 48:-0.960839 49:-0.969996 50:-0.973169 
1.0 1:-0.997247 2:-0.992381 3:-0.992733 4:-0.928356 5:-0.889495 6:-0.492492 7:0.269135 8:-0.999816 9:-0.989577 10:-0.998371 11:-0.991119 12:-0.988527 13:-0.960996 14:-0.998421 15:-0.997261 16:-0.980522 17:-0.993579 18:-0.998261 19:-0.997949 20:-0.9991 21:-0.99667 22:-0.999727 23:-0.995013 24:-0.998244 25:-0.995137 26:-0.999373 27:-0.997573 28:-0.999273 29:-0.99619 30:-0.999292 31:-0.996882 32:-0.99898 33:-0.998546 34:-0.999097 35:-0.999212 36:-0.998998 37:-0.998284 38:-0.998538 39:-0.999611 40:-0.999422 41:-0.999422 42:-0.997971 43:-0.99883 44:-0.998188 45:-0.998777 46:-0.998927 47:-0.99897 48:-0.997479 49:-0.998016 50:-0.998878 
1.0 1:-0.978693 2:0.456378 3:-0.608048 4:-0.970826 5:-0.994876 6:-0.988097 7:-0.915114 8:-0.985802 9:-0.999378 10:-0.999094 11:-0.999048 12:-0.998735 13:-0.995679 14:-0.998387 15:-0.997643 16:-0.994455 17:-0.992702 18:-0.996654 19:-0.998045 20:-0.998003 21:-0.999252 22:-0.994942 23:-0.994431 24:-0.999306 25:-0.998014 26:-0.998403 27:-0.997256 28:-0.998681 29:-0.994684 30:-0.994322 31:-0.991296 32:-0.99603 33:-0.99577 34:-0.99459 35:-0.991177 36:-0.988163 37:-0.994848 38:-0.992995 39:-0.99415 40:-0.992011 41:-0.993414 42:-0.988521 43:-0.99407 44:-0.994058 45:-0.991382 46:-0.993974 47:-0.992831 48:-0.992057 49:-0.991339 50:-0.990665 
1.0 1:-0.81345 2:-0.752628 3:-0.81238 4:-0.341812 5:-0.371624 6:-0.94631 7:-0.970009 8:-0.98484 9:-0.994904 10:-0.99258 11:-0.994641 12:-0.988113 13:-0.982986 14:-0.989901 15:-0.98317 16:-0.975772 17:-0.97919 18:-0.965293 19:-0.99089 20:-0.990631 21:-0.993242 22:-0.994696 23:-0.987872 24:-0.994186 25:-0.991567 26:-0.99203 27:-0.979411 28:-0.980699 29:-0.96255 30:-0.931474 31:-0.95486 32:-0.969761 33:-0.948618 34:-0.934918 35:-0.902377 36:-0.957549 37:-0.94298 38:-0.956205 39:-0.971943 40:-0.96504 41:-0.931281 42:-0.940144 43:-0.955531 44:-0.924552 45:-0.944603 46:-0.942568 47:-0.939776 48:-0.902932 49:-0.914951 50:-0.952341 
1.0 1:-0.964548 2:-0.719836 3:-0.65395 4:-0.270805 5:-0.82376 6:-0.955927 7:-0.89848 8:-0.813322 9:-0.961413 10:-0.993238 11:-0.9958 12:-0.989657 13:-0.986731 14:-0.995121 15:-0.944363 16:-0.944449 17:-0.952765 18:-0.908739 19:-0.982469 20:-0.989099 21:-0.994687 22:-0.990584 23:-0.993823 24:-0.991531 25:-0.997919 26:-0.995598 27:-0.994823 28:-0.99642 29:-0.989611 30:-0.986388 31:-0.971836 32:-0.987663 33:-0.982203 34:-0.984855 35:-0.987417 36:-0.985329 37:-0.978408 38:-0.985918 39:-0.993234 40:-0.989717 41:-0.987291 42:-0.983329 43:-0.98483 44:-0.986527 45:-0.984184 46:-0.985425 47:-0.991396 48:-0.984808 49:-0.986156 50:-0.977787 
1.0 1:-0.876207 2:-0.977374 3:-0.424009 4:-0.467739 5:-0.358859 6:-0.982754 7:-0.979757 8:-0.983733 9:-0.976622 10:-0.970605 11:-0.992606 12:-0.995464 13:-0.989891 14:-0.989101 15:-0.982538 16:-0.98355 17:-0.980244 18:-0.95973 19:-0.984397 20:-0.990041 21:-0.9872 22:-0.986236 23:-0.991045 24:-0.995522 25:-0.993637 26:-0.988892 27:-0.989521 28:-0.991555 29:-0.974318 30:-0.977002 31:-0.966267 32:-0.969392 33:-0.973811 34:-0.946652 35:-0.93707 36:-0.954949 37:-0.966731 38:-0.975077 39:-0.981535 40:-0.965251 41:-0.962313 42:-0.964163 43:-0.96575 44:-0.932137 45:-0.946893 46:-0.96949 47:-0.960365 48:-0.934285 49:-0.965741 50:-0.959454 
1.0 1:-0.15398 2:-0.98167 3:-0.655811 4:-0.705481 5:-0.899929 6:-0.875811 7:-0.97682 8:-0.951118 9:-0.975535 10:-0.980165 11:-0.963589 12:-0.95484 13:-0.942454 14:-0.962201 15:-0.916202 16:-0.919854 17:-0.827887 18:-0.823489 19:-0.89935 20:-0.911025 21:-0.972186 22:-0.968853 23:-0.928261 24:-0.963669 25:-0.934623 26:-0.967558 27:-0.876489 28:-0.925749 29:-0.848023 30:-0.838829 31:-0.585593 32:-0.848096 33:-0.803767 34:-0.692778 35:-0.752075 36:-0.789289 37:-0.687264 38:-0.789156 39:-0.904907 40:-0.802659 41:-0.559771 42:-0.693111 43:-0.684441 44:-0.687412 45:-0.719219 46:-0.762908 47:-0.642522 48:-0.641685 49:-0.778248 50:-0.525111 
1.0 1:-0.993566 2:-0.998098 3:-0.973087 4:-0.744584 5:-0.692197 6:-0.794986 7:-0.981263 8:-0.998474 9:-0.971644 10:-0.877113 11:-0.157619 12:-0.609644 13:-0.818049 14:-0.977964 15:-0.955399 16:-0.978018 17:-0.986892 18:-0.979581 19:-0.997209 20:-0.998343 21:-0.997347 22:-0.967113 23:-0.993056 24:-0.997415 25:-0.999389 26:-0.998761 27:-0.99859 28:-0.998263 29:-0.998073 30:-0.997525 31:-0.992325 32:-0.996828 33:-0.995668 34:-0.992319 35:-0.996183 36:-0.996841 37:-0.996289 38:-0.995262 39:-0.998711 40:-0.994772 41:-0.992799 42:-0.986905 43:-0.992995 44:-0.99764 45:-0.996495 46:-0.998446 47:-0.996677 48:-0.997208 49:-0.996851 50:-0.998328 
1.0 1:-0.874809 2:-0.888214 3:-0.267651 4:-0.513945 5:-0.554271 6:-0.988179 7:-0.984777 8:-0.946078 9:-0.990324 10:-0.990614 11:-0.995264 12:-0.989283 13:-0.977005 14:-0.990622 15:-0.967953 16:-0.972973 17:-0.959338 18:-0.981981 19:-0.991158 20:-0.994075 21:-0.993064 22:-0.996177 23:-0.992147 24:-0.994514 25:-0.996341 26:-0.993767 27:-0.992271 28:-0.988831 29:-0.95748 30:-0.952877 31:-0.92228 32:-0.977675 33:-0.968549 34:-0.950771 35:-0.948271 36:-0.966858 37:-0.952346 38:-0.971361 39:-0.97993 40:-0.977914 41:-0.97069 42:-0.964078 43:-0.951322 44:-0.961071 45:-0.964508 46:-0.957208 47:-0.971345 48:-0.921401 49:-0.954302 50:-0.965134 
1.0 1:-0.933911 2:-0.602922 3:-0.467849 4:-0.768525 5:-0.853116 6:-0.918861 7:-0.467917 8:-0.9788 9:-0.997865 10:-0.997884 11:-0.99707 12:-0.997187 13:-0.994572 14:-0.993058 15:-0.991408 16:-0.992469 17:-0.97307 18:-0.992021 19:-0.996334 20:-0.996151 21:-0.996662 22:-0.996543 23:-0.997516 24:-0.993883 25:-0.995638 26:-0.995502 27:-0.992288 28:-0.995258 29:-0.985552 30:-0.98298 31:-0.973529 32:-0.984745 33:-0.988248 34:-0.982683 35:-0.972299 36:-0.959479 37:-0.981678 38:-0.97598 39:-0.984353 40:-0.97884 41:-0.955039 42:-0.964179 43:-0.964255 44:-0.975266 45:-0.969938 46:-0.983649 47:-0.981789 48:-0.963873 49:-0.981275 50:-0.981714 
-1.0 1:-0.429906 2:-0.569604 3:-0.153327 4:-0.987997 5:-0.963614 6:-0.986212 7:-0.987257 8:-0.980726 9:-0.967374 10:-0.975953 11:-0.986534 12:-0.985677 13:-0.957973 14:-0.97113 15:-0.955647 16:-0.954769 17:-0.932283 18:-0.937173 19:-0.95867 20:-0.961357 21:-0.984571 22:-0.98003 23:-0.973158 24:-0.984287 25:-0.976048 26:-0.968294 27:-0.946953 28:-0.973413 29:-0.852936 30:-0.785277 31:-0.824331 32:-0.909351 33:-0.887347 34:-0.844299 35:-0.831954 36:-0.842071 37:-0.796418 38:-0.741594 39:-0.862432 40:-0.810957 41:-0.811123 42:-0.750222 43:-0.770779 44:-0.784358 45:-0.661962 46:-0.855205 47:-0.816008 48:-0.81392 49:-0.812319 50:-0.811117 
-1.0 1:0.0541757 2:-0.536708 3:-0.932161 4:-0.975129 5:-0.968342 6:-0.952091 7:-0.968373 8:-0.97657 9:-0.977752 10:-0.972194 11:-0.958715 12:-0.93481 13:-0.933511 14:-0.920589 15:-0.917332 16:-0.889542 17:-0.872874 18:-0.799391 19:-0.919927 20:-0.903305 21:-0.960185 22:-0.901653 23:-0.912574 24:-0.943813 25:-0.934273 26:-0.951025 27:-0.936072 28:-0.950963 29:-0.6301 30:-0.627988 31:-0.743738 32:-0.783904 33:-0.738303 34:-0.687523 35:0.102073 36:-0.764789 37:-0.682178 38:-0.646391 39:-0.864313 40:-0.718266 41:-0.710899 42:-0.469004 43:-0.618138 44:-0.636224 45:-0.657074 46:-0.732053 47:-0.617165 48:-0.660986 49:-0.665991 50:-0.7355 
-1.0 1:-0.0132896 2:-0.876672 3:-0.916091 4:-0.977183 5:-0.97175 6:-0.979289 7:-0.949462 8:-0.960822 9:-0.977492 10:-0.907222 11:-0.933062 12:-0.956024 13:-0.91025 14:-0.902655 15:-0.857447 16:-0.934917 17:-0.886624 18:-0.624427 19:-0.951962 20:-0.953642 21:-0.971331 22:-0.889175 23:-0.858004 24:-0.88565 25:-0.903391 26:-0.697348 27:-0.582288 28:-0.790896 29:-0.768244 30:-0.669214 31:-0.699586 32:-0.845885 33:-0.763699 34:-0.75653 35:-0.615081 36:-0.78024 37:-0.687047 38:-0.665757 39:-0.886256 40:-0.68176 41:-0.790665 42:-0.613132 43:-0.770214 44:-0.71774 45:-0.700857 46:-0.728133 47:-0.767046 48:-0.596725 49:-0.700393 50:-0.639663 
-1.0 1:0.0207585 2:-0.625947 3:-0.893631 4:-0.850185 5:-0.899469 6:-0.973023 7:-0.955859 8:-0.96357 9:-0.954434 10:-0.976025 11:-0.958389 12:-0.972988 13:-0.841497 14:-0.954724 15:-0.916617 16:-0.913783 17:-0.871434 18:-0.697034 19:-0.931551 20:-0.902618 21:-0.951196 22:-0.946003 23:-0.940711 24:-0.963958 25:-0.969104 26:-0.901353 27:-0.934119 28:-0.952495 29:-0.845937 30:-0.710444 31:-0.491687 32:-0.845037 33:-0.682367 34:-0.752054 35:-0.650621 36:-0.722954 37:-0.716083 38:-0.710888 39:-0.821854 40:-0.765444 41:-0.612975 42:-0.723481 43:-0.702887 44:-0.718451 45:-0.667219 46:-0.731996 47:-0.738001 48:-0.536131 49:-0.614487 50:-0.714837 
-1.0 1:-0.313966 2:-0.235905 3:-0.761972 4:-0.907105 5:-0.94139 6:-0.977348 7:-0.95068 8:-0.943745 9:-0.972107 10:-0.968738 11:-0.97636 12:-0.971867 13:-0.911194 14:-0.966248 15:-0.946141 16:-0.934666 17:-0.908413 18:-0.838989 19:-0.964163 20:-0.960656 21:-0.979591 22:-0.978373 23:-0.965195 24:-0.97201 25:-0.981205 26:-0.971261 27:-0.953076 28:-0.966758 29:-0.860907 30:-0.871327 31:-0.723503 32:-0.888016 33:-0.764743 34:-0.847773 35:-0.808997 36:-0.74374 37:-0.815468 38:-0.78696 39:-0.921025 40:-0.878421 41:-0.852012 42:-0.812801 43:-0.808336 44:-0.676785 45:-0.719822 46:-0.773892 47:-0.809947 48:-0.637938 49:-0.793628 50:-0.79796 
-1.0 1:0.0546563 2:-0.864515 3:-0.941155 4:-0.916058 5:-0.600081 6:-0.966733 7:-0.900651 8:-0.928754 9:-0.939975 10:-0.954432 11:-0.970424 12:-0.960332 13:-0.917576 14:-0.899472 15:-0.839696 16:-0.906193 17:-0.872813 18:-0.839429 19:-0.94501 20:-0.932738 21:-0.971481 22:-0.949496 23:-0.94572 24:-0.963746 25:-0.974971 26:-0.931477 27:-0.903562 28:-0.942887 29:-0.866053 30:-0.77213 31:-0.618257 32:-0.848337 33:-0.704741 34:-0.683579 35:-0.655512 36:-0.76875 37:-0.658419 38:-0.757938 39:-0.853155 40:-0.803619 41:-0.666312 42:-0.599181 43:-0.658818 44:-0.687212 45:-0.697194 46:-0.738958 47:-0.678692 48:-0.64637 49:-0.656474 50:-0.690735 
-1.0 1:-0.989642 2:-0.966526 3:-0.899025 4:-0.961247 5:0.042119 6:-0.522407 7:-0.93484 8:-0.920598 9:-0.85987 10:-0.990958 11:-0.988056 12:-0.990568 13:-0.989725 14:-0.989291 15:-0.989956 16:-0.998362 17:-0.994055 18:-0.995648 19:-0.998823 20:-0.998356 21:-0.989395 22:-0.997661 23:-0.999129 24:-0.996518 25:-0.997289 26:-0.996934 27:-0.996927 28:-0.998832 29:-0.994333 30:-0.994535 31:-0.988884 32:-0.995056 33:-0.997002 34:-0.995826 35:-0.995698 36:-0.992615 37:-0.993098 38:-0.996304 39:-0.99831 40:-0.997177 41:-0.993816 42:-0.989185 43:-0.993585 44:-0.993743 45:-0.993757 46:-0.994554 47:-0.997249 48:-0.993932 49:-0.995832 50:-0.995991 
-1.0 1:-0.537418 2:-0.440484 3:-0.639408 4:-0.51697 5:-0.967781 6:-0.962527 7:-0.988314 8:-0.980884 9:-0.990741 10:-0.978485 11:-0.979197 12:-0.987932 13:-0.962464 14:-0.970119 15:-0.94988 16:-0.936501 17:-0.934156 18:-0.886026 19:-0.91129 20:-0.976756 21:-0.968955 22:-0.973171 23:-0.982565 24:-0.987151 25:-0.984575 26:-0.963004 27:-0.972218 28:-0.968962 29:-0.916625 30:-0.921691 31:-0.887244 32:-0.929064 33:-0.923995 34:-0.898749 35:-0.83925 36:-0.902932 37:-0.880689 38:-0.908048 39:-0.924814 40:-0.83639 41:-0.88946 42:-0.860668 43:-0.866686 44:-0.850158 45:-0.819076 46:-0.850528 47:-0.874369 48:-0.836389 49:-0.8598 50:-0.849865 
-1.0 1:-0.692262 2:-0.801385 3:0.225889 4:-0.850372 5:-0.966457 6:-0.974396 7:-0.991463 8:-0.99208 9:-0.988528 10:-0.989201 11:-0.991884 12:-0.991748 13:-0.977677 14:-0.983549 15:-0.95835 16:-0.973658 17:-0.888986 18:-0.956193 19:-0.926761 20:-0.974667 21:-0.991511 22:-0.978204 23:-0.966937 24:-0.989779 25:-0.9837 26:-0.976854 27:-0.972566 28:-0.975029 29:-0.906852 30:-0.937642 31:-0.8648 32:-0.936657 33:-0.947286 34:-0.930832 35:-0.900388 36:-0.919767 37:-0.886124 38:-0.939739 39:-0.96313 40:-0.925114 41:-0.936917 42:-0.919807 43:-0.93053 44:-0.903433 45:-0.889263 46:-0.92154 47:-0.927938 48:-0.875527 49:-0.915513 50:-0.92012 
-1.0 1:-0.963194 2:-0.103385 3:-0.697957 4:-0.774299 5:-0.797127 6:-0.951854 7:-0.941364 8:-0.945637 9:-0.960708 10:-0.979823 11:-0.983901 12:-0.987607 13:-0.969266 14:-0.987283 15:-0.983328 16:-0.971439 17:-0.965314 18:-0.95795 19:-0.981184 20:-0.986053 21:-0.994051 22:-0.987822 23:-0.967319 24:-0.988359 25:-0.988967 26:-0.978059 27:-0.974369 28:-0.989374 29:-0.980864 30:-0.950096 31:-0.983776 32:-0.987359 33:-0.982303 34:-0.975117 35:-0.971781 36:-0.991878 37:-0.958769 38:-0.970291 39:-0.99379 40:-0.965232 41:-0.94024 42:-0.982073 43:-0.969315 44:-0.985962 45:-0.987393 46:-0.99089 47:-0.979864 48:-0.978903 49:-0.980364 50:-0.985499 
-1.0 1:0.019033 2:-0.900006 3:-0.514749 4:-0.87714 5:-0.890442 6:-0.978847 7:-0.981057 8:-0.965432 9:-0.972578 10:-0.953218 11:-0.972041 12:-0.97278 13:-0.86938 14:-0.952339 15:-0.903387 16:-0.886177 17:-0.842163 18:-0.802734 19:-0.921965 20:-0.947953 21:-0.947386 22:-0.938303 23:-0.953471 24:-0.949924 25:-0.976503 26:-0.927885 27:-0.936789 28:-0.953344 29:-0.868023 30:-0.751269 31:-0.744902 32:-0.811289 33:-0.823846 34:-0.765644 35:-0.526794 36:-0.436123 37:-0.645315 38:-0.789383 39:-0.780791 40:-0.813919 41:-0.753733 42:-0.719707 43:-0.733792 44:-0.652185 45:-0.708584 46:-0.726277 47:-0.732955 48:-0.442279 49:-0.591242 50:-0.673682 
-1.0 1:-0.942475 2:-0.973275 3:-0.77741 4:-0.521493 5:-0.236439 6:-0.919131 7:-0.905962 8:-0.975813 9:-0.99769 10:-0.994591 11:-0.977488 12:-0.931774 13:-0.614715 14:-0.994317 15:-0.978525 16:-0.988709 17:-0.984855 18:-0.987235 19:-0.993987 20:-0.9937 21:-0.997289 22:-0.997206 23:-0.995315 24:-0.969248 25:-0.960286 26:-0.9923 27:-0.996328 28:-0.990365 29:-0.988222 30:-0.970486 31:-0.976095 32:-0.98869 33:-0.988299 34:-0.943528 35:-0.893727 36:-0.957572 37:-0.942785 38:-0.981515 39:-0.939434 40:-0.985967 41:-0.984203 42:-0.983315 43:-0.977385 44:-0.980926 45:-0.983922 46:-0.985696 47:-0.970296 48:-0.978607 49:-0.98068 50:-0.981362 
-1.0 1:-0.354983 2:-0.960554 3:-0.870063 4:-0.368748 5:-0.501188 6:-0.967596 7:-0.960788 8:-0.944461 9:-0.983513 10:-0.981221 11:-0.981782 12:-0.984081 13:-0.961146 14:-0.971307 15:-0.946474 16:-0.944868 17:-0.920369 18:-0.907613 19:-0.968439 20:-0.969452 21:-0.980635 22:-0.981639 23:-0.974818 24:-0.981089 25:-0.98025 26:-0.972245 27:-0.959093 28:-0.967546 29:-0.900563 30:-0.824202 31:-0.843315 32:-0.899607 33:-0.880982 34:-0.848809 35:-0.728743 36:-0.856354 37:-0.836333 38:-0.862313 39:-0.916632 40:-0.867432 41:-0.84211 42:-0.649608 43:-0.836541 44:-0.80936 45:-0.801637 46:-0.786623 47:-0.807206 48:-0.765991 49:-0.748785 50:-0.836509 
-1.0 1:-0.939349 2:0.592338 3:-0.840389 4:-0.91678 5:-0.963375 6:-0.971515 7:-0.987635 8:-0.990023 9:-0.989648 10:-0.98976 11:-0.992167 12:-0.992949 13:-0.988603 14:-0.99496 15:-0.990947 16:-0.989037 17:-0.975246 18:-0.977439 19:-0.995846 20:-0.996199 21:-0.996891 22:-0.997722 23:-0.99392 24:-0.995046 25:-0.99768 26:-0.994534 27:-0.993766 28:-0.996972 29:-0.981314 30:-0.980118 31:-0.983018 32:-0.990015 33:-0.988637 34:-0.974683 35:-0.982281 36:-0.987004 37:-0.970518 38:-0.985044 39:-0.992536 40:-0.986888 41:-0.984312 42:-0.984048 43:-0.981486 44:-0.983577 45:-0.963155 46:-0.97847 47:-0.984257 48:-0.981062 49:-0.969678 50:-0.973539 
