svm_type c_svc
kernel_type sigmoid
gamma 0.02
coef0 0.0
nr_class 2
total_sv 412
rho 3.12636912460432
label 2 3
nr_sv 206 206
SV
1.0 1:-0.970743 2:0.75899 3:-0.847865 4:-0.941988 5:-0.989803 6:-0.996826 7:-0.999454 8:-0.999068 9:-0.999111 10:-0.994121 11:-0.995299 12:-0.996735 13:-0.99558 14:-0.997554 15:-0.997647 16:-0.997984 17:-0.996318 18:-0.996314 19:-0.99749 20:-0.997215 21:-0.998373 22:-0.999051 23:-0.998176 24:-0.998895 25:-0.999056 26:-0.997705 27:-0.998065 28:-0.997054 29:-0.994154 30:-0.995173 31:-0.986559 32:-0.995242 33:-0.9923 34:-0.988827 35:-0.990454 36:-0.991289 37:-0.991159 38:-0.988303 39:-0.996301 40:-0.992232 41:-0.986564 42:-0.990171 43:-0.990401 44:-0.990058 45:-0.988593 46:-0.986796 47:-0.990765 48:-0.980414 49:-0.988396 50:-0.991493 
1.0 1:-0.801883 2:-0.665424 3:-0.41306 4:-0.24097 5:-0.944784 6:-0.965508 7:-0.960024 8:-0.994575 9:-0.971878 10:-0.9915 11:-0.993106 12:-0.992808 13:-0.981092 14:-0.991291 15:-0.985551 16:-0.981543 17:-0.973086 18:-0.970242 19:-0.979013 20:-0.991182 21:-0.993219 22:-0.992899 23:-0.992902 24:-0.993978 25:-0.994015 26:-0.992214 27:-0.985386 28:-0.989897 29:-0.966844 30:-0.966341 31:-0.953054 32:-0.971642 33:-0.963561 34:-0.948619 35:-0.936261 36:-0.951272 37:-0.94616 38:-0.945623 39:-0.97152 40:-0.951039 41:-0.952849 42:-0.927831 43:-0.954885 44:-0.930636 45:-0.935037 46:-0.944318 47:-0.92565 48:-0.936011 49:-0.945741 50:-0.933632 
1.0 1:-0.200473 2:-0.935956 3:-0.221979 4:-0.848287 5:-0.871429 6:-0.95204 7:-0.978806 8:-0.973106 9:-0.960188 10:-0.971322 11:-0.981453 12:-0.98017 13:-0.947926 14:-0.964774 15:-0.937861 16:-0.945616 17:-0.91177 18:-0.906289 19:-0.954776 20:-0.964448 21:-0.978003 22:-0.970565 23:-0.972167 24:-0.975697 25:-0.97753 26:-0.937715 27:-0.949926 28:-0.96103 29:-0.856548 30:-0.77448 31:-0.662177 32:-0.850359 33:-0.835941 34:-0.728566 35:-0.6774 36:-0.757032 37:-0.751218 38:-0.807088 39:-0.900402 40:-0.830616 41:-0.833241 42:-0.76931 43:-0.746984 44:-0.752471 45:-0.682205 46:-0.704834 47:-0.793237 48:-0.733178 49:-0.693128 50:-0.744094 
1.0 1:0.815304 2:-0.960867 3:-0.937155 4:-0.954584 5:-0.956277 6:-0.961655 7:-0.958261 8:-0.960081 9:-0.962645 10:-0.952854 11:-0.942317 12:-0.945282 13:-0.867188 14:-0.907979 15:-0.861224 16:-0.869298 17:-0.806233 18:-0.777823 19:-0.909571 20:-0.895974 21:-0.945039 22:-0.945356 23:-0.936519 24:-0.949249 25:-0.947134 26:-0.927748 27:-0.876194 28:-0.887451 29:-0.764852 30:-0.618923 31:-0.58734 32:-0.699377 33:-0.639828 34:-0.528497 35:-0.473407 36:-0.392449 37:-0.131019 38:-0.640108 39:-0.614123 40:-0.622058 41:-0.584303 42:-0.514637 43:-0.583691 44:-0.47259 45:-0.463909 46:-0.295201 47:-0.516443 48:-0.280713 49:-0.47326 50:-0.444558 
1.0 1:0.305684 2:-0.833355 3:-0.708648 4:-0.93527 5:-0.961247 6:-0.973641 7:-0.969718 8:-0.961639 9:-0.95996 10:-0.956881 11:-0.963685 12:-0.966338 13:-0.897785 14:-0.881491 15:-0.897899 16:-0.88455 17:-0.734085 18:-0.808074 19:-0.934136 20:-0.923256 21:-0.929642 22:-0.947891 23:-0.953036 24:-0.961367 25:-0.964705 26:-0.940765 27:-0.918373 28:-0.933773 29:-0.817294 30:-0.700178 31:-0.441273 32:-0.749924 33:-0.731105 34:-0.684115 35:-0.596475 36:-0.698573 37:-0.485906 38:-0.686182 39:-0.847818 40:-0.732135 41:-0.70069 42:-0.66236 43:-0.695129 44:-0.466464 45:-0.491317 46:-0.58483 47:-0.682624 48:-0.279878 49:-0.317671 50:-0.560101 
1.0 1:-0.675715 2:-0.472075 3:-0.372832 4:-0.818813 5:-0.877929 6:-0.948047 7:-0.961164 8:-0.988585 9:-0.969408 10:-0.980697 11:-0.959852 12:-0.979666 13:-0.944337 14:-0.949641 15:-0.953284 16:-0.973738 17:-0.939639 18:-0.88221 19:-0.979183 20:-0.970704 21:-0.983644 22:-0.971449 23:-0.983862 24:-0.984665 25:-0.98758 26:-0.987552 27:-0.978682 28:-0.977747 29:-0.954131 30:-0.885896 31:-0.896627 32:-0.94933 33:-0.877826 34:-0.926999 35:-0.905327 36:-0.909672 37:-0.873364 38:-0.895812 39:-0.956393 40:-0.940895 41:-0.920272 42:-0.896801 43:-0.915504 44:-0.900172 45:-0.850349 46:-0.897618 47:-0.890387 48:-0.872385 49:-0.894567 50:-0.856569 
0.3219047364567448 1:-0.988889 2:-0.936661 3:-0.695054 4:-0.901899 5:-0.970787 6:-0.960319 7:-0.947848 8:-0.166124 9:-0.970945 10:-0.295751 11:-0.99351 12:-0.99279 13:-0.989992 14:-0.97342 15:-0.993439 16:-0.99322 17:-0.99458 18:-0.995551 19:-0.994648 20:-0.998691 21:-0.999095 22:-0.999062 23:-0.999493 24:-0.994921 25:-0.997276 26:-0.999229 27:-0.996097 28:-0.999208 29:-0.989385 30:-0.993364 31:-0.996684 32:-0.994644 33:-0.988907 34:-0.989563 35:-0.996036 36:-0.995397 37:-0.991177 38:-0.996601 39:-0.996148 40:-0.99742 41:-0.995476 42:-0.997204 43:-0.990604 44:-0.994612 45:-0.992976 46:-0.99301 47:-0.950205 48:-0.9714 49:-0.995963 50:-0.995325 
1.0 1:0.638585 2:-0.903059 3:-0.936363 4:-0.950271 5:-0.955094 6:-0.967588 7:-0.953303 8:-0.961416 9:-0.959078 10:-0.96012 11:-0.957824 12:-0.956794 13:-0.817 14:-0.899984 15:-0.871763 16:-0.879296 17:-0.763972 18:-0.822879 19:-0.924378 20:-0.886422 21:-0.955782 22:-0.94069 23:-0.939951 24:-0.929512 25:-0.955705 26:-0.925861 27:-0.893156 28:-0.913831 29:-0.769515 30:-0.669721 31:-0.569973 32:-0.759174 33:-0.714878 34:-0.62638 35:-0.210155 36:-0.590294 37:-0.504802 38:-0.489412 39:-0.807642 40:-0.620033 41:-0.544134 42:-0.567659 43:0.16551 44:-0.545024 45:-0.380739 46:-0.587351 47:-0.467615 48:-0.348603 49:-0.273877 50:-0.574179 
1.0 1:-0.318366 2:-0.855154 3:-0.762649 4:-0.910393 5:-0.794349 6:-0.786953 7:-0.981798 8:-0.683859 9:-0.912335 10:-0.882531 11:-0.983924 12:-0.977647 13:-0.950332 14:-0.968157 15:-0.935741 16:-0.932478 17:-0.914808 18:-0.925206 19:-0.965602 20:-0.970196 21:-0.982057 22:-0.961328 23:-0.974933 24:-0.970933 25:-0.984594 26:-0.973089 27:-0.939292 28:-0.966283 29:-0.908315 30:-0.819595 31:-0.75418 32:-0.88263 33:-0.862227 34:-0.850702 35:-0.777371 36:-0.851014 37:-0.810234 38:-0.866771 39:-0.883629 40:-0.862439 41:-0.862154 42:-0.813042 43:-0.713131 44:-0.749132 45:-0.629934 46:-0.809319 47:-0.77906 48:-0.742635 49:-0.804458 50:-0.814054 
1.0 1:-0.766141 2:-0.488033 3:0.130686 4:-0.895345 5:-0.989859 6:-0.993423 7:-0.991652 8:-0.994777 9:-0.993616 10:-0.993711 11:-0.994272 12:-0.990051 13:-0.97944 14:-0.988092 15:-0.938531 16:-0.972405 17:-0.971349 18:-0.965674 19:-0.987554 20:-0.989512 21:-0.99172 22:-0.989265 23:-0.991305 24:-0.988892 25:-0.994289 26:-0.98911 27:-0.985952 28:-0.985763 29:-0.968674 30:-0.93725 31:-0.924532 32:-0.964498 33:-0.95234 34:-0.899741 35:-0.934205 36:-0.934017 37:-0.914301 38:-0.945264 39:-0.971561 40:-0.954663 41:-0.945676 42:-0.936031 43:-0.929677 44:-0.922673 45:-0.911588 46:-0.933617 47:-0.894475 48:-0.908489 49:-0.91291 50:-0.924566 
1.0 1:-0.939066 2:-0.912485 3:-0.964533 4:-0.990327 5:-0.886175 6:-0.14506 7:-0.877294 8:-0.938576 9:-0.423941 10:-0.99075 11:-0.991399 12:-0.833432 13:-0.996472 14:-0.993617 15:-0.993538 16:-0.986928 17:-0.989126 18:-0.987676 19:-0.994453 20:-0.996667 21:-0.998074 22:-0.997742 23:-0.99555 24:-0.997407 25:-0.998574 26:-0.995166 27:-0.992415 28:-0.996992 29:-0.988717 30:-0.987346 31:-0.972677 32:-0.989583 33:-0.989141 34:-0.983572 35:-0.97342 36:-0.980088 37:-0.976922 38:-0.970301 39:-0.991886 40:-0.986524 41:-0.985281 42:-0.970009 43:-0.966786 44:-0.974846 45:-0.982834 46:-0.981029 47:-0.983299 48:-0.979323 49:-0.983704 50:-0.980992 
1.0 1:-0.0403905 2:-0.481875 3:-0.883235 4:-0.811769 5:-0.945681 6:-0.970715 7:-0.979179 8:-0.979285 9:-0.976466 10:-0.973851 11:-0.975505 12:-0.971083 13:-0.944219 14:-0.917723 15:-0.885491 16:-0.915299 17:-0.899093 18:-0.888943 19:-0.93371 20:-0.939124 21:-0.921907 22:-0.971577 23:-0.949881 24:-0.970435 25:-0.97093 26:-0.951828 27:-0.930277 28:-0.911385 29:-0.878508 30:-0.799141 31:-0.742987 32:-0.774069 33:-0.774435 34:-0.598938 35:-0.548613 36:-0.799529 37:-0.584171 38:-0.776259 39:-0.830311 40:-0.777555 41:-0.758383 42:-0.658281 43:-0.737033 44:-0.534203 45:-0.587039 46:-0.719892 47:-0.545975 48:-0.435114 49:-0.672787 50:-0.767167 
1.0 1:0.261528 2:-0.489429 3:-0.92145 4:-0.955189 5:-0.976293 6:-0.970164 7:-0.974814 8:-0.937163 9:-0.973601 10:-0.922406 11:-0.962789 12:-0.953635 13:-0.905428 14:-0.939838 15:-0.901176 16:-0.911607 17:-0.823223 18:-0.787715 19:-0.907842 20:-0.940699 21:-0.964903 22:-0.962835 23:-0.948442 24:-0.965219 25:-0.967404 26:-0.948781 27:-0.906374 28:-0.9421 29:-0.825578 30:-0.681566 31:-0.713668 32:-0.746899 33:-0.785067 34:-0.620284 35:-0.584747 36:-0.63023 37:-0.687838 38:-0.643253 39:-0.854153 40:-0.714008 41:-0.639714 42:-0.642232 43:-0.645507 44:-0.646085 45:-0.624264 46:-0.652479 47:-0.56562 48:-0.397934 49:-0.674981 50:-0.469218 
1.0 1:0.34901 2:-0.638866 3:-0.962081 4:-0.844892 5:-0.94871 6:-0.962428 7:-0.964065 8:-0.971982 9:-0.973079 10:-0.964377 11:-0.958675 12:-0.95653 13:-0.921209 14:-0.938474 15:-0.892852 16:-0.892929 17:-0.802023 18:-0.775684 19:-0.930979 20:-0.929756 21:-0.962452 22:-0.954106 23:-0.946242 24:-0.963238 25:-0.9681 26:-0.948124 27:-0.895722 28:-0.93263 29:-0.821682 30:-0.77832 31:-0.68731 32:-0.684645 33:-0.779598 34:-0.671673 35:-0.155858 36:-0.612149 37:-0.488928 38:-0.615917 39:-0.831534 40:-0.758224 41:-0.724807 42:-0.624562 43:-0.407818 44:-0.627924 45:-0.618709 46:-0.118942 47:-0.689386 48:-0.502922 49:-0.58956 50:-0.616641 
1.0 1:-0.751213 2:0.23386 3:-0.732201 4:-0.833929 5:-0.970131 6:-0.983201 7:-0.994664 8:-0.99284 9:-0.989023 10:-0.99219 11:-0.967143 12:-0.986305 13:-0.984924 14:-0.97754 15:-0.957039 16:-0.971328 17:-0.967895 18:-0.95862 19:-0.987863 20:-0.987375 21:-0.992303 22:-0.985934 23:-0.989532 24:-0.977431 25:-0.994371 26:-0.989938 27:-0.983052 28:-0.983796 29:-0.956632 30:-0.943023 31:-0.931198 32:-0.953127 33:-0.951316 34:-0.944226 35:-0.916599 36:-0.896456 37:-0.933399 38:-0.930998 39:-0.948594 40:-0.953078 41:-0.93818 42:-0.934574 43:-0.943422 44:-0.881713 45:-0.920193 46:-0.938785 47:-0.915622 48:-0.850155 49:-0.932391 50:-0.936227 
1.0 1:-0.577529 2:-0.562785 3:-0.281841 4:-0.759088 5:-0.937613 6:-0.988688 7:-0.978487 8:-0.948148 9:-0.972787 10:-0.962111 11:-0.971186 12:-0.985286 13:-0.9617 14:-0.976744 15:-0.963509 16:-0.956876 17:-0.951093 18:-0.94987 19:-0.97362 20:-0.981193 21:-0.986696 22:-0.983628 23:-0.984065 24:-0.986782 25:-0.982026 26:-0.982299 27:-0.965621 28:-0.954244 29:-0.927852 30:-0.926908 31:-0.904772 32:-0.919363 33:-0.890043 34:-0.827506 35:-0.83553 36:-0.889502 37:-0.822716 38:-0.881492 39:-0.941271 40:-0.919053 41:-0.895283 42:-0.880167 43:-0.868289 44:-0.875831 45:-0.839305 46:-0.870612 47:-0.897614 48:-0.859432 49:-0.816007 50:-0.892266 
1.0 1:-0.0497652 2:-0.715175 3:-0.798368 4:-0.796077 5:-0.977724 6:-0.92768 7:-0.938755 8:-0.956573 9:-0.951086 10:-0.963761 11:-0.9773 12:-0.967942 13:-0.910471 14:-0.859892 15:-0.901645 16:-0.928785 17:-0.638718 18:-0.885201 19:-0.955112 20:-0.933498 21:-0.969649 22:-0.940935 23:-0.956842 24:-0.971098 25:-0.977066 26:-0.94845 27:-0.912907 28:-0.905814 29:-0.844366 30:-0.783877 31:-0.777795 32:-0.681668 33:-0.817941 34:-0.77094 35:-0.585234 36:-0.767415 37:-0.423857 38:-0.812313 39:-0.887217 40:-0.726254 41:-0.742772 42:-0.723534 43:-0.590556 44:-0.633848 45:-0.67618 46:-0.769635 47:-0.723881 48:-0.701428 49:-0.702188 50:-0.629441 
1.0 1:-0.0672986 2:-0.604218 3:-0.70786 4:-0.967763 5:-0.881353 6:-0.967915 7:-0.968112 8:-0.981569 9:-0.972238 10:-0.950929 11:-0.978322 12:-0.961671 13:-0.780411 14:-0.912271 15:-0.905016 16:-0.921165 17:-0.712785 18:-0.885842 19:-0.944492 20:-0.934241 21:-0.975553 22:-0.946383 23:-0.949979 24:-0.952679 25:-0.972072 26:-0.96363 27:-0.930633 28:-0.908803 29:-0.850449 30:-0.804833 31:-0.725173 32:-0.750068 33:-0.797911 34:-0.784207 35:-0.59122 36:-0.733833 37:-0.676347 38:-0.783671 39:-0.89513 40:-0.832672 41:-0.786019 42:-0.735129 43:-0.709797 44:-0.438545 45:-0.717863 46:-0.75365 47:-0.750136 48:-0.609489 49:-0.609423 50:-0.774872 
1.0 1:-0.589775 2:-0.810987 3:0.269408 4:-0.975385 5:-0.89353 6:-0.981541 7:-0.978008 8:-0.986688 9:-0.988464 10:-0.987845 11:-0.983095 12:-0.9857 13:-0.974157 14:-0.978611 15:-0.962054 16:-0.970005 17:-0.957533 18:-0.953311 19:-0.979042 20:-0.981233 21:-0.987374 22:-0.984858 23:-0.981237 24:-0.987533 25:-0.988913 26:-0.982927 27:-0.969707 28:-0.980639 29:-0.920623 30:-0.930033 31:-0.905059 32:-0.937565 33:-0.904441 34:-0.91019 35:-0.865247 36:-0.914191 37:-0.900884 38:-0.916353 39:-0.950686 40:-0.917436 41:-0.857829 42:-0.89514 43:-0.873477 44:-0.879071 45:-0.878334 46:-0.884522 47:-0.900029 48:-0.834479 49:-0.882869 50:-0.850681 
1.0 1:-0.922165 2:-0.963054 3:-0.526947 4:-0.890651 5:-0.949649 6:-0.846466 7:-0.928455 8:-0.544372 9:-0.398882 10:-0.984876 11:-0.960178 12:-0.994834 13:-0.992876 14:-0.996074 15:-0.983061 16:-0.975808 17:-0.9865 18:-0.985302 19:-0.994137 20:-0.993013 21:-0.997538 22:-0.995533 23:-0.995511 24:-0.997608 25:-0.997895 26:-0.99645 27:-0.994666 28:-0.995042 29:-0.985573 30:-0.986042 31:-0.979392 32:-0.985915 33:-0.981778 34:-0.97221 35:-0.978305 36:-0.973039 37:-0.957186 38:-0.97768 39:-0.98873 40:-0.98147 41:-0.97312 42:-0.976452 43:-0.977649 44:-0.970531 45:-0.967894 46:-0.950421 47:-0.965637 48:-0.973434 49:-0.977326 50:-0.98108 
1.0 1:-0.979104 2:-0.969684 3:-0.976504 4:-0.973426 5:-0.771512 6:-0.940403 7:0.13727 8:-0.938681 9:-0.606542 10:-0.955831 11:-0.99036 12:-0.965644 13:-0.990916 14:-0.993721 15:-0.99686 16:-0.996915 17:-0.981264 18:-0.994685 19:-0.997485 20:-0.997648 21:-0.998781 22:-0.997978 23:-0.998505 24:-0.999328 25:-0.999534 26:-0.996727 27:-0.996617 28:-0.997879 29:-0.996223 30:-0.996193 31:-0.987345 32:-0.996009 33:-0.990083 34:-0.989422 35:-0.977849 36:-0.987917 37:-0.992221 38:-0.990376 39:-0.996245 40:-0.995327 41:-0.992172 42:-0.993949 43:-0.994032 44:-0.992266 45:-0.991575 46:-0.993469 47:-0.991083 48:-0.990719 49:-0.992184 50:-0.994379 
1.0 1:-0.194247 2:-0.959229 3:-0.00739354 4:-0.960324 5:-0.971502 6:-0.958912 7:-0.979674 8:-0.968033 9:-0.983233 10:-0.950024 11:-0.981253 12:-0.97452 13:-0.946514 14:-0.950102 15:-0.937039 16:-0.947308 17:-0.897884 18:-0.876989 19:-0.957774 20:-0.954214 21:-0.959768 22:-0.975911 23:-0.968333 24:-0.961147 25:-0.979607 26:-0.96807 27:-0.919478 28:-0.942884 29:-0.804791 30:-0.851918 31:-0.777138 32:-0.834002 33:-0.857635 34:-0.642795 35:-0.772716 36:-0.822407 37:-0.65594 38:-0.844127 39:-0.888347 40:-0.834182 41:-0.810887 42:-0.737045 43:-0.809466 44:-0.684491 45:-0.765932 46:-0.624014 47:-0.792867 48:-0.727083 49:-0.776377 50:-0.799698 
0.75202556249377 1:-0.988428 2:-0.831367 3:-0.869009 4:-0.49319 5:-0.864865 6:-0.935687 7:-0.492563 8:-0.973126 9:-0.987341 10:-0.990244 11:-0.828399 12:-0.637235 13:-0.891562 14:-0.996718 15:-0.982115 16:-0.988371 17:-0.98127 18:-0.983577 19:-0.998165 20:-0.997355 21:-0.99737 22:-0.996571 23:-0.998412 24:-0.999435 25:-0.999377 26:-0.999129 27:-0.999115 28:-0.998087 29:-0.994867 30:-0.995128 31:-0.990698 32:-0.9915 33:-0.997203 34:-0.997453 35:-0.988839 36:-0.996373 37:-0.997149 38:-0.995051 39:-0.997698 40:-0.997334 41:-0.995662 42:-0.993722 43:-0.991427 44:-0.967206 45:-0.991192 46:-0.995243 47:-0.98706 48:-0.990569 49:-0.993252 50:-0.996424 
1.0 1:0.266062 2:-0.849904 3:-0.757087 4:-0.96972 5:-0.955768 6:-0.969614 7:-0.968788 8:-0.97179 9:-0.94541 10:-0.960419 11:-0.936342 12:-0.952087 13:-0.871241 14:-0.927395 15:-0.905504 16:-0.882553 17:-0.776265 18:-0.847935 19:-0.935957 20:-0.916468 21:-0.963499 22:-0.946265 23:-0.923011 24:-0.952512 25:-0.968304 26:-0.946096 27:-0.921291 28:-0.941719 29:-0.800737 30:-0.637419 31:-0.624445 32:-0.677275 33:-0.762841 34:-0.67328 35:-0.445453 36:-0.659742 37:-0.229805 38:-0.481084 39:-0.736402 40:-0.540783 41:-0.612413 42:-0.267026 43:-0.489517 44:-0.652061 45:-0.603547 46:-0.49053 47:-0.707672 48:-0.547627 49:-0.642236 50:-0.57861 
1.0 1:-0.253743 2:-0.63515 3:-0.332103 4:-0.969101 5:-0.937827 6:-0.910418 7:-0.98397 8:-0.981246 9:-0.983695 10:-0.966518 11:-0.963384 12:-0.97872 13:-0.897445 14:-0.953617 15:-0.945792 16:-0.937938 17:-0.903167 18:-0.848312 19:-0.959992 20:-0.958631 21:-0.975873 22:-0.978467 23:-0.967608 24:-0.97684 25:-0.976768 26:-0.946658 27:-0.950072 28:-0.951113 29:-0.882215 30:-0.736815 31:-0.686371 32:-0.889904 33:-0.825078 34:-0.828287 35:-0.770099 36:-0.796622 37:-0.758249 38:-0.798075 39:-0.91018 40:-0.862497 41:-0.80294 42:-0.796204 43:-0.797528 44:-0.789173 45:-0.778336 46:-0.819093 47:-0.808327 48:-0.761701 49:-0.776202 50:-0.782546 
1.0 1:-0.911914 2:0.134302 3:-0.274396 4:-0.97666 5:-0.988492 6:-0.984429 7:-0.994284 8:-0.990735 9:-0.99828 10:-0.993843 11:-0.99696 12:-0.997211 13:-0.986643 14:-0.989482 15:-0.985301 16:-0.993947 17:-0.976641 18:-0.982359 19:-0.993588 20:-0.989086 21:-0.996897 22:-0.99609 23:-0.996897 24:-0.99528 25:-0.997437 26:-0.996552 27:-0.990642 28:-0.994417 29:-0.985513 30:-0.983483 31:-0.977589 32:-0.985306 33:-0.984156 34:-0.974567 35:-0.973602 36:-0.968017 37:-0.978568 38:-0.981958 39:-0.988423 40:-0.984482 41:-0.979337 42:-0.962138 43:-0.972992 44:-0.966205 45:-0.96368 46:-0.971399 47:-0.97871 48:-0.966032 49:-0.975215 50:-0.973883 
1.0 1:-0.723194 2:-0.394243 3:-0.885709 4:-0.289299 5:-0.937748 6:-0.989907 7:-0.895149 8:-0.872663 9:-0.976908 10:-0.991451 11:-0.992571 12:-0.990828 13:-0.983009 14:-0.986756 15:-0.972846 16:-0.978219 17:-0.968003 18:-0.936554 19:-0.979235 20:-0.982113 21:-0.990622 22:-0.991275 23:-0.985873 24:-0.992447 25:-0.99371 26:-0.986986 27:-0.983226 28:-0.960661 29:-0.963571 30:-0.919945 31:-0.929068 32:-0.961004 33:-0.933801 34:-0.930537 35:-0.876068 36:-0.940394 37:-0.920375 38:-0.91356 39:-0.968284 40:-0.943376 41:-0.923432 42:-0.925473 43:-0.934173 44:-0.87824 45:-0.915318 46:-0.920452 47:-0.877115 48:-0.863455 49:-0.912422 50:-0.926419 
1.0 1:-0.0689713 2:-0.714698 3:-0.732302 4:-0.803241 5:-0.922131 6:-0.966359 7:-0.968178 8:-0.963668 9:-0.971848 10:-0.97554 11:-0.968839 12:-0.893314 13:-0.896838 14:-0.940097 15:-0.808326 16:-0.900797 17:-0.902075 18:-0.848956 19:-0.945934 20:-0.920849 21:-0.945846 22:-0.972352 23:-0.966723 24:-0.974186 25:-0.974639 26:-0.963012 27:-0.918502 28:-0.948416 29:-0.870918 30:-0.826476 31:-0.705418 32:-0.832533 33:-0.70461 34:-0.70049 35:-0.728837 36:-0.792273 37:-0.579407 38:-0.689702 39:-0.797525 40:-0.772444 41:-0.736335 42:-0.741022 43:-0.682641 44:-0.718151 45:-0.524007 46:-0.744329 47:-0.774029 48:-0.526509 49:-0.692419 50:-0.724361 
1.0 1:-0.0372957 2:-0.954104 3:-0.445561 4:-0.779389 5:-0.967249 6:-0.971652 7:-0.967475 8:-0.976836 9:-0.94783 10:-0.954327 11:-0.96748 12:-0.931654 13:-0.936825 14:-0.952103 15:-0.842708 16:-0.915596 17:-0.8936 18:-0.855745 19:-0.947016 20:-0.952693 21:-0.959814 22:-0.971901 23:-0.942178 24:-0.970598 25:-0.965938 26:-0.939582 27:-0.92676 28:-0.908603 29:-0.822905 30:-0.837051 31:-0.746192 32:-0.841264 33:-0.844378 34:-0.765524 35:-0.549619 36:-0.797973 37:-0.770757 38:-0.64988 39:-0.835546 40:-0.771602 41:-0.730297 42:-0.534263 43:-0.695218 44:-0.699588 45:-0.715255 46:-0.723152 47:-0.764168 48:-0.388034 49:-0.71444 50:-0.738621 
1.0 1:0.0504402 2:-0.930789 3:-0.774633 4:-0.801247 5:-0.731504 6:-0.97501 7:-0.95834 8:-0.975779 9:-0.974067 10:-0.971448 11:-0.972216 12:-0.953693 13:-0.923637 14:-0.95422 15:-0.922413 16:-0.928405 17:-0.871042 18:-0.886165 19:-0.940195 20:-0.927288 21:-0.972462 22:-0.961974 23:-0.926528 24:-0.929251 25:-0.976778 26:-0.932806 27:-0.914919 28:-0.944488 29:-0.846616 30:-0.751836 31:-0.686018 32:-0.781215 33:-0.78709 34:-0.628841 35:-0.681663 36:-0.2886 37:-0.748914 38:-0.746013 39:-0.828527 40:-0.556275 41:-0.751253 42:-0.719851 43:-0.687295 44:-0.590086 45:-0.62857 46:-0.650635 47:-0.688959 48:-0.278467 49:-0.543348 50:-0.542579 
1.0 1:-0.642338 2:-0.948678 3:-0.848398 4:-0.535688 5:-0.442375 6:-0.701634 7:-0.933662 8:-0.938495 9:-0.97829 10:-0.984091 11:-0.98412 12:-0.981884 13:-0.975209 14:-0.980103 15:-0.95889 16:-0.976418 17:-0.951041 18:-0.943863 19:-0.982521 20:-0.983561 21:-0.989957 22:-0.989634 23:-0.980489 24:-0.984835 25:-0.990553 26:-0.98595 27:-0.965976 28:-0.977081 29:-0.952888 30:-0.928817 31:-0.906687 32:-0.946266 33:-0.908028 34:-0.92025 35:-0.865832 36:-0.863246 37:-0.902451 38:-0.919859 39:-0.959502 40:-0.910037 41:-0.895174 42:-0.863869 43:-0.883088 44:-0.882454 45:-0.895387 46:-0.906192 47:-0.903922 48:-0.870136 49:-0.907902 50:-0.831219 
1.0 1:-0.66474 2:-0.779685 3:-0.0642533 4:-0.805472 5:-0.949008 6:-0.932283 7:-0.97252 8:-0.958561 9:-0.942386 10:-0.975006 11:-0.979084 12:-0.971804 13:-0.940893 14:-0.973925 15:-0.922506 16:-0.962552 17:-0.955179 18:-0.912174 19:-0.972648 20:-0.970591 21:-0.990462 22:-0.984878 23:-0.987126 24:-0.986948 25:-0.983484 26:-0.976563 27:-0.978127 28:-0.979977 29:-0.912398 30:-0.912925 31:-0.895888 32:-0.944967 33:-0.939244 34:-0.859675 35:-0.903906 36:-0.82088 37:-0.853804 38:-0.916575 39:-0.955218 40:-0.910145 41:-0.912697 42:-0.905613 43:-0.85771 44:-0.898766 45:-0.850178 46:-0.883159 47:-0.91527 48:-0.880014 49:-0.853553 50:-0.910274 
1.0 1:-0.910682 2:-0.760141 3:-0.697334 4:-0.115905 5:-0.96757 6:-0.988033 7:-0.862779 8:-0.938542 9:-0.923488 10:-0.881896 11:-0.9887 12:-0.897317 13:-0.979221 14:-0.980327 15:-0.991455 16:-0.99076 17:-0.990389 18:-0.948549 19:-0.989828 20:-0.989467 21:-0.99603 22:-0.996756 23:-0.992567 24:-0.996236 25:-0.994887 26:-0.99203 27:-0.986585 28:-0.98679 29:-0.987042 30:-0.954386 31:-0.957372 32:-0.986074 33:-0.982461 34:-0.976587 35:-0.971947 36:-0.981084 37:-0.954584 38:-0.982253 39:-0.985497 40:-0.982365 41:-0.981081 42:-0.958261 43:-0.979079 44:-0.965717 45:-0.968867 46:-0.975632 47:-0.969362 48:-0.956556 49:-0.976059 50:-0.974572 
1.0 1:-0.15492 2:-0.6772 3:-0.379684 4:-0.953036 5:-0.944597 6:-0.960312 7:-0.968927 8:-0.966787 9:-0.977272 10:-0.959104 11:-0.973527 12:-0.97228 13:-0.950502 14:-0.954353 15:-0.893172 16:-0.922555 17:-0.882565 18:-0.899255 19:-0.915813 20:-0.955127 21:-0.974193 22:-0.964476 23:-0.970679 24:-0.973532 25:-0.976633 26:-0.949278 27:-0.91395 28:-0.953377 29:-0.85768 30:-0.809992 31:-0.70605 32:-0.868387 33:-0.85954 34:-0.806356 35:-0.703953 36:-0.823648 37:-0.731565 38:-0.826617 39:-0.902392 40:-0.812541 41:-0.780945 42:-0.688861 43:-0.659318 44:-0.623522 45:-0.730482 46:-0.773711 47:-0.786181 48:-0.603135 49:-0.724788 50:-0.782786 
1.0 1:-0.482587 2:-0.482066 3:-0.324701 4:-0.885531 5:-0.989063 6:-0.971366 7:-0.974334 8:-0.977489 9:-0.987633 10:-0.981908 11:-0.98742 12:-0.978312 13:-0.915607 14:-0.974241 15:-0.92514 16:-0.935932 17:-0.87254 18:-0.874541 19:-0.955955 20:-0.967199 21:-0.962989 22:-0.981243 23:-0.975231 24:-0.971124 25:-0.96955 26:-0.966081 27:-0.968346 28:-0.954042 29:-0.89267 30:-0.884427 31:-0.791459 32:-0.903225 33:-0.87286 34:-0.854069 35:-0.854868 36:-0.87086 37:-0.874457 38:-0.894084 39:-0.936973 40:-0.776079 41:-0.812291 42:-0.808031 43:-0.878434 44:-0.78693 45:-0.805288 46:-0.847306 47:-0.874201 48:-0.827621 49:-0.822016 50:-0.87171 
1.0 1:-0.511099 2:-0.628517 3:-0.429597 4:-0.940085 5:-0.838394 6:-0.848521 7:-0.96358 8:-0.966139 9:-0.953958 10:-0.982669 11:-0.982101 12:-0.965608 13:-0.939631 14:-0.978836 15:-0.892469 16:-0.927865 17:-0.9462 18:-0.913434 19:-0.955033 20:-0.882846 21:-0.985701 22:-0.972879 23:-0.977731 24:-0.969152 25:-0.984923 26:-0.974254 27:-0.969156 28:-0.97306 29:-0.926962 30:-0.817538 31:-0.81782 32:-0.925068 33:-0.919795 34:-0.806166 35:-0.833542 36:-0.852183 37:-0.85568 38:-0.879097 39:-0.937609 40:-0.898776 41:-0.845943 42:-0.867552 43:-0.87173 44:-0.827484 45:-0.86075 46:-0.834583 47:-0.814411 48:-0.797725 49:-0.800514 50:-0.882776 
1.0 1:0.730789 2:-0.964904 3:-0.865585 4:-0.967182 5:-0.956355 6:-0.955032 7:-0.960769 8:-0.96571 9:-0.965977 10:-0.954906 11:-0.955337 12:-0.949677 13:-0.84053 14:-0.911004 15:-0.864902 16:-0.881647 17:-0.799599 18:-0.804906 19:-0.914691 20:-0.855475 21:-0.953693 22:-0.950663 23:-0.937568 24:-0.934888 25:-0.958561 26:-0.920518 27:-0.866312 28:-0.842881 29:-0.766339 30:-0.683109 31:-0.520109 32:-0.630709 33:-0.52275 34:-0.574162 35:-0.520247 36:-0.605894 37:-0.506622 38:-0.58703 39:-0.781313 40:-0.687211 41:-0.410645 42:-0.556249 43:-0.469712 44:-0.463064 45:-0.413466 46:-0.37847 47:-0.520623 48:-0.456787 49:-0.538539 50:-0.486065 
1.0 1:-0.570067 2:-0.4367 3:-0.859797 4:-0.989618 5:-0.959471 6:-0.978 7:-0.980249 8:-0.987141 9:-0.982622 10:-0.989048 11:-0.95124 12:0.0542416 13:-0.967837 14:-0.973697 15:-0.968973 16:-0.96056 17:-0.951062 18:-0.945693 19:-0.975891 20:-0.980115 21:-0.987286 22:-0.987998 23:-0.9788 24:-0.985736 25:-0.98747 26:-0.98302 27:-0.971032 28:-0.973504 29:-0.939804 30:-0.891699 31:-0.897167 32:-0.936403 33:-0.921738 34:-0.866229 35:-0.879473 36:-0.89555 37:-0.869536 38:-0.864627 39:-0.939637 40:-0.904591 41:-0.903196 42:-0.840986 43:-0.889182 44:-0.837903 45:-0.873794 46:-0.856008 47:-0.883846 48:-0.865769 49:-0.862876 50:-0.886477 
1.0 1:-0.377712 2:0.0103648 3:-0.804355 4:-0.92494 5:-0.936703 6:-0.968957 7:-0.981835 8:-0.987479 9:-0.983463 10:-0.979673 11:-0.981396 12:-0.978916 13:-0.959841 14:-0.967458 15:-0.932437 16:-0.950797 17:-0.931228 18:-0.928511 19:-0.95501 20:-0.970414 21:-0.980249 22:-0.980629 23:-0.975026 24:-0.976336 25:-0.983735 26:-0.972359 27:-0.958902 28:-0.965126 29:-0.873287 30:-0.894029 31:-0.855292 32:-0.857396 33:-0.890464 34:-0.855625 35:-0.807449 36:-0.825844 37:-0.849103 38:-0.83693 39:-0.909228 40:-0.834199 41:-0.804627 42:-0.809532 43:-0.816334 44:-0.71785 45:-0.823877 46:-0.794152 47:-0.806822 48:-0.787728 49:-0.83628 50:-0.710248 
1.0 1:-0.889084 2:0.217001 3:-0.382447 4:-0.971448 5:-0.993786 6:-0.997419 7:-0.994312 8:-0.994537 9:-0.994872 10:-0.991337 11:-0.995691 12:-0.992818 13:-0.993559 14:-0.992739 15:-0.981463 16:-0.986607 17:-0.978159 18:-0.968105 19:-0.979776 20:-0.989827 21:-0.995992 22:-0.996099 23:-0.995332 24:-0.989533 25:-0.996328 26:-0.991067 27:-0.992675 28:-0.98752 29:-0.979539 30:-0.980992 31:-0.968639 32:-0.978566 33:-0.976236 34:-0.974692 35:-0.966345 36:-0.976528 37:-0.950918 38:-0.97236 39:-0.981447 40:-0.966013 41:-0.967638 42:-0.964745 43:-0.961358 44:-0.96495 45:-0.962799 46:-0.971127 47:-0.9662 48:-0.944604 49:-0.971383 50:-0.971595 
1.0 1:-0.0140886 2:-0.871887 3:-0.630825 4:-0.945836 5:-0.937021 6:-0.972601 7:-0.981155 8:-0.979087 9:-0.979179 10:-0.964869 11:-0.976166 12:-0.969317 13:-0.919719 14:-0.901703 15:-0.458368 16:-0.894159 17:-0.849897 18:-0.697691 19:-0.818927 20:-0.872217 21:-0.961272 22:-0.910387 23:-0.942726 24:-0.926701 25:-0.97154 26:-0.932995 27:-0.832191 28:-0.932378 29:-0.753562 30:-0.728203 31:-0.760213 32:-0.833598 33:-0.829592 34:-0.770508 35:-0.632037 36:-0.786644 37:-0.713034 38:-0.741336 39:-0.848924 40:-0.826032 41:-0.779735 42:-0.602801 43:-0.75186 44:-0.578497 45:-0.687089 46:-0.742255 47:-0.710236 48:-0.686876 49:-0.710964 50:-0.734639 
1.0 1:-0.741538 2:0.52434 3:-0.932165 4:-0.919281 5:-0.950636 6:-0.972236 7:-0.991027 8:-0.991921 9:-0.990679 10:-0.991328 11:-0.988932 12:-0.990479 13:-0.98011 14:-0.982822 15:-0.978437 16:-0.98326 17:-0.969387 18:-0.959581 19:-0.982622 20:-0.985995 21:-0.991735 22:-0.990076 23:-0.988538 24:-0.991116 25:-0.99386 26:-0.984742 27:-0.981656 28:-0.987963 29:-0.965081 30:-0.929323 31:-0.932149 32:-0.961287 33:-0.938244 34:-0.938965 35:-0.924546 36:-0.935033 37:-0.910209 38:-0.924009 39:-0.958637 40:-0.927876 41:-0.947853 42:-0.89711 43:-0.933703 44:-0.919963 45:-0.920128 46:-0.934848 47:-0.936568 48:-0.919924 49:-0.931936 50:-0.917299 
1.0 1:-0.85389 2:-0.955465 3:-0.455932 4:-0.882064 5:-0.869818 6:-0.378865 7:-0.9832 8:-0.926498 9:-0.919489 10:-0.703034 11:-0.980769 12:-0.994231 13:-0.974537 14:-0.990324 15:-0.969643 16:-0.976147 17:-0.978716 18:-0.973626 19:-0.990647 20:-0.992704 21:-0.993715 22:-0.995835 23:-0.994458 24:-0.993501 25:-0.996145 26:-0.982505 27:-0.990473 28:-0.989866 29:-0.975268 30:-0.975368 31:-0.95699 32:-0.955864 33:-0.959347 34:-0.968155 35:-0.950118 36:-0.957219 37:-0.963943 38:-0.949413 39:-0.983041 40:-0.968527 41:-0.957114 42:-0.962575 43:-0.963546 44:-0.945441 45:-0.957507 46:-0.939083 47:-0.954387 48:-0.948586 49:-0.960893 50:-0.963992 
1.0 1:0.196505 2:-0.904255 3:-0.603389 4:-0.882257 5:-0.937613 6:-0.962185 7:-0.975519 8:-0.958522 9:-0.9762 10:-0.961948 11:-0.947277 12:-0.965906 13:-0.926879 14:-0.914516 15:-0.894793 16:-0.900792 17:-0.875114 18:-0.778477 19:-0.933199 20:-0.948004 21:-0.963695 22:-0.953266 23:-0.951979 24:-0.958037 25:-0.969879 26:-0.936815 27:-0.871912 28:-0.921922 29:-0.81846 30:-0.671305 31:-0.695282 32:-0.826837 33:-0.779062 34:-0.668935 35:-0.581962 36:-0.719152 37:-0.679953 38:-0.680752 39:-0.818584 40:-0.751394 41:-0.473714 42:-0.580586 43:-0.62931 44:-0.61651 45:-0.625815 46:-0.583738 47:-0.367545 48:-0.386324 49:-0.676491 50:-0.660224 
1.0 1:0.502332 2:-0.828824 3:-0.897785 4:-0.886838 5:-0.908471 6:-0.964026 7:-0.96468 8:-0.960638 9:-0.970034 10:-0.960146 11:-0.961343 12:-0.955991 13:-0.713279 14:-0.924858 15:-0.878164 16:-0.892927 17:-0.834444 18:-0.830266 19:-0.929012 20:-0.932741 21:-0.957796 22:-0.957028 23:-0.934429 24:-0.957921 25:-0.954573 26:-0.932386 27:-0.889129 28:-0.926579 29:-0.727873 30:-0.65567 31:-0.595527 32:-0.78876 33:-0.688281 34:-0.671191 35:-0.566602 36:-0.560644 37:-0.598654 38:-0.665729 39:-0.734674 40:-0.696874 41:-0.647595 42:-0.562465 43:-0.652069 44:-0.442487 45:-0.561054 46:-0.585774 47:-0.568531 48:-0.518251 49:-0.502053 50:-0.470183 
1.0 1:-0.169677 2:-0.568892 3:-0.66114 4:-0.722797 5:-0.952633 6:-0.984106 7:-0.98025 8:-0.978651 9:-0.98328 10:-0.979253 11:-0.980357 12:-0.975464 13:-0.928458 14:-0.914872 15:-0.910159 16:-0.933341 17:-0.886475 18:-0.874233 19:-0.96023 20:-0.918889 21:-0.976951 22:-0.974888 23:-0.967446 24:-0.975956 25:-0.963591 26:-0.966485 27:-0.949814 28:-0.961322 29:-0.888465 30:-0.824348 31:-0.739749 32:-0.851156 33:-0.841502 34:-0.798873 35:-0.648996 36:-0.735982 37:-0.7738 38:-0.749745 39:-0.89904 40:-0.845493 41:-0.816505 42:-0.698297 43:-0.475406 44:-0.659374 45:-0.734753 46:-0.762446 47:-0.706675 48:-0.545802 49:-0.6499 50:-0.798111 
1.0 1:0.312395 2:-0.876805 3:-0.802289 4:-0.844912 5:-0.974562 6:-0.953581 7:-0.972028 8:-0.939398 9:-0.922664 10:-0.951257 11:-0.950296 12:-0.958306 13:-0.856796 14:-0.891767 15:-0.878328 16:-0.898387 17:-0.833708 18:-0.848225 19:-0.907935 20:-0.927556 21:-0.922418 22:-0.957434 23:-0.948908 24:-0.960229 25:-0.959368 26:-0.922903 27:-0.918842 28:-0.927443 29:-0.833907 30:-0.69021 31:-0.639524 32:-0.804472 33:-0.704148 34:-0.662123 35:-0.597544 36:-0.553727 37:-0.577409 38:-0.719696 39:-0.839173 40:-0.734152 41:-0.51581 42:-0.577228 43:-0.678573 44:-0.630733 45:-0.630179 46:-0.676892 47:-0.476647 48:-0.563958 49:-0.595513 50:-0.639468 
1.0 1:-0.817199 2:-0.271785 3:-0.375644 4:-0.735412 5:-0.941562 6:-0.985771 7:-0.960271 8:-0.962472 9:-0.989798 10:-0.991281 11:-0.985875 12:-0.980305 13:-0.955799 14:-0.97419 15:-0.966633 16:-0.964703 17:-0.943654 18:-0.976306 19:-0.990124 20:-0.973519 21:-0.993414 22:-0.993316 23:-0.986977 24:-0.989691 25:-0.994413 26:-0.991503 27:-0.987426 28:-0.982706 29:-0.969235 30:-0.962193 31:-0.950562 32:-0.921459 33:-0.95662 34:-0.944155 35:-0.921708 36:-0.952806 37:-0.954476 38:-0.964657 39:-0.965112 40:-0.951262 41:-0.956632 42:-0.950826 43:-0.948388 44:-0.939588 45:-0.929102 46:-0.955483 47:-0.934911 48:-0.913766 49:-0.945862 50:-0.907822 
1.0 1:0.121094 2:-0.654447 3:-0.747321 4:-0.938403 5:-0.976766 6:-0.909793 7:-0.900983 8:-0.965153 9:-0.961387 10:-0.961717 11:-0.965878 12:-0.966497 13:-0.931063 14:-0.925415 15:-0.904738 16:-0.907074 17:-0.85 18:-0.863609 19:-0.948978 20:-0.945788 21:-0.958651 22:-0.961398 23:-0.949533 24:-0.966773 25:-0.968123 26:-0.923624 27:-0.927782 28:-0.925056 29:-0.848783 30:-0.808861 31:-0.726091 32:-0.833969 33:-0.722717 34:-0.70058 35:-0.679857 36:-0.760449 37:-0.442103 38:-0.649593 39:-0.844295 40:-0.751016 41:-0.66345 42:-0.709723 43:-0.67533 44:-0.683608 45:-0.619546 46:-0.712534 47:-0.704351 48:-0.57649 49:-0.657869 50:-0.563243 
1.0 1:0.0382184 2:-0.424675 3:-0.891881 4:-0.970775 5:-0.966584 6:-0.980746 7:-0.977732 8:-0.979892 9:-0.96572 10:-0.975521 11:-0.955045 12:-0.963165 13:-0.918157 14:-0.949867 15:-0.915322 16:-0.928141 17:-0.879376 18:-0.888324 19:-0.904374 20:-0.926328 21:-0.967355 22:-0.96168 23:-0.890644 24:-0.97153 25:-0.974671 26:-0.928906 27:-0.934852 28:-0.949651 29:-0.859864 30:-0.795163 31:-0.52287 32:-0.853316 33:-0.705521 34:-0.706866 35:-0.204324 36:-0.770678 37:-0.501239 38:-0.633602 39:-0.686899 40:-0.787778 41:-0.659076 42:-0.555746 43:-0.681324 44:-0.688665 45:-0.598868 46:-0.746142 47:-0.697435 48:-0.277309 49:-0.72207 50:-0.413912 
1.0 1:-0.765297 2:-0.97072 3:-0.576097 4:-0.578161 5:-0.445047 6:-0.766574 7:-0.960589 8:-0.986887 9:-0.973327 10:-0.987286 11:-0.981216 12:-0.990644 13:-0.975496 14:-0.973294 15:-0.967099 16:-0.958361 17:-0.9647 18:-0.956992 19:-0.984706 20:-0.985983 21:-0.992681 22:-0.993421 23:-0.983319 24:-0.982188 25:-0.992474 26:-0.984024 27:-0.985113 28:-0.979903 29:-0.961649 30:-0.952973 31:-0.936855 32:-0.957834 33:-0.94902 34:-0.914617 35:-0.873227 36:-0.87458 37:-0.923541 38:-0.948595 39:-0.96738 40:-0.926725 41:-0.943379 42:-0.908593 43:-0.923467 44:-0.921027 45:-0.911173 46:-0.92594 47:-0.938658 48:-0.90779 49:-0.903528 50:-0.939899 
1.0 1:-0.805955 2:-0.892403 3:-0.190039 4:-0.776454 5:-0.957288 6:-0.97835 7:-0.972776 8:-0.979446 9:-0.673479 10:-0.756799 11:-0.984101 12:-0.973499 13:-0.954586 14:-0.941501 15:-0.974047 16:-0.950209 17:-0.976508 18:-0.947066 19:-0.983616 20:-0.988319 21:-0.994564 22:-0.993932 23:-0.99169 24:-0.993354 25:-0.993836 26:-0.972646 27:-0.98549 28:-0.984629 29:-0.966872 30:-0.959597 31:-0.926375 32:-0.965798 33:-0.94803 34:-0.945138 35:-0.943941 36:-0.937843 37:-0.945442 38:-0.943152 39:-0.976918 40:-0.944718 41:-0.930918 42:-0.933474 43:-0.91138 44:-0.865008 45:-0.927031 46:-0.948668 47:-0.945322 48:-0.923227 49:-0.948562 50:-0.901388 
1.0 1:-0.262722 2:-0.825558 3:-0.116263 4:-0.901855 5:-0.969662 6:-0.982684 7:-0.976787 8:-0.972305 9:-0.985558 10:-0.969168 11:-0.975216 12:-0.974044 13:-0.925621 14:-0.938113 15:-0.930474 16:-0.921068 17:-0.922268 18:-0.917772 19:-0.960123 20:-0.938419 21:-0.95264 22:-0.97668 23:-0.9642 24:-0.972569 25:-0.983304 26:-0.969663 27:-0.950594 28:-0.96609 29:-0.870695 30:-0.871702 31:-0.747336 32:-0.76025 33:-0.875319 34:-0.824617 35:-0.784277 36:-0.843859 37:-0.805724 38:-0.823674 39:-0.906928 40:-0.79447 41:-0.83413 42:-0.702071 43:-0.750772 44:-0.780255 45:-0.757809 46:-0.770735 47:-0.769783 48:-0.74956 49:-0.803648 50:-0.750819 
1.0 1:-0.351158 2:-0.91741 3:-0.703394 4:-0.980146 5:-0.663766 6:-0.514432 7:-0.987336 8:-0.982184 9:-0.983961 10:-0.978779 11:-0.948616 12:-0.972634 13:-0.932639 14:-0.940245 15:-0.895643 16:-0.953552 17:-0.866997 18:-0.767158 19:-0.96934 20:-0.967114 21:-0.981236 22:-0.98039 23:-0.977119 24:-0.978688 25:-0.984878 26:-0.96656 27:-0.957599 28:-0.96716 29:-0.902041 30:-0.844514 31:-0.819456 32:-0.84733 33:-0.834239 34:-0.551277 35:-0.816954 36:-0.841866 37:-0.493475 38:-0.821154 39:-0.841907 40:-0.885321 41:-0.80479 42:-0.799337 43:-0.853369 44:-0.785368 45:-0.784093 46:-0.839084 47:-0.80594 48:-0.778008 49:-0.797415 50:-0.772631 
1.0 1:-0.830623 2:0.437831 3:-0.899294 4:-0.895407 5:-0.982341 6:-0.905735 7:-0.982442 8:-0.983418 9:-0.972169 10:-0.987002 11:-0.985435 12:-0.974659 13:-0.972984 14:-0.983187 15:-0.981526 16:-0.978726 17:-0.970761 18:-0.978271 19:-0.987743 20:-0.987867 21:-0.993515 22:-0.993693 23:-0.984749 24:-0.994765 25:-0.996131 26:-0.992024 27:-0.989213 28:-0.986638 29:-0.960923 30:-0.966548 31:-0.948599 32:-0.963363 33:-0.963997 34:-0.947693 35:-0.944346 36:-0.963617 37:-0.943168 38:-0.953791 39:-0.980012 40:-0.962887 41:-0.955849 42:-0.952417 43:-0.957698 44:-0.949488 45:-0.949497 46:-0.933358 47:-0.959284 48:-0.890732 49:-0.952277 50:-0.957183 
1.0 1:0.332917 2:-0.599017 3:-0.831949 4:-0.961733 5:-0.965262 6:-0.961144 7:-0.9647 8:-0.972577 9:-0.927002 10:-0.957109 11:-0.965662 12:-0.964628 13:-0.915377 14:-0.93844 15:-0.898456 16:-0.913097 17:-0.829527 18:-0.825017 19:-0.939242 20:-0.938801 21:-0.956155 22:-0.946305 23:-0.95372 24:-0.950437 25:-0.961939 26:-0.946087 27:-0.912516 28:-0.928136 29:-0.829096 30:-0.771556 31:-0.675263 32:-0.786134 33:-0.542351 34:-0.676786 35:-0.554829 36:-0.580754 37:-0.64867 38:-0.712047 39:-0.83946 40:-0.656581 41:-0.633129 42:-0.588764 43:-0.697171 44:-0.591809 45:-0.577348 46:-0.66429 47:-0.654421 48:-0.503058 49:-0.593963 50:-0.587084 
1.0 1:-0.957501 2:-0.979302 3:-0.94908 4:-0.947238 5:-0.736965 6:-0.818988 7:-0.338871 8:-0.741389 9:-0.603848 10:-0.939249 11:-0.970285 12:-0.995692 13:-0.909544 14:-0.980739 15:-0.981705 16:-0.994337 17:-0.987469 18:-0.956859 19:-0.996745 20:-0.987522 21:-0.998285 22:-0.994512 23:-0.99084 24:-0.99817 25:-0.995611 26:-0.997598 27:-0.992866 28:-0.9979 29:-0.975868 30:-0.986861 31:-0.979581 32:-0.991426 33:-0.992195 34:-0.98335 35:-0.969037 36:-0.978783 37:-0.956799 38:-0.986054 39:-0.990473 40:-0.987927 41:-0.988256 42:-0.988301 43:-0.989009 44:-0.980944 45:-0.978018 46:-0.98343 47:-0.989327 48:-0.98318 49:-0.986846 50:-0.989548 
1.0 1:-0.0734498 2:-0.789279 3:-0.553041 4:-0.965574 5:-0.712136 6:-0.959994 7:-0.977718 8:-0.971522 9:-0.971711 10:-0.963029 11:-0.970406 12:-0.977049 13:-0.94507 14:-0.959202 15:-0.915477 16:-0.913743 17:-0.875581 18:-0.735471 19:-0.94654 20:-0.958922 21:-0.97083 22:-0.969547 23:-0.954239 24:-0.972012 25:-0.979411 26:-0.955369 27:-0.928573 28:-0.947735 29:-0.813794 30:-0.846573 31:-0.725129 32:-0.855139 33:-0.833343 34:-0.760948 35:-0.459137 36:-0.757404 37:-0.718037 38:-0.749015 39:-0.88505 40:-0.831774 41:-0.704877 42:-0.741455 43:-0.76901 44:-0.621105 45:-0.478073 46:-0.585149 47:-0.735689 48:-0.705796 49:-0.741436 50:-0.775811 
1.0 1:-0.980609 2:-0.989624 3:-0.919463 4:-0.987222 5:-0.91472 6:-0.951277 7:0.140058 8:-0.572787 9:-0.786548 10:-0.977779 11:-0.997579 12:-0.996832 13:-0.9867 14:-0.992792 15:-0.998624 16:-0.997694 17:-0.992836 18:-0.995212 19:-0.997418 20:-0.998683 21:-0.998983 22:-0.999412 23:-0.999064 24:-0.999086 25:-0.999565 26:-0.997504 27:-0.998257 28:-0.998934 29:-0.99636 30:-0.996016 31:-0.993135 32:-0.996561 33:-0.993807 34:-0.994366 35:-0.991077 36:-0.994798 37:-0.993703 38:-0.994931 39:-0.99759 40:-0.996531 41:-0.995902 42:-0.995031 43:-0.995266 44:-0.988173 45:-0.992546 46:-0.994463 47:-0.991414 48:-0.992745 49:-0.99492 50:-0.995262 
1.0 1:-0.462292 2:-0.288181 3:-0.407309 4:-0.953102 5:-0.975764 6:-0.984737 7:-0.978931 8:-0.98808 9:-0.987185 10:-0.9655 11:-0.960227 12:-0.981924 13:-0.960399 14:-0.970444 15:-0.925634 16:-0.949499 17:-0.939716 18:-0.934753 19:-0.975288 20:-0.960281 21:-0.982614 22:-0.975215 23:-0.975439 24:-0.979604 25:-0.971079 26:-0.972343 27:-0.962503 28:-0.955262 29:-0.929115 30:-0.802246 31:-0.871664 32:-0.902053 33:-0.865522 34:-0.881625 35:-0.809721 36:-0.850846 37:-0.800972 38:-0.859833 39:-0.932565 40:-0.903693 41:-0.794488 42:-0.793432 43:-0.860287 44:-0.84851 45:-0.844507 46:-0.862792 47:-0.815126 48:-0.830339 49:-0.791326 50:-0.870587 
1.0 1:0.646235 2:-0.969081 3:-0.877823 4:-0.932504 5:-0.937509 6:-0.957075 7:-0.960797 8:-0.955207 9:-0.950757 10:-0.897474 11:-0.943992 12:-0.957547 13:-0.883499 14:-0.908835 15:-0.84526 16:-0.858062 17:-0.783061 18:-0.789577 19:-0.912972 20:-0.900638 21:-0.95111 22:-0.928759 23:-0.902717 24:-0.921668 25:-0.963381 26:-0.926828 27:-0.887636 28:-0.921594 29:-0.781912 30:-0.681107 31:-0.605774 32:-0.766158 33:-0.723373 34:-0.584556 35:-0.446903 36:-0.506437 37:-0.529286 38:-0.677064 39:-0.800078 40:-0.638381 41:-0.616766 42:-0.447177 43:-0.46223 44:-0.52352 45:-0.431249 46:-0.57793 47:-0.586234 48:-0.465567 49:-0.555193 50:-0.595196 
1.0 1:0.238055 2:-0.898013 3:-0.773279 4:-0.713061 5:-0.949665 6:-0.975083 7:-0.950404 8:-0.971226 9:-0.972543 10:-0.954301 11:-0.970643 12:-0.965879 13:-0.80244 14:-0.92186 15:-0.907663 16:-0.905176 17:-0.860098 18:-0.799542 19:-0.933924 20:-0.944561 21:-0.959449 22:-0.914802 23:-0.94853 24:-0.964652 25:-0.97176 26:-0.919329 27:-0.868647 28:-0.940814 29:-0.803738 30:-0.774485 31:-0.580449 32:-0.809219 33:-0.739661 34:-0.66759 35:-0.547096 36:-0.671374 37:-0.694697 38:-0.753071 39:-0.842255 40:-0.733058 41:-0.749398 42:-0.623645 43:-0.660257 44:-0.341848 45:-0.626721 46:-0.690782 47:-0.71308 48:-0.585241 49:-0.596942 50:-0.544688 
1.0 1:-0.935551 2:-0.98843 3:-0.939319 4:-0.976126 5:-0.952076 6:-0.810874 7:-0.758904 8:-0.800189 9:-0.0136103 10:-0.756062 11:-0.954817 12:-0.985255 13:-0.983167 14:-0.976964 15:-0.965766 16:-0.995305 17:-0.985135 18:-0.981706 19:-0.995692 20:-0.99581 21:-0.996995 22:-0.986022 23:-0.992938 24:-0.997587 25:-0.998135 26:-0.995989 27:-0.995161 28:-0.996611 29:-0.986211 30:-0.986758 31:-0.982409 32:-0.980505 33:-0.98898 34:-0.985801 35:-0.964042 36:-0.977298 37:-0.981863 38:-0.981168 39:-0.986836 40:-0.961761 41:-0.986023 42:-0.982898 43:-0.984764 44:-0.945725 45:-0.968363 46:-0.957802 47:-0.966709 48:-0.975607 49:-0.982979 50:-0.979754 
1.0 1:-0.941108 2:0.181988 3:-0.894088 4:-0.799951 5:-0.908279 6:-0.882103 7:-0.944048 8:-0.974037 9:-0.95815 10:-0.972364 11:-0.984434 12:-0.980232 13:-0.975253 14:-0.977845 15:-0.959711 16:-0.982389 17:-0.961605 18:-0.978359 19:-0.984619 20:-0.987546 21:-0.991962 22:-0.982862 23:-0.989095 24:-0.98374 25:-0.995392 26:-0.980171 27:-0.98502 28:-0.982398 29:-0.985238 30:-0.982255 31:-0.968807 32:-0.979363 33:-0.989494 34:-0.974854 35:-0.965567 36:-0.969552 37:-0.937065 38:-0.97852 39:-0.988949 40:-0.976957 41:-0.971738 42:-0.979749 43:-0.977591 44:-0.955577 45:-0.951278 46:-0.973488 47:-0.972327 48:-0.981163 49:-0.977986 50:-0.980344 
1.0 1:-0.905419 2:-0.987167 3:-0.363982 4:-0.769642 5:-0.966567 6:-0.553795 7:-0.994747 8:-0.875735 9:-0.968842 10:-0.985674 11:-0.996055 12:-0.993496 13:-0.890566 14:-0.674991 15:-0.93641 16:-0.933809 17:-0.788449 18:-0.857799 19:-0.970439 20:-0.984628 21:-0.972586 22:-0.989838 23:-0.994425 24:-0.992917 25:-0.994431 26:-0.845848 27:-0.957999 28:-0.994201 29:-0.944712 30:-0.931849 31:-0.951761 32:-0.96895 33:-0.968462 34:-0.938427 35:-0.949288 36:-0.972009 37:-0.972294 38:-0.949818 39:-0.981605 40:-0.978978 41:-0.97267 42:-0.94346 43:-0.974757 44:-0.938035 45:-0.935665 46:-0.960568 47:-0.970483 48:-0.937145 49:-0.955203 50:-0.976419 
1.0 1:-0.821556 2:-0.824874 3:0.0787795 4:-0.668757 5:-0.946509 6:-0.991452 7:-0.965629 8:-0.989794 9:-0.961804 10:-0.993059 11:-0.994592 12:-0.9951 13:-0.714004 14:-0.990927 15:-0.9648 16:-0.978963 17:-0.969848 18:-0.975696 19:-0.989773 20:-0.987092 21:-0.994533 22:-0.987233 23:-0.992328 24:-0.994235 25:-0.968327 26:-0.991096 27:-0.970005 28:-0.991867 29:-0.973045 30:-0.9636 31:-0.894418 32:-0.97369 33:-0.964914 34:-0.943472 35:-0.947313 36:-0.962226 37:-0.950996 38:-0.962175 39:-0.957679 40:-0.967926 41:-0.953904 42:-0.931212 43:-0.933842 44:-0.933135 45:-0.933516 46:-0.926603 47:-0.957654 48:-0.944596 49:-0.948658 50:-0.946885 
1.0 1:0.293772 2:-0.962338 3:-0.65741 4:-0.782058 5:-0.95146 6:-0.973203 7:-0.957713 8:-0.967293 9:-0.964737 10:-0.966244 11:-0.941994 12:-0.946262 13:-0.92225 14:-0.880634 15:-0.893217 16:-0.909562 17:-0.847341 18:-0.820664 19:-0.873698 20:-0.907154 21:-0.957152 22:-0.962815 23:-0.955444 24:-0.955522 25:-0.966967 26:-0.944306 27:-0.920424 28:-0.937569 29:-0.835712 30:-0.714654 31:-0.616938 32:-0.789755 33:-0.742779 34:-0.674387 35:-0.575719 36:-0.694666 37:-0.648462 38:-0.660429 39:-0.780402 40:-0.712937 41:-0.72163 42:-0.678558 43:-0.653852 44:-0.507573 45:-0.594768 46:-0.623301 47:-0.618746 48:-0.540352 49:-0.66702 50:-0.645706 
1.0 1:-0.499218 2:-0.0703261 3:-0.644898 4:-0.960476 5:-0.987214 6:-0.984285 7:-0.98677 8:-0.980749 9:-0.986127 10:-0.988382 11:-0.970731 12:-0.985933 13:-0.967261 14:-0.825087 15:-0.948689 16:-0.95462 17:-0.932313 18:-0.892355 19:-0.960853 20:-0.976622 21:-0.983627 22:-0.979397 23:-0.968556 24:-0.96254 25:-0.980439 26:-0.97491 27:-0.966057 28:-0.956112 29:-0.891896 30:-0.874916 31:-0.844404 32:-0.896689 33:-0.897755 34:-0.890717 35:-0.822126 36:-0.816688 37:-0.626227 38:-0.807093 39:-0.937249 40:-0.903411 41:-0.891377 42:-0.832062 43:-0.85046 44:-0.799053 45:-0.847883 46:-0.850955 47:-0.856917 48:-0.79296 49:-0.859746 50:-0.819399 
1.0 1:0.150382 2:-0.862123 3:-0.754234 4:-0.876596 5:-0.961185 6:-0.953787 7:-0.976624 8:-0.975664 9:-0.957698 10:-0.965156 11:-0.972332 12:-0.969481 13:-0.9207 14:-0.931192 15:-0.889416 16:-0.89737 17:-0.876271 18:-0.739005 19:-0.940765 20:-0.946157 21:-0.956926 22:-0.951344 23:-0.939896 24:-0.96868 25:-0.915996 26:-0.938429 27:-0.915301 28:-0.908018 29:-0.839446 30:-0.794819 31:-0.650728 32:-0.710011 33:-0.596983 34:-0.585552 35:-0.444432 36:-0.52254 37:-0.655962 38:-0.500609 39:-0.671521 40:-0.778474 41:-0.60499 42:-0.654001 43:-0.629344 44:-0.656987 45:-0.674636 46:-0.703462 47:-0.0744592 48:-0.54106 49:-0.601015 50:-0.434128 
1.0 1:-0.898653 2:-0.946152 3:-0.210901 4:-0.952642 5:-0.429696 6:-0.73116 7:-0.979958 8:-0.984629 9:-0.996734 10:-0.990151 11:-0.995826 12:-0.991276 13:-0.956919 14:-0.936989 15:-0.965034 16:-0.98726 17:-0.963141 18:-0.962225 19:-0.971164 20:-0.979705 21:-0.985072 22:-0.983242 23:-0.984118 24:-0.992802 25:-0.979144 26:-0.993505 27:-0.889806 28:-0.987613 29:-0.980691 30:-0.964586 31:-0.942045 32:-0.972211 33:-0.978629 34:-0.971794 35:-0.949299 36:-0.958276 37:-0.974146 38:-0.975 39:-0.985466 40:-0.966016 41:-0.974075 42:-0.944716 43:-0.959 44:-0.960643 45:-0.962375 46:-0.966624 47:-0.974946 48:-0.96354 49:-0.964796 50:-0.974555 
1.0 1:-0.544389 2:-0.586809 3:-0.517175 4:-0.668202 5:-0.85312 6:-0.989544 7:-0.966332 8:-0.977015 9:-0.954085 10:-0.986646 11:-0.986199 12:-0.983588 13:-0.930018 14:-0.954583 15:-0.962938 16:-0.93835 17:-0.908027 18:-0.950498 19:-0.966474 20:-0.960916 21:-0.964796 22:-0.958231 23:-0.962528 24:-0.97918 25:-0.988292 26:-0.977862 27:-0.969294 28:-0.973214 29:-0.920454 30:-0.921712 31:-0.897498 32:-0.91987 33:-0.926692 34:-0.889782 35:-0.868495 36:-0.854225 37:-0.842851 38:-0.871022 39:-0.947071 40:-0.836868 41:-0.882851 42:-0.886672 43:-0.894181 44:-0.865534 45:-0.84065 46:-0.847368 47:-0.591863 48:-0.751205 49:-0.845127 50:-0.868146 
1.0 1:-0.940051 2:-0.939554 3:-0.74642 4:-0.467294 5:-0.481949 6:-0.820327 7:-0.98085 8:-0.788701 9:-0.967878 10:-0.930716 11:-0.990995 12:-0.930707 13:-0.974091 14:-0.983314 15:-0.988401 16:-0.961127 17:-0.978837 18:-0.960985 19:-0.993542 20:-0.983878 21:-0.993696 22:-0.992902 23:-0.995958 24:-0.998027 25:-0.997705 26:-0.983355 27:-0.985889 28:-0.986945 29:-0.978257 30:-0.980505 31:-0.979478 32:-0.982407 33:-0.984926 34:-0.976205 35:-0.94153 36:-0.982595 37:-0.977065 38:-0.978799 39:-0.988503 40:-0.986487 41:-0.978915 42:-0.975024 43:-0.984446 44:-0.982128 45:-0.981828 46:-0.954614 47:-0.983522 48:-0.979051 49:-0.975472 50:-0.984222 
1.0 1:0.0196761 2:-0.46155 3:-0.69173 4:-0.933057 5:-0.978988 6:-0.96909 7:-0.980124 8:-0.974059 9:-0.973803 10:-0.973215 11:-0.954941 12:-0.969004 13:-0.91923 14:-0.951951 15:-0.898253 16:-0.905375 17:-0.850775 18:-0.840881 19:-0.939968 20:-0.934509 21:-0.954884 22:-0.962208 23:-0.955362 24:-0.970578 25:-0.976187 26:-0.957338 27:-0.878842 28:-0.936739 29:-0.819185 30:-0.824654 31:-0.667566 32:-0.788319 33:-0.824125 34:-0.77425 35:-0.664528 36:-0.661898 37:-0.687245 38:-0.801687 39:-0.877774 40:-0.810933 41:-0.78042 42:-0.734664 43:-0.743385 44:-0.688393 45:-0.65317 46:-0.739579 47:-0.715771 48:-0.677383 49:-0.664588 50:-0.693394 
1.0 1:-0.311587 2:-0.549566 3:-0.784373 4:-0.663812 5:-0.982058 6:-0.763743 7:-0.916454 8:-0.972433 9:-0.985684 10:-0.983158 11:-0.976227 12:-0.972204 13:-0.923019 14:-0.967014 15:-0.948759 16:-0.95584 17:-0.893512 18:-0.913462 19:-0.967501 20:-0.967831 21:-0.98038 22:-0.979599 23:-0.96353 24:-0.97818 25:-0.97911 26:-0.970708 27:-0.947343 28:-0.967519 29:-0.885327 30:-0.823828 31:-0.80771 32:-0.889732 33:-0.870572 34:-0.833284 35:-0.77742 36:-0.838086 37:-0.789392 38:-0.851087 39:-0.922293 40:-0.86323 41:-0.796554 42:-0.76385 43:-0.823482 44:-0.7966 45:-0.780299 46:-0.81346 47:-0.745045 48:-0.686134 49:-0.822872 50:-0.823852 
1.0 1:0.60141 2:-0.962535 3:-0.776674 4:-0.951727 5:-0.970033 6:-0.953489 7:-0.967582 8:-0.957916 9:-0.935466 10:-0.960616 11:-0.962601 12:-0.954455 13:-0.886672 14:-0.930067 15:-0.867554 16:-0.880494 17:-0.814901 18:-0.686655 19:-0.922794 20:-0.914868 21:-0.955024 22:-0.951135 23:-0.941859 24:-0.948804 25:-0.945063 26:-0.934454 27:-0.856815 28:-0.927107 29:-0.722797 30:-0.679086 31:-0.605984 32:-0.696207 33:-0.727898 34:-0.545379 35:-0.370781 36:-0.640855 37:-0.585698 38:-0.600087 39:-0.804357 40:-0.520976 41:-0.651983 42:-0.601751 43:-0.458692 44:-0.328729 45:-0.210479 46:-0.548998 47:-0.599402 48:-0.327461 49:-0.550369 50:-0.528201 
1.0 1:-0.357519 2:-0.979964 3:-0.612344 4:-0.30871 5:-0.878428 6:-0.963563 7:-0.947676 8:-0.986412 9:-0.984048 10:-0.949692 11:-0.984838 12:-0.973404 13:-0.950174 14:-0.964292 15:-0.953338 16:-0.931139 17:-0.809659 18:-0.91808 19:-0.909155 20:-0.969672 21:-0.979911 22:-0.972826 23:-0.95206 24:-0.970674 25:-0.972962 26:-0.941063 27:-0.960805 28:-0.967393 29:-0.916763 30:-0.875311 31:-0.818761 32:-0.904732 33:-0.895575 34:-0.857861 35:-0.819531 36:-0.852835 37:-0.808848 38:-0.840847 39:-0.899804 40:-0.874721 41:-0.868789 42:-0.835737 43:-0.825415 44:-0.694859 45:-0.81381 46:-0.832559 47:-0.777645 48:-0.763279 49:-0.836853 50:-0.835003 
1.0 1:0.294236 2:-0.919503 3:-0.939344 4:-0.891043 5:-0.82262 6:-0.801917 7:-0.944618 8:-0.963975 9:-0.97224 10:-0.967332 11:-0.969955 12:-0.963265 13:-0.924561 14:-0.918391 15:-0.902828 16:-0.910764 17:-0.865501 18:-0.85399 19:-0.924343 20:-0.929097 21:-0.96202 22:-0.94896 23:-0.937891 24:-0.918809 25:-0.9487 26:-0.902419 27:-0.916674 28:-0.870021 29:-0.761819 30:-0.692421 31:-0.704756 32:-0.795478 33:-0.740609 34:-0.694209 35:-0.625169 36:-0.678311 37:-0.61812 38:-0.685754 39:-0.822717 40:-0.516863 41:-0.628228 42:-0.666761 43:-0.698832 44:-0.512577 45:-0.485636 46:-0.588247 47:-0.68383 48:-0.590975 49:-0.588774 50:-0.652811 
1.0 1:-0.160708 2:-0.92883 3:-0.315686 4:-0.978545 5:-0.865415 6:-0.932771 7:-0.968252 8:-0.962575 9:-0.972833 10:-0.973484 11:-0.9802 12:-0.97773 13:-0.76385 14:-0.950999 15:-0.863387 16:-0.918593 17:-0.859359 18:-0.897655 19:-0.956459 20:-0.946201 21:-0.940099 22:-0.970738 23:-0.941871 24:-0.954858 25:-0.94639 26:-0.96705 27:-0.940089 28:-0.95987 29:-0.880949 30:-0.838555 31:-0.718 32:-0.839317 33:-0.841495 34:-0.685355 35:-0.681314 36:-0.785017 37:-0.686314 38:-0.829863 39:-0.862497 40:-0.779027 41:-0.765378 42:-0.747505 43:-0.735031 44:-0.693606 45:-0.707144 46:-0.783926 47:-0.765373 48:-0.737281 49:-0.77217 50:-0.787907 
1.0 1:-0.954621 2:-0.977204 3:-0.985571 4:-0.89165 5:-0.687994 6:-0.983976 7:-0.634998 8:-0.11019 9:-0.775686 10:-0.963095 11:-0.989941 12:-0.998217 13:-0.995601 14:-0.98145 15:-0.911892 16:-0.995259 17:-0.994793 18:-0.973924 19:-0.988481 20:-0.992401 21:-0.994439 22:-0.997802 23:-0.9975 24:-0.997132 25:-0.998979 26:-0.998221 27:-0.992785 28:-0.997534 29:-0.986977 30:-0.987147 31:-0.982788 32:-0.993459 33:-0.978895 34:-0.987148 35:-0.977215 36:-0.970977 37:-0.976913 38:-0.98956 39:-0.992123 40:-0.987231 41:-0.986604 42:-0.979394 43:-0.988217 44:-0.983244 45:-0.9811 46:-0.985331 47:-0.981843 48:-0.984318 49:-0.984078 50:-0.970826 
1.0 1:-0.932288 2:-0.159809 3:-0.548974 4:-0.402414 5:-0.978116 6:-0.98242 7:-0.990394 8:-0.993644 9:-0.992711 10:-0.994793 11:-0.995176 12:-0.995491 13:-0.994081 14:-0.996247 15:-0.986554 16:-0.993477 17:-0.982845 18:-0.990846 19:-0.996482 20:-0.995414 21:-0.995308 22:-0.997605 23:-0.995967 24:-0.997874 25:-0.997615 26:-0.997393 27:-0.99537 28:-0.995667 29:-0.983144 30:-0.981301 31:-0.979816 32:-0.988243 33:-0.981906 34:-0.985315 35:-0.968713 36:-0.982467 37:-0.967974 38:-0.982707 39:-0.986904 40:-0.984115 41:-0.986278 42:-0.97949 43:-0.975486 44:-0.976462 45:-0.976368 46:-0.983427 47:-0.983073 48:-0.959151 49:-0.978705 50:-0.977543 
1.0 1:0.623598 2:-0.926399 3:-0.910667 4:-0.958828 5:-0.93248 6:-0.956678 7:-0.966168 8:-0.963859 9:-0.962665 10:-0.958784 11:-0.946626 12:-0.957819 13:-0.761984 14:-0.921592 15:-0.797714 16:-0.824868 17:-0.746814 18:-0.783254 19:-0.915421 20:-0.88858 21:-0.953082 22:-0.949021 23:-0.889974 24:-0.954672 25:-0.953199 26:-0.92906 27:-0.862688 28:-0.903988 29:-0.795747 30:-0.706027 31:-0.538503 32:-0.74753 33:-0.678171 34:-0.463685 35:-0.544594 36:-0.616032 37:-0.556026 38:-0.67952 39:-0.803321 40:-0.708003 41:-0.262847 42:-0.565983 43:-0.522721 44:-0.498223 45:-0.541141 46:-0.348679 47:-0.538782 48:-0.464081 49:-0.575002 50:-0.550132 
1.0 1:-0.964551 2:-0.854241 3:-0.741716 4:-0.970046 5:-0.998701 6:-0.836254 7:-0.372059 8:-0.47548 9:-0.851515 10:-0.951895 11:-0.993958 12:-0.968578 13:-0.942983 14:-0.981576 15:-0.976834 16:-0.988512 17:-0.970193 18:-0.979331 19:-0.991881 20:-0.994203 21:-0.998391 22:-0.994326 23:-0.997503 24:-0.99506 25:-0.998252 26:-0.996208 27:-0.990056 28:-0.995248 29:-0.98964 30:-0.986637 31:-0.987558 32:-0.986548 33:-0.987817 34:-0.98779 35:-0.979875 36:-0.976804 37:-0.980378 38:-0.979134 39:-0.989244 40:-0.986771 41:-0.990495 42:-0.98841 43:-0.986244 44:-0.989484 45:-0.986997 46:-0.978151 47:-0.988697 48:-0.979475 49:-0.979228 50:-0.975876 
1.0 1:0.344339 2:-0.938425 3:-0.745576 4:-0.922326 5:-0.951301 6:-0.966452 7:-0.940485 8:-0.958258 9:-0.956083 10:-0.936791 11:-0.943604 12:-0.947154 13:-0.895885 14:-0.922839 15:-0.899941 16:-0.850693 17:-0.807405 18:-0.852952 19:-0.916906 20:-0.939869 21:-0.959671 22:-0.959297 23:-0.912865 24:-0.960861 25:-0.942204 26:-0.945339 27:-0.902518 28:-0.933457 29:-0.694496 30:-0.670017 31:-0.66762 32:-0.792412 33:-0.769745 34:-0.67088 35:-0.59319 36:-0.540619 37:-0.526478 38:-0.529086 39:-0.844696 40:-0.593361 41:-0.701938 42:-0.623718 43:-0.55306 44:-0.512211 45:-0.593939 46:-0.230915 47:-0.570509 48:-0.531662 49:-0.61974 50:-0.496982 
1.0 1:0.0817983 2:-0.965556 3:-0.957697 4:-0.635387 5:-0.824787 6:-0.944196 7:-0.965264 8:-0.972435 9:-0.959955 10:-0.685349 11:-0.954088 12:-0.962139 13:-0.907442 14:-0.945646 15:-0.852603 16:-0.838591 17:-0.858203 18:-0.861621 19:-0.935366 20:-0.947154 21:-0.954932 22:-0.961522 23:-0.950124 24:-0.963223 25:-0.974072 26:-0.946351 27:-0.931473 28:-0.95062 29:-0.823167 30:-0.801847 31:-0.745459 32:-0.800677 33:-0.79053 34:-0.655034 35:-0.663101 36:-0.75088 37:-0.743589 38:-0.73491 39:-0.849949 40:-0.799661 41:-0.777126 42:-0.710864 43:-0.744052 44:-0.693793 45:-0.673034 46:-0.735477 47:-0.730975 48:-0.607648 49:-0.673901 50:-0.701653 
1.0 1:0.559472 2:-0.793187 3:-0.91666 4:-0.951695 5:-0.950186 6:-0.927625 7:-0.941101 8:-0.967707 9:-0.968583 10:-0.962449 11:-0.947946 12:-0.949905 13:-0.902824 14:-0.915512 15:-0.812086 16:-0.859524 17:-0.784974 18:-0.827883 19:-0.89165 20:-0.929559 21:-0.956319 22:-0.953487 23:-0.933164 24:-0.947851 25:-0.964703 26:-0.90467 27:-0.867691 28:-0.924618 29:-0.736113 30:-0.695013 31:-0.616567 32:-0.78094 33:-0.697318 34:-0.660507 35:-0.465402 36:-0.673411 37:-0.448087 38:-0.68859 39:-0.809926 40:-0.709649 41:-0.66695 42:-0.416269 43:-0.644839 44:-0.53421 45:-0.387844 46:-0.477052 47:-0.566811 48:-0.44922 49:-0.597324 50:-0.539164 
1.0 1:-0.883405 2:-0.661127 3:-0.841218 4:-0.215703 5:-0.645012 6:-0.810501 7:-0.98746 8:-0.972157 9:-0.982086 10:-0.987193 11:-0.990436 12:-0.995186 13:-0.989066 14:-0.988236 15:-0.990908 16:-0.984171 17:-0.979235 18:-0.979878 19:-0.992641 20:-0.98659 21:-0.996464 22:-0.994666 23:-0.982054 24:-0.994113 25:-0.995962 26:-0.994664 27:-0.992065 28:-0.994663 29:-0.95239 30:-0.970886 31:-0.96994 32:-0.970796 33:-0.97081 34:-0.971724 35:-0.957317 36:-0.962687 37:-0.970537 38:-0.97625 39:-0.980392 40:-0.974045 41:-0.969546 42:-0.958399 43:-0.973578 44:-0.961115 45:-0.947397 46:-0.958247 47:-0.940918 48:-0.949383 49:-0.965892 50:-0.969413 
1.0 1:-0.986874 2:-0.895381 3:-0.948192 4:-0.91456 5:-0.992654 6:-0.765328 7:-0.166634 8:-0.740544 9:-0.592396 10:-0.973063 11:-0.986838 12:-0.984926 13:-0.986622 14:-0.984027 15:-0.992216 16:-0.992141 17:-0.990905 18:-0.993828 19:-0.997647 20:-0.996049 21:-0.996453 22:-0.999297 23:-0.99154 24:-0.998861 25:-0.99956 26:-0.997932 27:-0.998964 28:-0.998031 29:-0.99497 30:-0.996497 31:-0.996207 32:-0.994352 33:-0.992276 34:-0.994646 35:-0.990351 36:-0.993921 37:-0.992647 38:-0.996083 39:-0.997951 40:-0.995535 41:-0.997052 42:-0.993614 43:-0.994131 44:-0.989943 45:-0.988421 46:-0.996364 47:-0.995657 48:-0.994787 49:-0.975261 50:-0.987864 
1.0 1:-0.417846 2:-0.502876 3:-0.195369 4:-0.978684 5:-0.984278 6:-0.987564 7:-0.987127 8:-0.988204 9:-0.984566 10:-0.983144 11:-0.980999 12:-0.906966 13:-0.954241 14:-0.934742 15:-0.953853 16:-0.962044 17:-0.930611 18:-0.88728 19:-0.969049 20:-0.972659 21:-0.979288 22:-0.973525 23:-0.968345 24:-0.977936 25:-0.974899 26:-0.97077 27:-0.958407 28:-0.963346 29:-0.90136 30:-0.89354 31:-0.840754 32:-0.86035 33:-0.905942 34:-0.788616 35:-0.786981 36:-0.877105 37:-0.821384 38:-0.871153 39:-0.932623 40:-0.895596 41:-0.861323 42:-0.820986 43:-0.781497 44:-0.791616 45:-0.833773 46:-0.851697 47:-0.854492 48:-0.807408 49:-0.836727 50:-0.855949 
1.0 1:-0.906469 2:-0.917767 3:-0.814128 4:-0.408676 5:-0.690048 6:-0.926902 7:-0.484988 8:-0.866696 9:-0.992624 10:-0.970142 11:-0.98327 12:-0.993037 13:-0.979519 14:-0.994835 15:-0.9634 16:-0.993964 17:-0.984384 18:-0.967679 19:-0.991854 20:-0.994227 21:-0.995478 22:-0.995418 23:-0.99394 24:-0.997161 25:-0.997911 26:-0.996248 27:-0.992954 28:-0.994198 29:-0.987519 30:-0.982321 31:-0.96082 32:-0.981632 33:-0.9829 34:-0.973365 35:-0.969292 36:-0.970912 37:-0.973822 38:-0.979633 39:-0.988759 40:-0.974922 41:-0.973705 42:-0.966047 43:-0.977265 44:-0.968952 45:-0.968278 46:-0.975007 47:-0.973739 48:-0.969502 49:-0.965054 50:-0.96482 
1.0 1:-0.481887 2:-0.834777 3:-0.553142 4:-0.716246 5:-0.982003 6:-0.989101 7:-0.982128 8:-0.765421 9:-0.785595 10:-0.928468 11:-0.979136 12:-0.976768 13:-0.908486 14:-0.968071 15:-0.928673 16:-0.935101 17:-0.94031 18:-0.922101 19:-0.972701 20:-0.972046 21:-0.966085 22:-0.962775 23:-0.961895 24:-0.985258 25:-0.981749 26:-0.970249 27:-0.966891 28:-0.95842 29:-0.925066 30:-0.914595 31:-0.866902 32:-0.903003 33:-0.904701 34:-0.749845 35:-0.735696 36:-0.783566 37:-0.874079 38:-0.867134 39:-0.933425 40:-0.840434 41:-0.811769 42:-0.729532 43:-0.836535 44:-0.856407 45:-0.82665 46:-0.782488 47:-0.829572 48:-0.683934 49:-0.867296 50:-0.869188 
1.0 1:-0.533656 2:-0.68425 3:-0.838474 4:-0.595576 5:-0.765868 6:-0.909772 7:-0.958581 8:-0.986431 9:-0.964759 10:-0.978226 11:-0.988124 12:-0.978521 13:-0.893101 14:-0.525872 15:-0.946824 16:-0.956707 17:-0.939045 18:-0.935145 19:-0.959279 20:-0.949774 21:-0.968809 22:-0.961252 23:-0.978737 24:-0.983195 25:-0.98241 26:-0.972197 27:-0.971062 28:-0.965962 29:-0.938734 30:-0.888014 31:-0.821286 32:-0.926578 33:-0.892465 34:-0.894582 35:-0.868751 36:-0.864023 37:-0.851887 38:-0.896515 39:-0.939908 40:-0.871966 41:-0.867058 42:-0.869179 43:-0.864435 44:-0.839607 45:-0.849793 46:-0.874114 47:-0.810822 48:-0.807701 49:-0.78259 50:-0.867797 
1.0 1:-0.747064 2:-0.427671 3:-0.102227 4:-0.86705 5:-0.882035 6:-0.980251 7:-0.98174 8:-0.981507 9:-0.991927 10:-0.993896 11:-0.991433 12:-0.993563 13:-0.984498 14:-0.985071 15:-0.965766 16:-0.971758 17:-0.966858 18:-0.951951 19:-0.985458 20:-0.986587 21:-0.986977 22:-0.991901 23:-0.989581 24:-0.993075 25:-0.992672 26:-0.986258 27:-0.982859 28:-0.986485 29:-0.962368 30:-0.938647 31:-0.917123 32:-0.963274 33:-0.958348 34:-0.920244 35:-0.91583 36:-0.906596 37:-0.923682 38:-0.94803 39:-0.969739 40:-0.955836 41:-0.940358 42:-0.931975 43:-0.941319 44:-0.91465 45:-0.91346 46:-0.923203 47:-0.924221 48:-0.905573 49:-0.933131 50:-0.937469 
1.0 1:0.40896 2:-0.928443 3:-0.789646 4:-0.943721 5:-0.951548 6:-0.973424 7:-0.961214 8:-0.971032 9:-0.948707 10:-0.966365 11:-0.945004 12:-0.956273 13:-0.775616 14:-0.936424 15:-0.850933 16:-0.751584 17:-0.843567 18:-0.799495 19:-0.927866 20:-0.890252 21:-0.962905 22:-0.949279 23:-0.940495 24:-0.946224 25:-0.966777 26:-0.933598 27:-0.888983 28:-0.926844 29:-0.771222 30:-0.697632 31:-0.682258 32:-0.724735 33:-0.705033 34:-0.600665 35:-0.220178 36:-0.450606 37:-0.40971 38:-0.715596 39:-0.83996 40:-0.553888 41:-0.481265 42:-0.606809 43:-0.559536 44:-0.589387 45:-0.408998 46:-0.602857 47:-0.659602 48:-0.527823 49:-0.634026 50:-0.403057 
1.0 1:0.497078 2:-0.772399 3:-0.922325 4:-0.959157 5:-0.966667 6:-0.969532 7:-0.963559 8:-0.966248 9:-0.953361 10:-0.96442 11:-0.950185 12:-0.960385 13:-0.908092 14:-0.9201 15:-0.881786 16:-0.903971 17:-0.79929 18:-0.819072 19:-0.913136 20:-0.901087 21:-0.952625 22:-0.954036 23:-0.894347 24:-0.941376 25:-0.957671 26:-0.929443 27:-0.90799 28:-0.9064 29:-0.786898 30:-0.666859 31:-0.421991 32:-0.737537 33:-0.740199 34:-0.613295 35:-0.246043 36:-0.585575 37:-0.61123 38:-0.48205 39:-0.815564 40:-0.69847 41:-0.506236 42:-0.614532 43:-0.559543 44:-0.540219 45:-0.138362 46:-0.346557 47:-0.480535 48:-0.416812 49:-0.566404 50:-0.598828 
1.0 1:0.142966 2:-0.628012 3:-0.818347 4:-0.889845 5:-0.908325 6:-0.971156 7:-0.966565 8:-0.953615 9:-0.967736 10:-0.926021 11:-0.973145 12:-0.968273 13:-0.907296 14:-0.93725 15:-0.911209 16:-0.923828 17:-0.861961 18:-0.854232 19:-0.926294 20:-0.943387 21:-0.962186 22:-0.947936 23:-0.959067 24:-0.960297 25:-0.974669 26:-0.938642 27:-0.860271 28:-0.945319 29:-0.851566 30:-0.735448 31:-0.724764 32:-0.68345 33:-0.80609 34:-0.731384 35:-0.564531 36:-0.728697 37:-0.696135 38:-0.753373 39:-0.821586 40:-0.679739 41:-0.730039 42:-0.565078 43:-0.571831 44:-0.59859 45:-0.653476 46:-0.688835 47:-0.690254 48:-0.6394 49:-0.662007 50:-0.644618 
1.0 1:0.363437 2:-0.718817 3:-0.963863 4:-0.872342 5:-0.932601 6:-0.974634 7:-0.961395 8:-0.968455 9:-0.968394 10:-0.966567 11:-0.953337 12:-0.956026 13:-0.902678 14:-0.91708 15:-0.888322 16:-0.803925 17:-0.766287 18:-0.81014 19:-0.929673 20:-0.922238 21:-0.951716 22:-0.959372 23:-0.947431 24:-0.951479 25:-0.952337 26:-0.897615 27:-0.873004 28:-0.927409 29:-0.742597 30:-0.73946 31:-0.552838 32:-0.783901 33:-0.738143 34:-0.56065 35:-0.545268 36:-0.407833 37:-0.625187 38:-0.582108 39:-0.844634 40:-0.716068 41:-0.698995 42:-0.656151 43:-0.64438 44:-0.569065 45:-0.382188 46:-0.65739 47:-0.567581 48:-0.547292 49:-0.57111 50:-0.547832 
1.0 1:0.0459457 2:-0.462067 3:-0.764437 4:-0.974054 5:-0.972511 6:-0.97926 7:-0.968689 8:-0.976428 9:-0.976215 10:-0.969898 11:-0.970651 12:-0.971815 13:-0.906637 14:-0.94883 15:-0.829755 16:-0.920809 17:-0.814777 18:-0.886424 19:-0.914559 20:-0.941453 21:-0.947912 22:-0.940824 23:-0.956355 24:-0.964332 25:-0.976902 26:-0.924193 27:-0.933763 28:-0.943202 29:-0.847029 30:-0.636535 31:-0.710698 32:-0.852396 33:-0.826887 34:-0.724738 35:-0.485426 36:-0.660457 37:-0.611832 38:-0.71155 39:-0.852986 40:-0.792046 41:-0.739974 42:-0.556888 43:-0.731884 44:-0.602898 45:-0.634436 46:-0.618471 47:-0.715625 48:-0.563169 49:-0.657611 50:-0.73615 
1.0 1:-0.667807 2:-0.879958 3:-0.861992 4:-0.217628 5:-0.574751 6:-0.880749 7:-0.943331 8:-0.974834 9:-0.985766 10:-0.97722 11:-0.992121 12:-0.991208 13:-0.972797 14:-0.983759 15:-0.972517 16:-0.978023 17:-0.905359 18:-0.962732 19:-0.956307 20:-0.984671 21:-0.98773 22:-0.986799 23:-0.984826 24:-0.980019 25:-0.991418 26:-0.983708 27:-0.977737 28:-0.981972 29:-0.948449 30:-0.93439 31:-0.870253 32:-0.948692 33:-0.910473 34:-0.909071 35:-0.859994 36:-0.923591 37:-0.919411 38:-0.919203 39:-0.942821 40:-0.904507 41:-0.921638 42:-0.887602 43:-0.917664 44:-0.874112 45:-0.879252 46:-0.903849 47:-0.894411 48:-0.895893 49:-0.860991 50:-0.916654 
1.0 1:-0.477295 2:-0.682525 3:-0.603628 4:-0.605828 5:-0.842812 6:-0.976746 7:-0.858283 8:-0.972851 9:-0.975183 10:-0.977394 11:-0.986344 12:-0.981625 13:-0.963673 14:-0.972312 15:-0.960159 16:-0.949085 17:-0.943004 18:-0.930388 19:-0.97315 20:-0.953839 21:-0.959968 22:-0.984221 23:-0.971853 24:-0.9732 25:-0.976403 26:-0.974326 27:-0.963912 28:-0.958979 29:-0.893406 30:-0.89159 31:-0.879197 32:-0.917636 33:-0.895187 34:-0.881266 35:-0.836624 36:-0.86352 37:-0.841543 38:-0.791092 39:-0.885005 40:-0.891023 41:-0.881091 42:-0.863952 43:-0.862077 44:-0.844383 45:-0.852381 46:-0.786737 47:-0.862276 48:-0.820298 49:-0.825451 50:-0.836347 
1.0 1:-0.205434 2:-0.725404 3:-0.388471 4:-0.985176 5:-0.984456 6:-0.974182 7:-0.975331 8:-0.978363 9:-0.979844 10:-0.972032 11:-0.813461 12:-0.979999 13:-0.895543 14:-0.964154 15:-0.895047 16:-0.933969 17:-0.793796 18:-0.843268 19:-0.957735 20:-0.963262 21:-0.976406 22:-0.968838 23:-0.961031 24:-0.971513 25:-0.970274 26:-0.966894 27:-0.924699 28:-0.951242 29:-0.813591 30:-0.859889 31:-0.521476 32:-0.867615 33:-0.835852 34:-0.46685 35:-0.777694 36:-0.824374 37:-0.777618 38:-0.844359 39:-0.805208 40:-0.750453 41:-0.690042 42:-0.767385 43:-0.771245 44:-0.69093 45:-0.725874 46:-0.778072 47:-0.814326 48:-0.732304 49:-0.717525 50:-0.755996 
1.0 1:-0.413511 2:-0.783789 3:-0.127924 4:-0.918536 5:-0.89377 6:-0.969503 7:-0.950793 8:-0.95748 9:-0.974887 10:-0.973949 11:-0.982079 12:-0.978182 13:-0.947316 14:-0.972782 15:-0.956411 16:-0.956113 17:-0.881841 18:-0.917499 19:-0.954487 20:-0.96334 21:-0.964613 22:-0.962337 23:-0.977652 24:-0.981756 25:-0.976826 26:-0.962122 27:-0.958336 28:-0.965656 29:-0.917066 30:-0.90163 31:-0.819775 32:-0.911052 33:-0.871693 34:-0.868974 35:-0.739444 36:-0.859885 37:-0.851216 38:-0.86984 39:-0.92516 40:-0.878573 41:-0.829444 42:-0.781147 43:-0.843655 44:-0.823363 45:-0.757205 46:-0.852216 47:-0.843564 48:-0.748375 49:-0.809718 50:-0.847572 
1.0 1:0.190179 2:-0.956138 3:-0.552605 4:-0.89924 5:-0.973279 6:-0.95987 7:-0.976445 8:-0.975457 9:-0.972584 10:-0.934632 11:-0.933141 12:-0.957034 13:-0.927709 14:-0.925942 15:-0.899682 16:-0.918445 17:-0.863537 18:-0.752341 19:-0.920983 20:-0.930784 21:-0.938997 22:-0.966341 23:-0.958089 24:-0.866701 25:-0.953752 26:-0.895471 27:-0.888475 28:-0.935584 29:-0.850763 30:-0.77499 31:-0.720546 32:-0.769643 33:-0.800344 34:-0.700897 35:-0.62667 36:-0.708131 37:-0.692833 38:-0.69946 39:-0.864591 40:-0.711487 41:-0.730757 42:-0.634616 43:-0.631106 44:-0.462004 45:-0.642517 46:-0.682882 47:-0.718762 48:-0.44687 49:-0.633324 50:-0.56562 
1.0 1:-0.981397 2:0.816004 3:-0.862577 4:-0.97519 5:-0.988993 6:-0.998246 7:-0.99271 8:-0.998516 9:-0.997294 10:-0.998064 11:-0.999541 12:-0.998836 13:-0.996999 14:-0.998718 15:-0.996683 16:-0.998564 17:-0.997098 18:-0.997923 19:-0.998777 20:-0.999061 21:-0.997935 22:-0.997682 23:-0.997743 24:-0.999186 25:-0.998902 26:-0.999 27:-0.998563 28:-0.999049 29:-0.994555 30:-0.996755 31:-0.99578 32:-0.994303 33:-0.996436 34:-0.994628 35:-0.990757 36:-0.993101 37:-0.995578 38:-0.995696 39:-0.993804 40:-0.99651 41:-0.995576 42:-0.991444 43:-0.995013 44:-0.992883 45:-0.994052 46:-0.993888 47:-0.994839 48:-0.984817 49:-0.994831 50:-0.99416 
1.0 1:-0.377745 2:-0.365747 3:-0.493522 4:-0.954299 5:-0.982287 6:-0.97602 7:-0.983924 8:-0.984692 9:-0.9777 10:-0.98112 11:-0.966176 12:-0.978702 13:-0.954611 14:-0.79723 15:-0.951831 16:-0.896117 17:-0.900366 18:-0.92687 19:-0.966337 20:-0.931545 21:-0.972806 22:-0.979734 23:-0.965114 24:-0.977621 25:-0.972571 26:-0.966498 27:-0.949041 28:-0.970731 29:-0.899759 30:-0.872695 31:-0.807543 32:-0.894938 33:-0.880788 34:-0.844343 35:-0.74702 36:-0.866003 37:-0.835367 38:-0.870427 39:-0.889927 40:-0.881856 41:-0.854696 42:-0.797599 43:-0.847766 44:-0.728987 45:-0.756242 46:-0.826931 47:-0.621352 48:-0.786359 49:-0.8198 50:-0.735491 
1.0 1:-0.511084 2:-0.678331 3:-0.300074 4:-0.767587 5:-0.810017 6:-0.97004 7:-0.978928 8:-0.985043 9:-0.945433 10:-0.977658 11:-0.987485 12:-0.980524 13:-0.970447 14:-0.975579 15:-0.95925 16:-0.964611 17:-0.916793 18:-0.937318 19:-0.965401 20:-0.954128 21:-0.98625 22:-0.984055 23:-0.981252 24:-0.982533 25:-0.984962 26:-0.981049 27:-0.955171 28:-0.975668 29:-0.934787 30:-0.878338 31:-0.890083 32:-0.918774 33:-0.896735 34:-0.874933 35:-0.838865 36:-0.881324 37:-0.880203 38:-0.905483 39:-0.916511 40:-0.895823 41:-0.888589 42:-0.833922 43:-0.882649 44:-0.848783 45:-0.851107 46:-0.863762 47:-0.885743 48:-0.824153 49:-0.822551 50:-0.866162 
1.0 1:-0.50751 2:-0.523359 3:-0.916249 4:-0.547587 5:-0.747835 6:-0.910085 7:-0.988924 8:-0.982698 9:-0.936876 10:-0.974967 11:-0.978637 12:-0.972829 13:-0.968248 14:-0.958715 15:-0.925007 16:-0.947899 17:-0.936568 18:-0.94245 19:-0.965131 20:-0.977426 21:-0.987081 22:-0.985807 23:-0.98086 24:-0.968929 25:-0.968972 26:-0.980658 27:-0.916888 28:-0.954552 29:-0.929019 30:-0.8707 31:-0.714214 32:-0.928198 33:-0.873111 34:-0.881751 35:-0.800719 36:-0.889988 37:-0.878 38:-0.875578 39:-0.913711 40:-0.835485 41:-0.860911 42:-0.805177 43:-0.884447 44:-0.850059 45:-0.772848 46:-0.772264 47:-0.805536 48:-0.791061 49:-0.767932 50:-0.875337 
1.0 1:0.146245 2:-0.891287 3:-0.637574 4:-0.960043 5:-0.951192 6:-0.951124 7:-0.977735 8:-0.955424 9:-0.954619 10:-0.814327 11:-0.946087 12:-0.959625 13:-0.917203 14:-0.944689 15:-0.867842 16:-0.827466 17:-0.838006 18:-0.829488 19:-0.931725 20:-0.949023 21:-0.954885 22:-0.967864 23:-0.936196 24:-0.959021 25:-0.961325 26:-0.922743 27:-0.910871 28:-0.939222 29:-0.831787 30:-0.765604 31:-0.73916 32:-0.769335 33:-0.810792 34:-0.746402 35:-0.507494 36:-0.723872 37:-0.540332 38:-0.769344 39:-0.815823 40:-0.719705 41:-0.734854 42:-0.583183 43:-0.720171 44:-0.480573 45:-0.598921 46:-0.699523 47:-0.55039 48:-0.512388 49:-0.601522 50:-0.700597 
1.0 1:-0.859384 2:-0.986751 3:-0.850111 4:-0.889768 5:-0.737532 6:0.0686907 7:-0.845359 8:-0.960664 9:-0.932957 10:-0.989978 11:-0.993472 12:-0.994236 13:-0.98269 14:-0.992306 15:-0.972351 16:-0.9901 17:-0.96738 18:-0.983942 19:-0.987531 20:-0.98764 21:-0.995791 22:-0.992851 23:-0.992482 24:-0.996168 25:-0.995406 26:-0.993132 27:-0.984887 28:-0.992356 29:-0.977246 30:-0.96026 31:-0.965352 32:-0.978236 33:-0.968003 34:-0.93944 35:-0.958261 36:-0.953764 37:-0.963252 38:-0.972518 39:-0.974155 40:-0.965855 41:-0.957468 42:-0.954365 43:-0.951382 44:-0.944422 45:-0.905908 46:-0.923069 47:-0.964456 48:-0.947496 49:-0.9342 50:-0.966204 
1.0 1:-0.326574 2:-0.751875 3:-0.408006 4:-0.949898 5:-0.729685 6:-0.959402 7:-0.980303 8:-0.90143 9:-0.935492 10:-0.976082 11:-0.970735 12:-0.969547 13:-0.935571 14:-0.961659 15:-0.909725 16:-0.943118 17:-0.907907 18:-0.899493 19:-0.956554 20:-0.962457 21:-0.981563 22:-0.974001 23:-0.963933 24:-0.976962 25:-0.984434 26:-0.971915 27:-0.952675 28:-0.968758 29:-0.898393 30:-0.88523 31:-0.78966 32:-0.882166 33:-0.885744 34:-0.832982 35:-0.798711 36:-0.840742 37:-0.809482 38:-0.868126 39:-0.907899 40:-0.860633 41:-0.780281 42:-0.82667 43:-0.831573 44:-0.810717 45:-0.788269 46:-0.794375 47:-0.819379 48:-0.736605 49:-0.821012 50:-0.836721 
1.0 1:-0.769797 2:-0.868066 3:0.539927 4:-0.925371 5:-0.985754 6:-0.992683 7:-0.992631 8:-0.993895 9:-0.993298 10:-0.991481 11:-0.993152 12:-0.992399 13:-0.985461 14:-0.989861 15:-0.980033 16:-0.980326 17:-0.968033 18:-0.956896 19:-0.986314 20:-0.984936 21:-0.993594 22:-0.992961 23:-0.989029 24:-0.992332 25:-0.992861 26:-0.988495 27:-0.983997 28:-0.988803 29:-0.970924 30:-0.961859 31:-0.92924 32:-0.960904 33:-0.941019 34:-0.94362 35:-0.916699 36:-0.942487 37:-0.849735 38:-0.92305 39:-0.972745 40:-0.927588 41:-0.892668 42:-0.869623 43:-0.936558 44:-0.927004 45:-0.915041 46:-0.934889 47:-0.94252 48:-0.88892 49:-0.898821 50:-0.943588 
1.0 1:0.61534 2:-0.922649 3:-0.87774 4:-0.924436 5:-0.96724 6:-0.969667 7:-0.964631 8:-0.968191 9:-0.920344 10:-0.962382 11:-0.958156 12:-0.952225 13:-0.898654 14:-0.923924 15:-0.878204 16:-0.879957 17:-0.792237 18:-0.813476 19:-0.901134 20:-0.914448 21:-0.951413 22:-0.94133 23:-0.924577 24:-0.953103 25:-0.94331 26:-0.936699 27:-0.901395 28:-0.925799 29:-0.430776 30:-0.667853 31:-0.57872 32:-0.754459 33:-0.697399 34:-0.646402 35:-0.311421 36:-0.414406 37:-0.606594 38:-0.627728 39:-0.811795 40:-0.676811 41:-0.67419 42:-0.138521 43:-0.635203 44:-0.498276 45:-0.305215 46:-0.597973 47:-0.558924 48:-0.219946 49:-0.436763 50:-0.575417 
1.0 1:0.087458 2:-0.960155 3:-0.623371 4:-0.59231 5:-0.952836 6:-0.971761 7:-0.973459 8:-0.973086 9:-0.969368 10:-0.959507 11:-0.956943 12:-0.965642 13:-0.936954 14:-0.939839 15:-0.887404 16:-0.903156 17:-0.865249 18:-0.78367 19:-0.937462 20:-0.90897 21:-0.968451 22:-0.969531 23:-0.955273 24:-0.968461 25:-0.973258 26:-0.927375 27:-0.932153 28:-0.949201 29:-0.809985 30:-0.819131 31:-0.729777 32:-0.83842 33:-0.824837 34:-0.646716 35:-0.596187 36:-0.760662 37:-0.732402 38:-0.762258 39:-0.87423 40:-0.773704 41:-0.755142 42:-0.447013 43:-0.74447 44:-0.646079 45:-0.551637 46:-0.701752 47:-0.750745 48:-0.593398 49:-0.611057 50:-0.737304 
1.0 1:0.128381 2:-0.787022 3:-0.904147 4:-0.836208 5:-0.884831 6:-0.945766 7:-0.92139 8:-0.977982 9:-0.937548 10:-0.972007 11:-0.950539 12:-0.955617 13:-0.862339 14:-0.947293 15:-0.911311 16:-0.898937 17:-0.85284 18:-0.876478 19:-0.92574 20:-0.943935 21:-0.932606 22:-0.948109 23:-0.950939 24:-0.953973 25:-0.963774 26:-0.948118 27:-0.912814 28:-0.908252 29:-0.836994 30:-0.751184 31:-0.68695 32:-0.624187 33:-0.814101 34:-0.754188 35:-0.510561 36:-0.749329 37:-0.722604 38:-0.777151 39:-0.861163 40:-0.79851 41:-0.526461 42:-0.636862 43:-0.29422 44:-0.673628 45:-0.448724 46:-0.680939 47:-0.533255 48:-0.58127 49:-0.510769 50:-0.694725 
1.0 1:-0.592014 2:-0.243418 3:-0.604586 4:-0.902794 5:-0.960217 6:-0.976359 7:-0.985257 8:-0.929949 9:-0.862693 10:-0.954857 11:-0.977998 12:-0.963155 13:-0.951261 14:-0.981092 15:-0.970401 16:-0.941352 17:-0.920423 18:-0.92357 19:-0.962371 20:-0.981053 21:-0.988864 22:-0.959685 23:-0.977113 24:-0.983679 25:-0.989691 26:-0.983693 27:-0.974664 28:-0.980825 29:-0.918451 30:-0.906898 31:-0.890564 32:-0.848471 33:-0.894276 34:-0.899147 35:-0.847018 36:-0.899244 37:-0.896947 38:-0.908377 39:-0.944239 40:-0.841432 41:-0.885247 42:-0.826861 43:-0.906504 44:-0.848206 45:-0.827473 46:-0.867055 47:-0.889712 48:-0.872308 49:-0.873167 50:-0.873258 
1.0 1:0.3054 2:-0.863316 3:-0.747905 4:-0.932659 5:-0.967925 6:-0.955038 7:-0.961551 8:-0.973554 9:-0.952294 10:-0.919119 11:-0.949238 12:-0.949744 13:-0.91027 14:-0.932162 15:-0.855537 16:-0.908183 17:-0.858612 18:-0.849153 19:-0.938639 20:-0.934345 21:-0.959984 22:-0.940724 23:-0.954691 24:-0.958457 25:-0.961791 26:-0.926287 27:-0.879162 28:-0.928448 29:-0.820868 30:-0.756476 31:-0.480019 32:-0.778501 33:-0.772867 34:-0.711945 35:-0.561774 36:-0.586771 37:-0.443618 38:-0.65274 39:-0.789673 40:-0.551602 41:-0.403802 42:-0.52856 43:-0.615078 44:-0.541598 45:-0.408148 46:-0.667406 47:-0.606575 48:-0.383005 49:-0.664477 50:-0.462471 
1.0 1:-0.654543 2:-0.955892 3:0.10695 4:-0.70687 5:-0.963178 6:-0.959777 7:-0.941691 8:-0.976119 9:-0.988741 10:-0.986085 11:-0.965154 12:-0.980107 13:-0.97485 14:-0.979263 15:-0.955871 16:-0.946604 17:-0.955923 18:-0.945942 19:-0.983855 20:-0.974359 21:-0.988867 22:-0.985524 23:-0.987344 24:-0.986413 25:-0.983534 26:-0.976967 27:-0.953666 28:-0.970505 29:-0.945071 30:-0.921341 31:-0.822884 32:-0.857732 33:-0.941424 34:-0.858659 35:-0.870599 36:-0.918041 37:-0.906147 38:-0.903076 39:-0.95553 40:-0.931742 41:-0.929167 42:-0.841845 43:-0.898763 44:-0.896971 45:-0.826376 46:-0.913284 47:-0.910327 48:-0.853397 49:-0.890147 50:-0.900468 
1.0 1:-0.385766 2:-0.575671 3:-0.981825 4:-0.313614 5:-0.806975 6:-0.933993 7:-0.981795 8:-0.958924 9:-0.965539 10:-0.985423 11:-0.984687 12:-0.982916 13:-0.942954 14:-0.969254 15:-0.949075 16:-0.950339 17:-0.930211 18:-0.931375 19:-0.967375 20:-0.972608 21:-0.98113 22:-0.979781 23:-0.978519 24:-0.981898 25:-0.983727 26:-0.970501 27:-0.955329 28:-0.969522 29:-0.898622 30:-0.895414 31:-0.859351 32:-0.912655 33:-0.750612 34:-0.851362 35:-0.823117 36:-0.866388 37:-0.837113 38:-0.858263 39:-0.918199 40:-0.862617 41:-0.857008 42:-0.828188 43:-0.860566 44:-0.794064 45:-0.769994 46:-0.832933 47:-0.833329 48:-0.786341 49:-0.837647 50:-0.816415 
1.0 1:-0.127589 2:-0.619021 3:-0.629869 4:-0.948391 5:-0.925082 6:-0.976509 7:-0.967722 8:-0.971329 9:-0.949059 10:-0.951527 11:-0.961298 12:-0.957459 13:-0.921841 14:-0.946693 15:-0.930659 16:-0.884043 17:-0.880107 18:-0.831678 19:-0.95421 20:-0.951298 21:-0.936003 22:-0.970359 23:-0.963153 24:-0.96508 25:-0.980548 26:-0.945424 27:-0.940519 28:-0.924414 29:-0.855489 30:-0.716915 31:-0.525246 32:-0.864535 33:-0.716549 34:-0.80862 35:-0.373712 36:-0.635819 37:-0.704073 38:-0.811321 39:-0.900984 40:-0.834034 41:-0.602892 42:-0.579618 43:-0.784378 44:-0.751825 45:-0.726875 46:-0.726121 47:-0.773616 48:-0.685758 49:-0.763606 50:-0.752722 
1.0 1:-0.765771 2:-0.75049 3:0.16032 4:-0.778334 5:-0.921537 6:-0.972976 7:-0.97334 8:-0.988751 9:-0.97878 10:-0.993617 11:-0.993218 12:-0.993483 13:-0.95761 14:-0.981801 15:-0.982048 16:-0.974909 17:-0.970928 18:-0.973158 19:-0.984919 20:-0.989599 21:-0.990621 22:-0.988959 23:-0.991192 24:-0.991347 25:-0.994384 26:-0.990963 27:-0.981514 28:-0.988686 29:-0.963282 30:-0.94761 31:-0.939564 32:-0.966765 33:-0.951696 34:-0.943117 35:-0.914421 36:-0.949275 37:-0.943591 38:-0.93587 39:-0.952022 40:-0.955433 41:-0.951926 42:-0.937578 43:-0.945842 44:-0.934798 45:-0.910564 46:-0.928146 47:-0.908102 48:-0.924112 49:-0.936779 50:-0.850108 
1.0 1:0.258746 2:-0.596913 3:-0.89739 4:-0.950249 5:-0.970472 6:-0.976982 7:-0.959039 8:-0.960825 9:-0.951912 10:-0.967032 11:-0.959084 12:-0.967581 13:-0.904909 14:-0.907621 15:-0.903058 16:-0.891484 17:-0.67844 18:-0.826788 19:-0.905709 20:-0.925947 21:-0.960461 22:-0.951835 23:-0.947539 24:-0.963177 25:-0.97054 26:-0.937005 27:-0.905535 28:-0.894973 29:-0.782485 30:-0.787648 31:-0.688884 32:-0.768502 33:-0.72621 34:-0.691327 35:-0.496097 36:-0.57355 37:-0.68666 38:-0.669025 39:-0.853872 40:-0.681491 41:-0.736573 42:-0.632966 43:-0.557193 44:-0.658014 45:-0.405426 46:-0.671818 47:-0.448688 48:-0.513827 49:-0.498807 50:-0.516326 
1.0 1:-0.873432 2:-0.576352 3:-0.909902 4:-0.950312 5:0.0709779 6:-0.94261 7:-0.990011 8:-0.984438 9:-0.878438 10:-0.971663 11:-0.986546 12:-0.983199 13:-0.974065 14:-0.978156 15:-0.986984 16:-0.987933 17:-0.958683 18:-0.970885 19:-0.984899 20:-0.992596 21:-0.993891 22:-0.992151 23:-0.993844 24:-0.995438 25:-0.992096 26:-0.987685 27:-0.987669 28:-0.992351 29:-0.963986 30:-0.959767 31:-0.962522 32:-0.978289 33:-0.965222 34:-0.968962 35:-0.96154 36:-0.972858 37:-0.947515 38:-0.968749 39:-0.973881 40:-0.975359 41:-0.949599 42:-0.960429 43:-0.971251 44:-0.958807 45:-0.923146 46:-0.959297 47:-0.970254 48:-0.95934 49:-0.964738 50:-0.967877 
1.0 1:0.346891 2:-0.795195 3:-0.966263 4:-0.887805 5:-0.929923 6:-0.949283 7:-0.952506 8:-0.910907 9:-0.969451 10:-0.962061 11:-0.968833 12:-0.954617 13:-0.804224 14:-0.931167 15:-0.842049 16:-0.892573 17:-0.851258 18:-0.636484 19:-0.898489 20:-0.887114 21:-0.964345 22:-0.948884 23:-0.909925 24:-0.944692 25:-0.970191 26:-0.937808 27:-0.911669 28:-0.927408 29:-0.811128 30:-0.654671 31:-0.548402 32:-0.699224 33:-0.736798 34:-0.562422 35:-0.605306 36:-0.541523 37:-0.679778 38:-0.656418 39:-0.722941 40:-0.761881 41:-0.709636 42:-0.663719 43:-0.670612 44:-0.613966 45:-0.492337 46:-0.588588 47:-0.662933 48:-0.543831 49:-0.502999 50:-0.640578 
1.0 1:-0.981403 2:-0.778398 3:-0.905269 4:-0.905462 5:-0.912208 6:-0.991398 7:-0.735772 8:-0.825105 9:-0.0263763 10:-0.987983 11:-0.897935 12:-0.971886 13:-0.973444 14:-0.975379 15:-0.961411 16:-0.994848 17:-0.994275 18:-0.976395 19:-0.993946 20:-0.996816 21:-0.996127 22:-0.997299 23:-0.99679 24:-0.997973 25:-0.997491 26:-0.997387 27:-0.995568 28:-0.995019 29:-0.991496 30:-0.989264 31:-0.983511 32:-0.992732 33:-0.995329 34:-0.992873 35:-0.986837 36:-0.992046 37:-0.989085 38:-0.993712 39:-0.996227 40:-0.995587 41:-0.98924 42:-0.990278 43:-0.994936 44:-0.992667 45:-0.992163 46:-0.992551 47:-0.986015 48:-0.99361 49:-0.989156 50:-0.995456 
1.0 1:0.215529 2:-0.805486 3:-0.842411 4:-0.882816 5:-0.920665 6:-0.976017 7:-0.967714 8:-0.963433 9:-0.948249 10:-0.749956 11:-0.965357 12:-0.96891 13:-0.92612 14:-0.919141 15:-0.90173 16:-0.900472 17:-0.827126 18:-0.850894 19:-0.929572 20:-0.941103 21:-0.953145 22:-0.961385 23:-0.95318 24:-0.966682 25:-0.941251 26:-0.933033 27:-0.92302 28:-0.914925 29:-0.846445 30:-0.765657 31:-0.694757 32:-0.7589 33:-0.701745 34:-0.699214 35:-0.52034 36:-0.722947 37:-0.687342 38:-0.744048 39:-0.853754 40:-0.764081 41:-0.74035 42:-0.646902 43:-0.690247 44:-0.664214 45:-0.552705 46:-0.694608 47:-0.546879 48:-0.316764 49:-0.618141 50:-0.555931 
1.0 1:-0.126081 2:-0.84754 3:-0.278838 4:-0.910394 5:-0.940678 6:-0.950304 7:-0.976595 8:-0.975568 9:-0.965344 10:-0.977669 11:-0.977049 12:-0.968722 13:-0.881189 14:-0.958997 15:-0.910356 16:-0.90059 17:-0.904439 18:-0.901199 19:-0.956406 20:-0.942458 21:-0.957865 22:-0.974481 23:-0.965926 24:-0.972541 25:-0.976472 26:-0.959087 27:-0.935532 28:-0.935244 29:-0.885909 30:-0.852425 31:-0.60616 32:-0.855989 33:-0.833669 34:-0.788479 35:-0.720221 36:-0.801807 37:-0.708164 38:-0.629087 39:-0.890446 40:-0.649224 41:-0.774982 42:-0.772887 43:-0.738544 44:-0.750782 45:-0.751851 46:-0.765048 47:-0.779643 48:-0.694815 49:-0.722141 50:-0.75603 
1.0 1:-0.564329 2:-0.94853 3:-0.690995 4:-0.966798 5:-0.943818 6:-0.693357 7:-0.602959 8:-0.774349 9:-0.98736 10:-0.982738 11:-0.978499 12:-0.984071 13:-0.274416 14:-0.980701 15:-0.964428 16:-0.946574 17:-0.942154 18:-0.936892 19:-0.975895 20:-0.978569 21:-0.987573 22:-0.986321 23:-0.983603 24:-0.986841 25:-0.988487 26:-0.983279 27:-0.973743 28:-0.967903 29:-0.941334 30:-0.911906 31:-0.88463 32:-0.938072 33:-0.870041 34:-0.89155 35:-0.87077 36:-0.899521 37:-0.77446 38:-0.910782 39:-0.949519 40:-0.903427 41:-0.874106 42:-0.870431 43:-0.869517 44:-0.880218 45:-0.851935 46:-0.893014 47:-0.823677 48:-0.81516 49:-0.870906 50:-0.882033 
1.0 1:-0.617359 2:-0.615111 3:0.123969 4:-0.955972 5:-0.989453 6:-0.98282 7:-0.988711 8:-0.986325 9:-0.988269 10:-0.979818 11:-0.990484 12:-0.990213 13:-0.977256 14:-0.978235 15:-0.972461 16:-0.973876 17:-0.955694 18:-0.917079 19:-0.978107 20:-0.975058 21:-0.989004 22:-0.988452 23:-0.983057 24:-0.988701 25:-0.990913 26:-0.964561 27:-0.969826 28:-0.971288 29:-0.917577 30:-0.884173 31:-0.909655 32:-0.942088 33:-0.93511 34:-0.873529 35:-0.889022 36:-0.911659 37:-0.903779 38:-0.906225 39:-0.938547 40:-0.931335 41:-0.768004 42:-0.773204 43:-0.912747 44:-0.856397 45:-0.882242 46:-0.885043 47:-0.850897 48:-0.715993 49:-0.825026 50:-0.906427 
1.0 1:-0.978255 2:-0.965296 3:-0.984589 4:-0.972185 5:-0.604213 6:0.140638 7:-0.854275 8:-0.929802 9:-0.960395 10:-0.967019 11:-0.971878 12:-0.983373 13:-0.97311 14:-0.982164 15:-0.951668 16:-0.969575 17:-0.96461 18:-0.974089 19:-0.987584 20:-0.992321 21:-0.995984 22:-0.995106 23:-0.992383 24:-0.996554 25:-0.996654 26:-0.994275 27:-0.996154 28:-0.995221 29:-0.987313 30:-0.986953 31:-0.981339 32:-0.987966 33:-0.990574 34:-0.98862 35:-0.984193 36:-0.981701 37:-0.982354 38:-0.988581 39:-0.993314 40:-0.989062 41:-0.989026 42:-0.986092 43:-0.986965 44:-0.985677 45:-0.984427 46:-0.987791 47:-0.990074 48:-0.983236 49:-0.989318 50:-0.990133 
1.0 1:-0.163558 2:-0.96891 3:-0.113362 4:-0.908919 5:-0.98082 6:-0.967755 7:-0.983315 8:-0.974997 9:-0.983283 10:-0.972369 11:-0.973301 12:-0.977955 13:-0.862654 14:-0.9574 15:-0.882747 16:-0.945305 17:-0.876946 18:-0.757463 19:-0.899382 20:-0.938537 21:-0.9724 22:-0.963965 23:-0.970917 24:-0.972659 25:-0.967403 26:-0.957979 27:-0.941897 28:-0.954728 29:-0.84858 30:-0.843919 31:-0.800462 32:-0.839707 33:-0.832472 34:-0.813402 35:-0.713845 36:-0.725079 37:-0.703106 38:-0.815105 39:-0.822965 40:-0.74224 41:-0.7419 42:-0.770292 43:-0.792129 44:-0.759571 45:-0.619507 46:-0.794387 47:-0.802051 48:-0.653287 49:-0.742376 50:-0.724077 
1.0 1:-0.95306 2:-0.76581 3:-0.979274 4:0.252271 5:-0.847251 6:-0.97117 7:-0.950176 8:-0.76357 9:-0.995564 10:-0.991821 11:-0.996918 12:-0.996638 13:-0.994094 14:-0.991967 15:-0.981347 16:-0.990112 17:-0.993915 18:-0.988786 19:-0.997436 20:-0.99728 21:-0.998556 22:-0.998556 23:-0.99427 24:-0.997662 25:-0.998709 26:-0.996125 27:-0.994947 28:-0.99721 29:-0.993286 30:-0.990416 31:-0.989179 32:-0.99002 33:-0.991268 34:-0.988728 35:-0.964336 36:-0.986005 37:-0.988445 38:-0.990796 39:-0.989322 40:-0.97803 41:-0.980299 42:-0.985963 43:-0.977859 44:-0.987251 45:-0.982576 46:-0.988277 47:-0.988591 48:-0.984575 49:-0.981477 50:-0.982666 
1.0 1:-0.954755 2:-0.165005 3:-0.874757 4:-0.323616 5:-0.926357 6:-0.927801 7:-0.998979 8:-0.840655 9:-0.985285 10:-0.99837 11:-0.98038 12:-0.996246 13:-0.995447 14:-0.99643 15:-0.989109 16:-0.993803 17:-0.992097 18:-0.994415 19:-0.994673 20:-0.997507 21:-0.997872 22:-0.990099 23:-0.998235 24:-0.993093 25:-0.994667 26:-0.998256 27:-0.993398 28:-0.995492 29:-0.987034 30:-0.976843 31:-0.98693 32:-0.988489 33:-0.988838 34:-0.988836 35:-0.975654 36:-0.986436 37:-0.981912 38:-0.991025 39:-0.991181 40:-0.989787 41:-0.989397 42:-0.986118 43:-0.987155 44:-0.97874 45:-0.977719 46:-0.98402 47:-0.989464 48:-0.985323 49:-0.98792 50:-0.986218 
1.0 1:0.670463 2:-0.916326 3:-0.937205 4:-0.954521 5:-0.94329 6:-0.95545 7:-0.957009 8:-0.966689 9:-0.932336 10:-0.949992 11:-0.960944 12:-0.953215 13:-0.839439 14:-0.927042 15:-0.857686 16:-0.851854 17:-0.804589 18:-0.758703 19:-0.820739 20:-0.899925 21:-0.947675 22:-0.952116 23:-0.92768 24:-0.938498 25:-0.934562 26:-0.934006 27:-0.863083 28:-0.903312 29:-0.779065 30:-0.695129 31:-0.606808 32:-0.765626 33:-0.727439 34:-0.627582 35:-0.423 36:-0.625362 37:-0.533993 38:-0.629857 39:-0.797449 40:-0.699476 41:-0.46925 42:-0.581073 43:-0.51642 44:-0.483753 45:-0.373203 46:-0.392657 47:-0.351486 48:-0.451023 49:-0.555627 50:-0.474699 
1.0 1:-0.983386 2:-0.991014 3:-0.964507 4:-0.99004 5:-0.794657 6:-0.86367 7:-0.694367 8:-0.549229 9:-0.985329 10:-0.812181 11:-0.755233 12:-0.903565 13:-0.816066 14:-0.734025 15:-0.909321 16:-0.887479 17:-0.21759 18:-0.89493 19:-0.98989 20:-0.972131 21:-0.994475 22:-0.994355 23:-0.995562 24:-0.985678 25:-0.987273 26:-0.98709 27:-0.987212 28:-0.99096 29:-0.977983 30:-0.979057 31:-0.983354 32:-0.979802 33:-0.988335 34:-0.989196 35:-0.987769 36:-0.987344 37:-0.990126 38:-0.990233 39:-0.996072 40:-0.9921 41:-0.991267 42:-0.990425 43:-0.990591 44:-0.985425 45:-0.990912 46:-0.984127 47:-0.989759 48:-0.990644 49:-0.990346 50:-0.992272 
1.0 1:0.0556499 2:-0.772716 3:-0.942348 4:-0.706959 5:-0.919954 6:-0.973438 7:-0.98045 8:-0.934866 9:-0.97145 10:-0.965963 11:-0.964409 12:-0.969101 13:-0.935011 14:-0.952364 15:-0.905533 16:-0.894734 17:-0.858576 18:-0.837722 19:-0.930574 20:-0.941136 21:-0.966946 22:-0.966558 23:-0.929941 24:-0.877156 25:-0.964595 26:-0.956169 27:-0.905197 28:-0.950793 29:-0.523129 30:-0.768785 31:-0.756999 32:-0.735896 33:-0.771472 34:-0.76682 35:-0.609402 36:-0.671038 37:-0.516097 38:-0.7831 39:-0.563058 40:-0.577482 41:-0.750513 42:-0.666421 43:-0.725696 44:-0.527023 45:-0.592077 46:-0.659166 47:-0.640539 48:-0.616012 49:-0.654034 50:-0.739804 
1.0 1:0.41853 2:-0.965021 3:-0.922151 4:-0.711486 5:-0.950831 6:-0.95391 7:-0.935349 8:-0.965779 9:-0.965433 10:-0.966121 11:-0.959495 12:-0.964444 13:-0.900546 14:-0.930579 15:-0.887617 16:-0.845183 17:-0.731754 18:-0.678037 19:-0.918466 20:-0.928173 21:-0.95427 22:-0.950186 23:-0.930523 24:-0.953469 25:-0.956861 26:-0.910322 27:-0.843324 28:-0.890516 29:-0.799143 30:-0.760844 31:-0.634709 32:-0.797344 33:-0.71072 34:-0.593456 35:-0.598957 36:-0.598075 37:-0.618423 38:-0.709444 39:-0.818041 40:-0.694361 41:-0.658909 42:-0.533091 43:-0.511288 44:-0.393238 45:-0.568722 46:-0.555993 47:-0.604751 48:-0.425133 49:-0.603372 50:-0.651056 
1.0 1:-0.851213 2:-0.701678 3:-0.299437 4:-0.882019 5:-0.333654 6:-0.984189 7:-0.972581 8:-0.996935 9:-0.948625 10:-0.993666 11:-0.996327 12:-0.991434 13:-0.987451 14:-0.991632 15:-0.988257 16:-0.987112 17:-0.980746 18:-0.980024 19:-0.992928 20:-0.992318 21:-0.996083 22:-0.992342 23:-0.993045 24:-0.994433 25:-0.996393 26:-0.988113 27:-0.989428 28:-0.988968 29:-0.973965 30:-0.971288 31:-0.962005 32:-0.973211 33:-0.965814 34:-0.95465 35:-0.950072 36:-0.96708 37:-0.96454 38:-0.968496 39:-0.980349 40:-0.936919 41:-0.957572 42:-0.943598 43:-0.955553 44:-0.956197 45:-0.957795 46:-0.951013 47:-0.96376 48:-0.924531 49:-0.957249 50:-0.954129 
1.0 1:-0.689768 2:-0.728574 3:-0.223648 4:-0.902425 5:-0.937412 6:-0.943286 7:-0.943603 8:-0.795916 9:-0.967467 10:-0.869768 11:-0.964087 12:-0.98853 13:-0.937752 14:-0.983585 15:-0.970588 16:-0.940499 17:-0.945318 18:-0.950437 19:-0.982257 20:-0.968471 21:-0.977888 22:-0.985773 23:-0.986139 24:-0.988609 25:-0.990001 26:-0.985098 27:-0.972818 28:-0.974284 29:-0.92055 30:-0.947085 31:-0.926161 32:-0.928504 33:-0.879682 34:-0.883244 35:-0.900458 36:-0.932602 37:-0.903352 38:-0.927965 39:-0.964881 40:-0.935666 41:-0.92101 42:-0.895572 43:-0.926525 44:-0.891799 45:-0.868962 46:-0.858695 47:-0.895334 48:-0.896916 49:-0.917841 50:-0.871852 
1.0 1:-0.0891813 2:-0.577453 3:-0.835323 4:-0.861866 5:-0.978052 6:-0.966155 7:-0.982231 8:-0.954527 9:-0.975005 10:-0.977499 11:-0.976557 12:-0.970759 13:-0.943296 14:-0.853176 15:-0.825438 16:-0.881229 17:-0.839876 18:-0.764507 19:-0.939268 20:-0.930709 21:-0.933902 22:-0.933335 23:-0.948058 24:-0.96868 25:-0.976629 26:-0.964227 27:-0.88786 28:-0.950582 29:-0.852602 30:-0.775337 31:-0.770022 32:-0.788019 33:-0.616068 34:-0.699445 35:-0.687747 36:-0.741375 37:-0.656781 38:-0.809151 39:-0.802189 40:-0.759302 41:-0.705305 42:-0.224688 43:-0.761505 44:-0.665625 45:-0.619719 46:-0.753621 47:-0.743163 48:-0.532921 49:-0.567277 50:-0.726741 
1.0 1:-0.930157 2:-0.989693 3:-0.692689 4:-0.843082 5:-0.956104 6:-0.430263 7:-0.951266 8:-0.581035 9:-0.798479 10:-0.747732 11:-0.995003 12:-0.985075 13:-0.979978 14:-0.979295 15:-0.991917 16:-0.990198 17:-0.966449 18:-0.990813 19:-0.993089 20:-0.995001 21:-0.994973 22:-0.997183 23:-0.997153 24:-0.995928 25:-0.998438 26:-0.994839 27:-0.995373 28:-0.996614 29:-0.990689 30:-0.982357 31:-0.960971 32:-0.989424 33:-0.988427 34:-0.979746 35:-0.973791 36:-0.982906 37:-0.973017 38:-0.986432 39:-0.990917 40:-0.979846 41:-0.978763 42:-0.982414 43:-0.983163 44:-0.971124 45:-0.976982 46:-0.973712 47:-0.971071 48:-0.974881 49:-0.980578 50:-0.983124 
1.0 1:0.00991516 2:-0.482288 3:-0.714042 4:-0.884868 5:-0.981406 6:-0.967481 7:-0.947982 8:-0.98061 9:-0.977491 10:-0.969512 11:-0.968746 12:-0.974183 13:-0.895589 14:-0.945994 15:-0.891368 16:-0.925254 17:-0.877779 18:-0.812718 19:-0.934138 20:-0.952487 21:-0.971309 22:-0.969146 23:-0.965016 24:-0.972303 25:-0.977573 26:-0.9564 27:-0.914532 28:-0.94346 29:-0.843357 30:-0.754931 31:-0.621025 32:-0.856357 33:-0.786943 34:-0.704266 35:-0.707026 36:-0.779017 37:-0.745715 38:-0.755106 39:-0.866234 40:-0.766158 41:-0.791627 42:-0.694938 43:-0.757161 44:-0.719676 45:-0.692345 46:-0.71193 47:-0.737078 48:-0.331424 49:-0.57057 50:-0.753518 
1.0 1:-0.601066 2:-0.0746461 3:-0.815086 4:-0.774133 5:-0.881028 6:-0.988012 7:-0.98254 8:-0.986539 9:-0.990756 10:-0.956018 11:-0.987623 12:-0.986912 13:-0.893439 14:-0.953582 15:-0.969485 16:-0.972345 17:-0.939361 18:-0.87175 19:-0.979889 20:-0.966145 21:-0.985834 22:-0.987405 23:-0.978932 24:-0.984814 25:-0.990625 26:-0.957952 27:-0.945953 28:-0.97785 29:-0.82781 30:-0.900387 31:-0.868818 32:-0.943736 33:-0.8635 34:-0.872879 35:-0.852914 36:-0.731844 37:-0.884825 38:-0.867912 39:-0.952136 40:-0.897373 41:-0.858226 42:-0.845284 43:-0.892674 44:-0.807126 45:-0.883932 46:-0.901495 47:-0.902518 48:-0.872307 49:-0.892647 50:-0.904647 
1.0 1:-0.968068 2:-0.60591 3:-0.632247 4:-0.841188 5:-0.998336 6:-0.992255 7:-0.452463 8:-0.758732 9:-0.929943 10:-0.943681 11:-0.969235 12:-0.88713 13:-0.982495 14:-0.985971 15:-0.949601 16:-0.973458 17:-0.989726 18:-0.982251 19:-0.985856 20:-0.99174 21:-0.995559 22:-0.996581 23:-0.985561 24:-0.996758 25:-0.998266 26:-0.986769 27:-0.996033 28:-0.997492 29:-0.965407 30:-0.976696 31:-0.98467 32:-0.97622 33:-0.989149 34:-0.979692 35:-0.988527 36:-0.985335 37:-0.983733 38:-0.982238 39:-0.995675 40:-0.982 41:-0.991196 42:-0.98842 43:-0.970375 44:-0.985566 45:-0.985095 46:-0.979074 47:-0.991136 48:-0.973662 49:-0.976582 50:-0.991702 
1.0 1:-0.33966 2:-0.415655 3:-0.974619 4:-0.572585 5:-0.918301 6:-0.894772 7:-0.954489 8:-0.957928 9:-0.980225 10:-0.967984 11:-0.982321 12:-0.964249 13:-0.954075 14:-0.95476 15:-0.917301 16:-0.945211 17:-0.879215 18:-0.872153 19:-0.968592 20:-0.961524 21:-0.967372 22:-0.973204 23:-0.966612 24:-0.977545 25:-0.964486 26:-0.967688 27:-0.922022 28:-0.968887 29:-0.898959 30:-0.875943 31:-0.80999 32:-0.899656 33:-0.854487 34:-0.783946 35:-0.798697 36:-0.816419 37:-0.823321 38:-0.795713 39:-0.916549 40:-0.813948 41:-0.817417 42:-0.827118 43:-0.849571 44:-0.818848 45:-0.781328 46:-0.838033 47:-0.757913 48:-0.753143 49:-0.811328 50:-0.839382 
1.0 1:-0.460343 2:0.023769 3:-0.678168 4:-0.968382 5:-0.985708 6:-0.985363 7:-0.987952 8:-0.989604 9:-0.978205 10:-0.985652 11:-0.966579 12:-0.985468 13:-0.966088 14:-0.966661 15:-0.948339 16:-0.945797 17:-0.934696 18:-0.92491 19:-0.9711 20:-0.975517 21:-0.976109 22:-0.965513 23:-0.980984 24:-0.968723 25:-0.98363 26:-0.978795 27:-0.948595 28:-0.974872 29:-0.852243 30:-0.82457 31:-0.87398 32:-0.839489 33:-0.910434 34:-0.880382 35:-0.749309 36:-0.881573 37:-0.848763 38:-0.799534 39:-0.88658 40:-0.89109 41:-0.854615 42:-0.855753 43:-0.862885 44:-0.783036 45:-0.838139 46:-0.868038 47:-0.8273 48:-0.723113 49:-0.859 50:-0.868556 
1.0 1:-0.273722 2:-0.631494 3:-0.510423 4:-0.843575 5:-0.977249 6:-0.908769 7:-0.982003 8:-0.965415 9:-0.954614 10:-0.979526 11:-0.977525 12:-0.953821 13:-0.95362 14:-0.892795 15:-0.929069 16:-0.941011 17:-0.905067 18:-0.894996 19:-0.966409 20:-0.945903 21:-0.978881 22:-0.96996 23:-0.969804 24:-0.963007 25:-0.980888 26:-0.969606 27:-0.861764 28:-0.965201 29:-0.876171 30:-0.870558 31:-0.790283 32:-0.828047 33:-0.882416 34:-0.618487 35:-0.785973 36:-0.742331 37:-0.820832 38:-0.851511 39:-0.876241 40:-0.86192 41:-0.821304 42:-0.804577 43:-0.832554 44:-0.638563 45:-0.695402 46:-0.816927 47:-0.695909 48:-0.643018 49:-0.757775 50:-0.806782 
1.0 1:0.666535 2:-0.883417 3:-0.94087 4:-0.947398 5:-0.960886 6:-0.967911 7:-0.950815 8:-0.958928 9:-0.960261 10:-0.958994 11:-0.941809 12:-0.958665 13:-0.845916 14:-0.926289 15:-0.855268 16:-0.870197 17:-0.723423 18:-0.80998 19:-0.902794 20:-0.89417 21:-0.924714 22:-0.950053 23:-0.894715 24:-0.939758 25:-0.942261 26:-0.897988 27:-0.8875 28:-0.909542 29:-0.727139 30:-0.674751 31:-0.540579 32:-0.681346 33:-0.601469 34:-0.59386 35:-0.314766 36:-0.622021 37:-0.552545 38:-0.588005 39:-0.792611 40:-0.644956 41:-0.652114 42:-0.580861 43:-0.607838 44:-0.502972 45:-0.527916 46:-0.548146 47:-0.579777 48:-0.358058 49:-0.550305 50:-0.498633 
1.0 1:-0.362288 2:-0.247092 3:-0.68221 4:-0.977917 5:-0.873541 6:-0.957049 7:-0.987439 8:-0.975765 9:-0.985046 10:-0.804133 11:-0.979501 12:-0.981467 13:-0.955285 14:-0.969171 15:-0.943126 16:-0.952381 17:-0.905979 18:-0.927819 19:-0.961159 20:-0.967683 21:-0.982556 22:-0.975651 23:-0.977704 24:-0.981716 25:-0.982559 26:-0.975213 27:-0.95621 28:-0.966201 29:-0.916022 30:-0.889298 31:-0.849393 32:-0.877523 33:-0.880327 34:-0.845891 35:-0.721079 36:-0.792049 37:-0.830547 38:-0.830303 39:-0.919578 40:-0.873555 41:-0.858025 42:-0.835797 43:-0.837983 44:-0.814572 45:-0.818859 46:-0.830619 47:-0.797273 48:-0.78282 49:-0.833795 50:-0.839288 
1.0 1:-0.715017 2:-0.452561 3:-0.052973 4:-0.875605 5:-0.986155 6:-0.978371 7:-0.967061 8:-0.990824 9:-0.981207 10:-0.989239 11:-0.991098 12:-0.991155 13:-0.978444 14:-0.98642 15:-0.976669 16:-0.978785 17:-0.954206 18:-0.962628 19:-0.972858 20:-0.983631 21:-0.968872 22:-0.987174 23:-0.966121 24:-0.987536 25:-0.990374 26:-0.982967 27:-0.974546 28:-0.978312 29:-0.963034 30:-0.926421 31:-0.928593 32:-0.958081 33:-0.94528 34:-0.931847 35:-0.915481 36:-0.91897 37:-0.919969 38:-0.937865 39:-0.960565 40:-0.946435 41:-0.942405 42:-0.837414 43:-0.872001 44:-0.920081 45:-0.899723 46:-0.92433 47:-0.932479 48:-0.892988 49:-0.908648 50:-0.929572 
1.0 1:-0.757701 2:-0.965293 3:0.594868 4:-0.968764 5:-0.995066 6:-0.964782 7:-0.992085 8:-0.987573 9:-0.991674 10:-0.992591 11:-0.993542 12:-0.991941 13:-0.979557 14:-0.988784 15:-0.981277 16:-0.979006 17:-0.965438 18:-0.97242 19:-0.983213 20:-0.987337 21:-0.985287 22:-0.978699 23:-0.970952 24:-0.99319 25:-0.994484 26:-0.972592 27:-0.977659 28:-0.980777 29:-0.968845 30:-0.956471 31:-0.945073 32:-0.964171 33:-0.957515 34:-0.858053 35:-0.906866 36:-0.928726 37:-0.907772 38:-0.849363 39:-0.959767 40:-0.954819 41:-0.902865 42:-0.895873 43:-0.909863 44:-0.912056 45:-0.858729 46:-0.92996 47:-0.91453 48:-0.877355 49:-0.804683 50:-0.933238 
1.0 1:-0.942533 2:-0.946112 3:-0.624165 4:-0.941806 5:-0.783729 6:-0.793606 7:-0.475918 8:-0.845639 9:-0.928738 10:-0.972174 11:-0.983749 12:-0.975485 13:-0.937193 14:-0.739934 15:-0.978819 16:-0.994643 17:-0.944812 18:-0.993488 19:-0.990439 20:-0.992133 21:-0.997214 22:-0.990941 23:-0.960353 24:-0.976685 25:-0.998566 26:-0.893904 27:-0.920997 28:-0.98674 29:-0.970789 30:-0.946104 31:-0.986878 32:-0.972511 33:-0.982319 34:-0.986386 35:-0.969724 36:-0.966498 37:-0.951473 38:-0.958409 39:-0.989065 40:-0.975474 41:-0.987861 42:-0.985302 43:-0.985811 44:-0.978747 45:-0.979017 46:-0.982688 47:-0.986378 48:-0.980719 49:-0.971213 50:-0.983442 
1.0 1:-0.380724 2:-0.710479 3:-0.977479 4:-0.579159 5:-0.757906 6:-0.65076 7:-0.976554 8:-0.988025 9:-0.944569 10:-0.965605 11:-0.985463 12:-0.982691 13:-0.963941 14:-0.954629 15:-0.950189 16:-0.954901 17:-0.932397 18:-0.863314 19:-0.969067 20:-0.966084 21:-0.95987 22:-0.970141 23:-0.974322 24:-0.981365 25:-0.979601 26:-0.966195 27:-0.960266 28:-0.971516 29:-0.901465 30:-0.873771 31:-0.717977 32:-0.908626 33:-0.886113 34:-0.8512 35:-0.765072 36:-0.848564 37:-0.815611 38:-0.873373 39:-0.925773 40:-0.869049 41:-0.841401 42:-0.811849 43:-0.845742 44:-0.817999 45:-0.787444 46:-0.807134 47:-0.850056 48:-0.757898 49:-0.793839 50:-0.795224 
1.0 1:-0.64219 2:-0.492649 3:-0.454054 4:-0.831641 5:-0.987537 6:-0.924523 7:-0.989079 8:-0.983258 9:-0.969734 10:-0.988498 11:-0.972321 12:-0.989118 13:-0.970954 14:-0.972153 15:-0.878497 16:-0.93583 17:-0.946482 18:-0.954178 19:-0.875602 20:-0.859925 21:-0.979251 22:-0.963702 23:-0.982996 24:-0.981279 25:-0.926518 26:-0.920097 27:-0.885442 28:-0.979731 29:-0.898199 30:-0.825485 31:-0.78415 32:-0.938338 33:-0.925149 34:-0.809501 35:-0.792313 36:-0.887488 37:-0.861714 38:-0.930869 39:-0.950713 40:-0.913216 41:-0.92728 42:-0.891852 43:-0.869555 44:-0.90177 45:-0.848502 46:-0.909892 47:-0.908364 48:-0.876284 49:-0.901401 50:-0.908622 
1.0 1:-0.573448 2:-0.880904 3:-0.517167 4:-0.491184 5:-0.908332 6:-0.835259 7:-0.964733 8:-0.978089 9:-0.974077 10:-0.966659 11:-0.989946 12:-0.988063 13:-0.938742 14:-0.978464 15:-0.965931 16:-0.961703 17:-0.939468 18:-0.896916 19:-0.98049 20:-0.951572 21:-0.978623 22:-0.965055 23:-0.981459 24:-0.939763 25:-0.953296 26:-0.971905 27:-0.948624 28:-0.967535 29:-0.815989 30:-0.881117 31:-0.854969 32:-0.919497 33:-0.907449 34:-0.902871 35:-0.877105 36:-0.884369 37:-0.87324 38:-0.907726 39:-0.881945 40:-0.925657 41:-0.880569 42:-0.771465 43:-0.870968 44:-0.845179 45:-0.765415 46:-0.878052 47:-0.89968 48:-0.772018 49:-0.872285 50:-0.859965 
1.0 1:-0.866228 2:-0.700114 3:-0.142845 4:-0.503682 5:-0.917715 6:-0.97595 7:-0.982505 8:-0.974347 9:-0.972354 10:-0.995826 11:-0.986509 12:-0.992487 13:-0.926594 14:-0.915004 15:-0.987979 16:-0.988574 17:-0.98042 18:-0.970416 19:-0.992072 20:-0.990138 21:-0.99508 22:-0.991365 23:-0.995357 24:-0.995204 25:-0.994907 26:-0.994624 27:-0.989595 28:-0.993749 29:-0.973433 30:-0.972795 31:-0.957766 32:-0.980231 33:-0.965961 34:-0.965429 35:-0.953872 36:-0.960346 37:-0.961272 38:-0.969466 39:-0.980804 40:-0.969663 41:-0.971084 42:-0.942546 43:-0.93214 44:-0.954179 45:-0.961971 46:-0.96755 47:-0.965428 48:-0.943534 49:-0.92726 50:-0.938965 
1.0 1:-0.940642 2:-0.939568 3:-0.822962 4:-0.92151 5:-0.468547 6:-0.374981 7:-0.932879 8:-0.95214 9:-0.958328 10:-0.902905 11:-0.737878 12:-0.934666 13:-0.993307 14:-0.995271 15:-0.973523 16:-0.992922 17:-0.980166 18:-0.974755 19:-0.993175 20:-0.994077 21:-0.997739 22:-0.997698 23:-0.995582 24:-0.998222 25:-0.997643 26:-0.997613 27:-0.995375 28:-0.994857 29:-0.991095 30:-0.985131 31:-0.985042 32:-0.984737 33:-0.988323 34:-0.976013 35:-0.981487 36:-0.987445 37:-0.984838 38:-0.988478 39:-0.993229 40:-0.985141 41:-0.975393 42:-0.983716 43:-0.981575 44:-0.97544 45:-0.982003 46:-0.983601 47:-0.98518 48:-0.975504 49:-0.981905 50:-0.978723 
